
#include <eml_net.h>
static const float heart_layer_0_biases[40] = { 0.000000f, 0.000000f, 0.000000f, -0.000000f, 0.000000f, -0.000000f, -0.000000f, 0.000000f, -0.000000f, -0.000000f, 0.000000f, 0.000000f, 0.000000f, 0.000000f, 0.000000f, 0.000000f, -0.000000f, 0.000000f, 0.000000f, 0.000000f, 0.000000f, 0.000000f, 0.000000f, 0.000000f, 0.000000f, 0.000000f, 0.000000f, -0.000000f, -0.000000f, 0.000000f, 0.000000f, 0.000000f, 0.000000f, 0.000000f, -0.000000f, -0.000000f, 0.000000f, 0.000000f, -0.000000f, 0.000000f };
static const float heart_layer_0_weights[160] = { -0.005097f, 0.236824f, 0.293482f, 0.084302f, -0.202065f, -0.027791f, 0.176544f, -0.044260f, -0.165596f, -0.345770f, -0.348266f, 0.210821f, -0.061219f, -0.151542f, -0.170855f, 0.064927f, -0.250426f, 0.045244f, 0.009883f, 0.210752f, 0.138730f, -0.289679f, 0.007172f, -0.044557f, 0.355402f, -0.183462f, -0.217482f, -0.050300f, -0.194999f, -0.039344f, 0.354365f, 0.227766f, -0.027837f, -0.170771f, 0.164525f, 0.037879f, 0.240983f, 0.204663f, 0.029857f, 0.084534f, 0.011133f, -0.348372f, 0.218797f, 0.356839f, 0.262851f, 0.248928f, -0.334110f, 0.235928f, 0.251296f, -0.035526f, -0.304358f, 0.120410f, -0.018086f, 0.040801f, 0.267446f, -0.310973f, -0.014391f, -0.128471f, -0.269390f, -0.071888f, -0.249329f, -0.037758f, 0.332389f, 0.292300f, -0.070626f, 0.262045f, 0.005058f, 0.129931f, -0.209457f, -0.246328f, 0.142490f, 0.011389f, 0.265674f, -0.082632f, 0.072202f, 0.323027f, -0.047761f, -0.224590f, -0.141412f, -0.106262f, 0.055504f, 0.022944f, -0.180799f, -0.118783f, 0.326441f, -0.119425f, 0.253328f, -0.062386f, -0.236510f, 0.317931f, 0.204025f, -0.151734f, 0.348660f, 0.283536f, -0.336121f, -0.256474f, -0.010371f, 0.175653f, 0.090525f, -0.284693f, 0.281612f, 0.172475f, 0.344214f, -0.279360f, -0.247303f, 0.163666f, 0.340024f, 0.001732f, -0.277342f, -0.130489f, -0.112685f, 0.367935f, 0.330211f, 0.089948f, -0.050789f, -0.214543f, -0.081354f, 0.001322f, -0.293906f, 0.007740f, 0.074581f, 0.080692f, 0.213371f, 0.306867f, 0.345121f, 0.022430f, -0.143707f, -0.273532f, 0.305571f, -0.154550f, -0.282598f, -0.334981f, 0.293036f, 0.016311f, -0.113724f, -0.300487f, -0.177580f, -0.301561f, 0.320509f, 0.037135f, -0.248752f, 0.171764f, 0.207867f, -0.028279f, -0.360973f, 0.189587f, -0.149422f, 0.230905f, 0.168983f, -0.346601f, -0.273581f, -0.057697f, -0.226143f, 0.347778f, -0.182615f, 0.165015f, -0.049703f, 0.035212f, 0.050137f, 0.359240f };
static const float heart_layer_1_biases[40] = { -0.000000f, -0.000000f, -0.000000f, -0.000000f, -0.000000f, -0.000000f, 0.000000f, 0.000000f, -0.000000f, 0.000000f, -0.000000f, 0.000000f, -0.000000f, 0.000000f, 0.000000f, -0.000000f, -0.000000f, 0.000000f, -0.000000f, -0.000000f, -0.000000f, -0.000000f, -0.000000f, 0.000000f, 0.000000f, -0.000000f, -0.000000f, 0.000000f, 0.000000f, -0.000000f, -0.000000f, -0.000000f, -0.000000f, -0.000000f, 0.000000f, 0.000000f, -0.000000f, 0.000000f, 0.000000f, -0.000000f };
static const float heart_layer_1_weights[1600] = { -0.133673f, 0.104611f, 0.247771f, 0.070698f, 0.032338f, 0.008327f, 0.104761f, -0.159966f, -0.200414f, -0.233106f, 0.104324f, -0.110188f, 0.137353f, 0.237991f, -0.248794f, 0.068161f, -0.047885f, 0.070323f, 0.046172f, -0.113616f, -0.030471f, -0.179725f, -0.058957f, -0.164102f, -0.270522f, -0.004605f, 0.152623f, -0.270018f, 0.107808f, 0.102536f, -0.030845f, -0.073166f, 0.240041f, 0.055649f, -0.094777f, -0.231430f, -0.012835f, 0.026258f, 0.213530f, 0.266940f, 0.104967f, 0.246916f, 0.062275f, 0.228609f, -0.140751f, -0.116709f, 0.184189f, -0.162215f, -0.087755f, -0.237742f, -0.133082f, 0.106701f, -0.206851f, -0.047577f, -0.043385f, 0.221192f, 0.053523f, -0.257004f, -0.227675f, -0.123044f, 0.118697f, 0.184653f, 0.115502f, 0.033481f, -0.159324f, 0.248262f, 0.058510f, -0.079452f, -0.004746f, -0.141379f, -0.172498f, 0.190181f, 0.196507f, -0.080954f, 0.209870f, -0.197457f, -0.007777f, -0.272877f, -0.194747f, -0.213508f, 0.255160f, -0.116486f, 0.150300f, -0.207987f, 0.001387f, 0.251768f, -0.082914f, 0.093492f, 0.041550f, 0.012153f, 0.122285f, -0.028093f, 0.023695f, -0.124476f, -0.217719f, -0.075084f, 0.046291f, 0.003649f, 0.181709f, -0.111573f, -0.169430f, 0.108261f, 0.201792f, 0.140742f, 0.024215f, -0.065478f, 0.025705f, -0.122869f, -0.105919f, -0.242006f, 0.179060f, -0.074737f, 0.103318f, -0.186540f, -0.107720f, -0.029862f, 0.062770f, -0.080784f, 0.178922f, -0.081087f, -0.209500f, -0.096842f, 0.162907f, 0.192530f, -0.114439f, -0.119966f, 0.220825f, -0.235561f, -0.174728f, -0.062295f, 0.125592f, -0.131048f, -0.072434f, 0.034174f, -0.026801f, 0.028161f, 0.065036f, -0.094345f, 0.078752f, 0.041764f, -0.143103f, 0.016344f, 0.105523f, 0.026778f, 0.063900f, 0.223121f, 0.152588f, 0.129656f, -0.248171f, -0.081382f, -0.260316f, 0.016391f, -0.003038f, 0.266122f, 0.113747f, 0.165185f, -0.064068f, 0.152844f, -0.110110f, 0.124345f, 0.213663f, 0.269132f, 0.209363f, -0.132973f, 0.094871f, -0.035030f, 0.242460f, -0.015201f, 0.079575f, -0.062523f, 0.232971f, 0.035959f, -0.018276f, -0.199601f, 0.064823f, 0.190719f, 0.071379f, 0.077994f, 0.226917f, 0.077966f, -0.142454f, 0.226514f, -0.057797f, -0.052997f, -0.225495f, -0.101357f, 0.005372f, 0.230728f, -0.022751f, 0.271443f, 0.091688f, -0.084554f, -0.142625f, -0.131954f, -0.096123f, -0.065022f, 0.104129f, -0.149541f, 0.131482f, 0.256526f, 0.201962f, -0.045716f, 0.061845f, -0.011677f, -0.071560f, 0.099550f, -0.035766f, 0.272447f, -0.031839f, 0.045923f, 0.268968f, 0.086363f, -0.013403f, -0.249299f, 0.069115f, 0.184803f, 0.086365f, 0.154838f, -0.266595f, 0.011868f, -0.238049f, 0.047468f, -0.035012f, 0.037592f, -0.250074f, -0.076704f, 0.240056f, 0.183763f, 0.207191f, -0.168502f, -0.051533f, -0.021256f, 0.180921f, 0.054750f, -0.144224f, -0.025630f, 0.248529f, -0.198147f, -0.115224f, 0.244240f, 0.067870f, -0.228719f, 0.160953f, -0.188699f, -0.126508f, 0.028969f, -0.183987f, -0.022885f, 0.021280f, 0.050338f, 0.233219f, -0.105093f, -0.171654f, 0.060051f, -0.047993f, -0.272364f, 0.191486f, 0.219925f, 0.037197f, 0.264198f, 0.120060f, -0.191298f, -0.158298f, -0.036649f, -0.154638f, 0.060016f, 0.058143f, -0.027056f, 0.266701f, 0.077293f, -0.065196f, 0.027755f, 0.120755f, 0.039314f, 0.110925f, -0.009753f, -0.095214f, 0.006688f, -0.053106f, 0.258927f, 0.058112f, 0.091970f, 0.232283f, -0.155525f, 0.114898f, 0.197676f, -0.193794f, -0.127168f, 0.177379f, -0.173629f, -0.101880f, -0.084038f, -0.041542f, -0.039752f, -0.032627f, 0.095588f, -0.173620f, 0.059765f, -0.148867f, -0.078639f, 0.214943f, -0.001366f, -0.045878f, 0.150148f, -0.025885f, 0.089361f, 0.028049f, 0.182298f, 0.243529f, -0.043978f, 0.090530f, 0.092859f, -0.025858f, -0.017214f, -0.252791f, -0.129946f, 0.185502f, 0.117053f, -0.091097f, -0.148128f, 0.259151f, -0.056679f, 0.172338f, 0.032921f, -0.076388f, 0.050012f, 0.246000f, 0.025745f, -0.077241f, 0.060589f, 0.189586f, 0.081182f, 0.117629f, 0.199062f, -0.099847f, 0.143978f, 0.061853f, -0.260301f, 0.226332f, 0.202745f, 0.041138f, 0.046218f, -0.149407f, 0.055178f, -0.212685f, -0.233394f, -0.252439f, -0.178181f, 0.218705f, -0.072353f, -0.017395f, 0.014715f, -0.075571f, -0.020876f, 0.168459f, -0.234841f, -0.024959f, -0.147321f, -0.111691f, 0.055624f, -0.258392f, 0.053425f, -0.142855f, -0.261723f, -0.221648f, -0.245949f, 0.023339f, -0.200450f, -0.023106f, 0.070194f, -0.157782f, 0.258510f, 0.227924f, -0.243248f, 0.252211f, -0.258982f, -0.166929f, -0.012411f, 0.048663f, -0.085977f, 0.177481f, -0.082280f, 0.013881f, 0.207872f, -0.147323f, -0.042948f, -0.262733f, -0.268748f, 0.087993f, 0.196801f, 0.060733f, 0.068766f, 0.023242f, -0.179182f, -0.132700f, 0.199334f, 0.246355f, -0.153670f, 0.003122f, 0.029641f, 0.242419f, -0.241966f, -0.096065f, -0.248737f, -0.187452f, -0.133875f, 0.206649f, 0.079111f, -0.194444f, -0.256561f, 0.040357f, 0.109811f, -0.244204f, -0.188087f, 0.216267f, -0.098619f, -0.192777f, 0.043667f, -0.035571f, 0.135021f, -0.108849f, -0.157486f, 0.116207f, 0.183843f, -0.138562f, 0.166586f, -0.154665f, -0.042379f, 0.142962f, -0.107513f, -0.107938f, -0.129421f, -0.200412f, -0.141400f, 0.168598f, 0.140451f, 0.003795f, -0.046519f, -0.178450f, -0.138293f, -0.003348f, 0.103841f, 0.149765f, -0.020694f, 0.149004f, 0.031824f, -0.031367f, -0.146885f, -0.185451f, -0.114862f, -0.028759f, 0.235970f, -0.231853f, 0.181326f, 0.239140f, -0.260632f, -0.223709f, -0.100075f, -0.253234f, 0.134527f, 0.168621f, 0.257966f, -0.059262f, -0.224407f, -0.217727f, -0.181170f, 0.097756f, -0.009537f, 0.125060f, 0.152482f, -0.141268f, 0.124904f, 0.170033f, 0.076643f, -0.174643f, 0.069442f, -0.080133f, 0.011538f, 0.006188f, -0.248477f, -0.079782f, -0.101105f, 0.182945f, -0.159921f, 0.244589f, 0.175739f, -0.170948f, -0.217868f, 0.106671f, -0.124109f, -0.193422f, 0.104628f, -0.240736f, -0.222436f, -0.172176f, 0.160112f, -0.215022f, -0.150225f, 0.086528f, -0.060767f, 0.004544f, 0.040430f, -0.157462f, 0.210152f, -0.163633f, 0.234325f, -0.104432f, 0.064632f, 0.049220f, -0.034753f, 0.133615f, -0.142880f, -0.204680f, -0.023446f, 0.041961f, -0.186858f, 0.031095f, -0.089556f, -0.147600f, -0.052076f, -0.102263f, 0.252347f, -0.110563f, -0.236039f, -0.078000f, 0.104592f, -0.152339f, 0.080856f, -0.016509f, 0.226757f, 0.145514f, 0.138646f, -0.044355f, 0.120568f, -0.181196f, -0.100957f, -0.272476f, -0.253510f, 0.161488f, -0.051270f, -0.124248f, 0.253933f, -0.112216f, 0.062122f, 0.192529f, -0.263223f, 0.083745f, 0.160714f, 0.003372f, -0.228913f, 0.266575f, -0.203953f, -0.065596f, -0.191219f, 0.060917f, -0.261747f, -0.265985f, -0.112148f, 0.049595f, 0.132459f, -0.051172f, -0.250284f, -0.250083f, 0.199351f, 0.223237f, -0.156251f, 0.160093f, -0.263141f, 0.251583f, 0.190566f, 0.126784f, -0.220286f, -0.128759f, 0.128004f, -0.213516f, 0.068170f, -0.246110f, 0.153721f, -0.225738f, 0.018476f, -0.029414f, 0.017388f, 0.137354f, -0.211311f, -0.140051f, 0.162276f, 0.027638f, -0.205906f, 0.216704f, 0.056092f, 0.240436f, -0.057974f, 0.159797f, -0.128536f, 0.082245f, -0.112518f, -0.261571f, -0.215575f, 0.014810f, 0.247644f, -0.016079f, 0.076056f, -0.129817f, 0.071266f, -0.184534f, 0.064156f, -0.083118f, -0.212296f, -0.029992f, 0.062502f, -0.049096f, -0.190063f, 0.188503f, 0.088456f, -0.193632f, -0.247221f, 0.262271f, -0.035275f, -0.030156f, -0.124782f, -0.004529f, -0.076496f, 0.227885f, 0.215634f, 0.167581f, 0.149109f, -0.129141f, -0.236862f, 0.159986f, 0.072429f, -0.119775f, 0.005720f, -0.193663f, 0.116980f, -0.130062f, -0.197812f, -0.223578f, 0.256226f, -0.092695f, 0.062557f, 0.193619f, 0.034025f, -0.192992f, 0.135143f, -0.158549f, -0.191661f, 0.258394f, 0.051528f, 0.157013f, 0.258888f, 0.072275f, -0.144479f, 0.110307f, -0.022571f, -0.078592f, -0.258296f, 0.013259f, -0.022603f, 0.098060f, -0.220499f, -0.054709f, -0.110846f, 0.149785f, 0.161696f, 0.112985f, 0.196776f, 0.053142f, -0.072814f, -0.207950f, -0.002678f, -0.161101f, -0.140517f, -0.094874f, -0.249302f, 0.084432f, -0.093548f, 0.076798f, -0.067338f, 0.225165f, -0.198868f, 0.041832f, -0.238582f, -0.267612f, 0.032986f, -0.211442f, -0.085335f, -0.256277f, 0.062053f, -0.161819f, -0.145224f, -0.104240f, 0.016538f, -0.025144f, -0.072894f, -0.023851f, 0.148231f, -0.167021f, 0.068979f, -0.021083f, -0.047240f, 0.073166f, 0.272819f, 0.237524f, 0.100620f, 0.103420f, -0.127770f, -0.018578f, -0.272243f, 0.094628f, -0.162664f, -0.155207f, -0.078535f, 0.076998f, -0.020333f, 0.084776f, -0.216342f, 0.201041f, 0.238602f, 0.229812f, 0.123383f, 0.106586f, 0.261008f, -0.000886f, -0.108252f, -0.241327f, 0.207733f, -0.131263f, 0.010911f, 0.231394f, -0.046492f, 0.080249f, -0.003931f, 0.119268f, 0.050802f, 0.172713f, 0.017422f, 0.052420f, 0.021150f, 0.143948f, 0.070322f, -0.102470f, -0.173320f, 0.035672f, -0.001838f, -0.176585f, -0.107923f, -0.230696f, -0.271135f, 0.243015f, -0.077222f, -0.101567f, -0.142451f, -0.099348f, -0.134315f, -0.268403f, 0.034107f, 0.214502f, 0.029897f, 0.115385f, -0.112695f, 0.167851f, 0.104775f, -0.121729f, -0.186351f, 0.264801f, 0.073082f, -0.244557f, -0.222318f, -0.010539f, -0.267096f, 0.134269f, -0.039443f, 0.244960f, -0.073159f, 0.058831f, 0.205958f, 0.224433f, -0.250661f, -0.064348f, 0.159791f, -0.097623f, -0.261308f, -0.034717f, 0.044605f, -0.117966f, 0.087814f, 0.234712f, 0.093674f, 0.040939f, -0.123407f, -0.254304f, -0.138660f, 0.129131f, 0.191049f, -0.036207f, -0.097162f, -0.052437f, -0.174994f, 0.018469f, -0.208931f, 0.119601f, 0.087305f, 0.218624f, 0.088596f, 0.112667f, 0.141485f, 0.168895f, -0.247832f, -0.106948f, -0.116559f, 0.130460f, -0.104257f, -0.100575f, 0.004862f, 0.090258f, 0.073579f, 0.128948f, 0.108889f, 0.000272f, -0.134529f, -0.171721f, -0.226261f, 0.027283f, -0.269752f, -0.162713f, 0.209819f, 0.186241f, 0.206219f, 0.028295f, 0.217803f, 0.125278f, -0.076172f, 0.064628f, -0.118375f, -0.265843f, -0.136746f, -0.265188f, -0.029561f, -0.252067f, -0.061121f, -0.159261f, -0.051419f, 0.256952f, 0.229898f, -0.099643f, -0.011837f, 0.192446f, -0.222625f, 0.146282f, -0.133502f, 0.051675f, 0.265303f, -0.062120f, 0.221503f, -0.161105f, -0.199682f, 0.142343f, -0.189462f, -0.226553f, -0.200447f, 0.139764f, -0.254987f, -0.083403f, -0.034728f, 0.137573f, -0.076076f, 0.207103f, 0.224293f, -0.136771f, -0.218499f, -0.066933f, 0.016451f, -0.207121f, -0.164989f, 0.104928f, 0.259806f, -0.207884f, 0.126006f, 0.011840f, -0.205074f, 0.110133f, 0.161328f, 0.183953f, -0.057144f, 0.245398f, -0.214081f, 0.091885f, -0.026538f, 0.102345f, 0.075848f, 0.092137f, 0.257087f, 0.064159f, -0.042275f, 0.038194f, -0.131477f, 0.230910f, -0.161533f, 0.183104f, 0.096047f, -0.143229f, -0.185467f, 0.269841f, -0.147945f, -0.254942f, 0.074148f, 0.029647f, 0.208744f, 0.236758f, -0.265242f, -0.044561f, -0.174376f, 0.182205f, 0.044540f, 0.153530f, 0.130688f, -0.072905f, 0.176905f, -0.229629f, -0.000266f, 0.019318f, 0.076388f, -0.180464f, 0.245417f, -0.164407f, 0.120887f, -0.081065f, 0.229568f, 0.259664f, 0.058196f, 0.181658f, 0.042568f, 0.145575f, -0.009512f, 0.034081f, 0.108328f, 0.097629f, 0.101848f, -0.056037f, -0.124449f, -0.230585f, -0.127521f, -0.164878f, 0.248705f, 0.220237f, 0.068442f, -0.076360f, 0.167050f, 0.210326f, -0.138958f, 0.220155f, 0.099799f, -0.217973f, -0.167069f, 0.154328f, 0.237311f, 0.026626f, -0.261543f, -0.224214f, -0.267631f, -0.188746f, 0.055851f, -0.089162f, -0.192350f, -0.023795f, 0.231084f, 0.092981f, 0.246725f, -0.204517f, -0.234913f, 0.176714f, -0.105100f, 0.012589f, 0.183928f, 0.054113f, -0.236061f, -0.149209f, 0.183943f, -0.049139f, 0.216660f, 0.036201f, 0.159166f, -0.167727f, 0.216427f, 0.194167f, 0.075897f, 0.191520f, -0.229459f, -0.193500f, 0.120759f, 0.177888f, 0.265464f, 0.202833f, 0.242318f, -0.204204f, 0.231136f, 0.223986f, -0.032753f, 0.097176f, 0.070559f, -0.056452f, 0.218941f, -0.060933f, -0.227719f, -0.228780f, 0.132839f, -0.174298f, 0.126457f, -0.064066f, 0.147920f, -0.216123f, -0.228080f, 0.253810f, 0.198771f, -0.195972f, 0.054123f, -0.004602f, -0.241123f, 0.004620f, 0.100468f, -0.106412f, 0.089866f, 0.251093f, -0.006165f, -0.223265f, 0.193193f, -0.196495f, 0.157386f, -0.067712f, -0.248256f, -0.092291f, -0.209661f, 0.120172f, 0.210791f, -0.218868f, -0.107126f, -0.047730f, 0.270524f, 0.238542f, -0.032281f, 0.137970f, -0.205558f, -0.138117f, -0.024165f, -0.006931f, -0.002138f, 0.050728f, 0.043501f, -0.158784f, -0.053771f, -0.239550f, -0.207060f, 0.153703f, -0.049854f, 0.244957f, -0.166963f, 0.258976f, 0.106699f, -0.011620f, 0.034979f, 0.197285f, 0.154852f, 0.262638f, -0.067346f, -0.118540f, 0.229114f, 0.261313f, 0.200919f, -0.091740f, 0.242017f, 0.026704f, -0.198507f, -0.270967f, -0.000059f, -0.067667f, 0.242023f, -0.124796f, 0.248793f, 0.242720f, -0.264662f, 0.140561f, -0.032832f, -0.239041f, 0.212161f, -0.052471f, -0.085961f, 0.173036f, -0.202944f, -0.041347f, 0.269962f, 0.093866f, 0.001416f, -0.045034f, 0.017038f, -0.095486f, -0.053481f, 0.054452f, 0.162480f, -0.105376f, 0.005588f, -0.251266f, 0.061870f, -0.254797f, 0.190937f, 0.247844f, 0.087657f, 0.051706f, -0.168682f, -0.154060f, 0.261362f, -0.211664f, -0.083016f, -0.176111f, -0.260628f, -0.157088f, 0.066271f, 0.054840f, -0.177466f, -0.056029f, -0.127121f, -0.069106f, -0.037767f, 0.221115f, 0.059781f, 0.214521f, 0.102485f, 0.226452f, -0.179970f, -0.179183f, -0.051437f, 0.173447f, -0.186393f, 0.240537f, 0.175647f, 0.261978f, 0.129968f, 0.156313f, -0.239029f, -0.144973f, 0.022175f, -0.160264f, 0.103636f, -0.245662f, -0.271763f, -0.125814f, -0.015124f, -0.217930f, 0.251534f, -0.198771f, 0.121794f, 0.001544f, -0.203595f, 0.098344f, -0.236035f, -0.049314f, -0.119024f, 0.187067f, -0.051292f, -0.009566f, 0.212290f, 0.233156f, -0.019930f, -0.191501f, 0.082082f, -0.243128f, 0.104908f, 0.122672f, 0.001888f, -0.152625f, -0.059914f, -0.159942f, -0.110985f, 0.128820f, -0.227118f, -0.213792f, 0.250763f, 0.155523f, -0.121755f, 0.227113f, -0.114222f, 0.018720f, 0.041762f, 0.016768f, -0.044066f, -0.239487f, 0.064202f, -0.242640f, -0.168404f, 0.227274f, 0.089626f, 0.205334f, -0.030928f, 0.202150f, 0.079482f, -0.157977f, 0.256601f, -0.075481f, 0.054389f, -0.065313f, 0.178865f, -0.210400f, 0.261781f, 0.254469f, -0.143031f, -0.142751f, 0.151219f, 0.061370f, 0.228785f, 0.192422f, -0.006568f, -0.053535f, 0.255753f, 0.089047f, 0.100209f, -0.008618f, 0.068283f, -0.163499f, -0.229620f, -0.242036f, -0.192198f, -0.079527f, -0.105295f, -0.188251f, -0.174924f, -0.064380f, -0.035844f, 0.231848f, 0.053763f, -0.016895f, 0.051003f, 0.265306f, 0.150447f, -0.062588f, 0.197655f, 0.183234f, 0.094395f, 0.259045f, -0.024987f, -0.168908f, 0.225118f, -0.230574f, -0.211887f, 0.137054f, 0.086862f, -0.064072f, -0.243802f, 0.133827f, 0.162095f, 0.018394f, 0.047999f, 0.006979f, -0.221650f, 0.062743f, -0.233908f, 0.170110f, 0.010185f, -0.143929f, -0.229443f, -0.155322f, 0.174585f, 0.135813f, -0.246335f, -0.155107f, -0.013741f, -0.042070f, -0.093800f, -0.138410f, -0.066672f, 0.065806f, -0.053036f, 0.186492f, -0.013278f, -0.240484f, 0.089754f, 0.019991f, 0.090957f, 0.254338f, 0.073112f, -0.225778f, -0.050397f, -0.150784f, 0.271230f, 0.151566f, 0.055969f, 0.077026f, 0.051470f, -0.238420f, 0.078929f, 0.268349f, -0.087255f, 0.102853f, -0.095244f, -0.064569f, 0.056722f, 0.140827f, 0.055890f, -0.192917f, 0.257317f, 0.125356f, -0.051372f, -0.145134f, 0.029940f, 0.248192f, -0.229948f, 0.219635f, -0.196684f, -0.068472f, -0.249922f, -0.127382f, -0.167806f, 0.023291f, 0.145843f, 0.132271f, -0.185531f, -0.167759f, -0.252526f, -0.266805f, -0.267928f, -0.195714f, 0.214421f, -0.273002f, -0.236168f, 0.077040f, -0.223049f, 0.268182f, 0.197153f, 0.075604f, 0.041964f, 0.057488f, -0.093935f, 0.051799f, 0.050426f, 0.234571f, 0.249078f, -0.197893f, 0.112060f, 0.163462f, -0.079473f, -0.257676f, 0.024911f, 0.052443f, 0.090319f, 0.164463f, -0.203981f, -0.138907f, -0.206021f, 0.157870f, -0.082338f, -0.130003f, 0.258927f, -0.187957f, 0.086201f, 0.231817f, 0.247112f, -0.185853f, -0.256406f, -0.166521f, 0.005622f, -0.180462f, -0.003934f, 0.123249f, 0.131141f, -0.139218f, 0.196323f, -0.058041f, 0.048973f, -0.217118f, 0.093551f, -0.025460f, -0.060156f, -0.220434f, -0.127872f, -0.041783f, -0.078973f, -0.147244f, 0.017971f, -0.173310f, -0.139037f, -0.171537f, -0.257538f, -0.092760f, -0.222573f, 0.058418f, -0.236113f, -0.048772f, 0.045271f, 0.095396f, -0.093935f, 0.208023f, -0.007189f, 0.201775f, -0.138352f, 0.178376f, -0.233112f, -0.018985f, 0.049312f, 0.120722f, 0.030489f, 0.150893f, 0.082929f, -0.072330f, 0.268105f, -0.168786f, -0.079963f, -0.163238f, -0.008620f, 0.164577f, 0.222880f, 0.205473f, -0.128579f, 0.132498f, 0.032058f, -0.188654f, 0.103359f, 0.015942f, -0.198074f, -0.039074f, -0.020924f, -0.007646f, 0.216490f, -0.215622f, 0.093883f, -0.088493f, -0.199138f, -0.021091f, 0.142589f, -0.214290f, 0.128209f, 0.196639f, -0.135175f, -0.015768f, -0.217055f, 0.053463f, -0.238680f, -0.034810f, -0.140041f, -0.266856f, -0.034987f, -0.133853f, 0.260313f, -0.056149f, -0.137928f, -0.192154f, -0.100491f, 0.088293f, 0.068876f, 0.070607f, 0.094288f, -0.099896f, 0.008111f, 0.201584f, 0.059983f, -0.125653f, -0.124844f, -0.111212f, 0.212785f, 0.060921f, 0.209978f, 0.010210f, 0.264535f, 0.117055f, -0.174946f, 0.137455f, 0.038375f, 0.177126f, 0.002853f, 0.254532f, 0.064223f, -0.200606f, -0.068400f, 0.084605f, -0.188243f, 0.060541f, -0.109258f, -0.153894f, 0.196876f, -0.138063f, 0.061945f, -0.054175f, -0.005349f, -0.119880f, 0.164167f, -0.221964f, -0.016826f, -0.080443f, -0.268609f, 0.087794f, -0.258436f, 0.182297f, -0.163865f, 0.192187f, -0.019291f, -0.155559f, -0.008819f, 0.242822f, -0.210297f, 0.204003f, -0.142246f, -0.155428f, 0.003268f, 0.060213f, 0.249144f, 0.139648f, -0.097242f, -0.202835f, -0.106604f, 0.119668f, 0.204639f, -0.191131f, -0.161017f, -0.037791f, -0.090602f, 0.076800f, 0.029842f, -0.178945f, -0.203182f, 0.086291f, 0.093112f, 0.217287f, -0.135071f, 0.030232f, -0.262095f, 0.047342f, -0.051391f, -0.014300f, -0.121062f, 0.107898f, -0.249637f, -0.019927f, -0.186191f, -0.092695f, -0.198253f, 0.076922f, -0.133399f, -0.234494f, 0.015869f, -0.028378f, -0.268211f, -0.169674f, 0.029001f, -0.031841f, 0.187497f, -0.180679f, -0.158082f, -0.073064f, -0.178121f, 0.108223f, -0.013239f, 0.081944f, -0.092331f, 0.216336f, -0.238070f, -0.234816f, 0.265543f, 0.117422f, 0.067656f, -0.037662f, 0.074633f, 0.241720f, 0.024833f, -0.010732f, 0.053348f, 0.246857f, 0.046299f, -0.057524f, -0.141613f, -0.150038f, 0.089772f, 0.235557f, -0.050652f, 0.190027f, -0.190113f, 0.231972f, -0.041335f, -0.202797f, 0.222620f, 0.068142f, -0.131042f, -0.030574f, -0.042819f, 0.096781f, -0.021349f, -0.269305f, 0.081745f, -0.266924f, -0.272010f, 0.177945f, 0.102975f, 0.015601f, -0.191160f, -0.128805f, -0.193204f, 0.047793f, -0.199596f, -0.079795f, -0.034330f, 0.010518f, 0.193575f, 0.270521f, -0.140162f };
static const float heart_layer_2_biases[40] = { -0.000000f, -0.000000f, -0.000000f, -0.000000f, -0.000000f, -0.000000f, 0.000000f, 0.000000f, 0.000000f, -0.000000f, -0.000000f, -0.000000f, -0.000000f, 0.000000f, -0.000000f, 0.000000f, 0.000000f, 0.000000f, 0.000000f, 0.000000f, 0.000000f, 0.000000f, 0.000000f, 0.000000f, -0.000000f, 0.000000f, 0.000000f, 0.000000f, 0.000000f, 0.000000f, -0.000000f, -0.000000f, 0.000000f, 0.000000f, 0.000000f, -0.000000f, -0.000000f, -0.000000f, 0.000000f, 0.000000f };
static const float heart_layer_2_weights[1600] = { -0.223468f, 0.118355f, -0.244129f, 0.042562f, -0.034947f, -0.164328f, -0.204382f, -0.123776f, -0.085947f, -0.096146f, -0.167063f, -0.106136f, -0.086791f, -0.123952f, 0.008096f, -0.209573f, -0.006988f, 0.156130f, 0.222328f, -0.171043f, 0.080006f, 0.058764f, -0.151789f, 0.137996f, -0.097878f, -0.231084f, 0.147637f, 0.010264f, -0.082416f, -0.137020f, 0.185754f, 0.056952f, -0.081971f, -0.077784f, -0.096942f, 0.150018f, -0.164894f, 0.212569f, 0.181271f, 0.179597f, -0.197829f, -0.194462f, 0.017222f, 0.138960f, 0.015621f, 0.260150f, -0.007032f, 0.228286f, -0.095442f, 0.216914f, 0.026328f, 0.036978f, -0.114460f, 0.125616f, -0.235382f, 0.054471f, -0.257705f, -0.217637f, -0.256279f, 0.051706f, 0.012905f, -0.026978f, -0.209225f, -0.024615f, -0.166716f, 0.238126f, 0.000722f, 0.238992f, -0.252308f, 0.262063f, -0.268525f, 0.152029f, -0.179421f, 0.022298f, 0.118554f, -0.097962f, -0.078178f, 0.041643f, -0.048086f, -0.193958f, -0.066054f, 0.242099f, 0.061535f, -0.070019f, 0.089199f, -0.196171f, 0.105420f, 0.138263f, -0.229972f, -0.070262f, 0.240715f, 0.018584f, -0.186476f, 0.190536f, -0.119368f, 0.076337f, 0.073538f, -0.005363f, 0.007623f, -0.205824f, 0.143534f, 0.141593f, -0.086293f, 0.271410f, -0.027464f, -0.014370f, -0.137225f, 0.134173f, -0.268754f, 0.222954f, 0.086653f, 0.127053f, 0.081345f, -0.008643f, 0.079513f, -0.051549f, -0.226522f, 0.164225f, -0.272787f, -0.204953f, 0.200002f, 0.072526f, 0.208546f, 0.040059f, 0.132002f, -0.101849f, -0.121232f, -0.132276f, -0.153410f, 0.268022f, -0.169319f, -0.269209f, 0.270966f, -0.261472f, 0.210784f, -0.186638f, -0.205511f, 0.124146f, 0.125334f, -0.247598f, 0.146646f, -0.147185f, 0.157288f, 0.171135f, -0.251291f, -0.096930f, -0.007476f, -0.057582f, 0.265060f, 0.156464f, 0.168545f, -0.158553f, -0.024889f, -0.026667f, -0.224841f, 0.207962f, 0.234814f, 0.254091f, -0.254094f, -0.031530f, 0.244535f, -0.231948f, 0.099604f, -0.159055f, 0.261152f, -0.022696f, 0.096343f, -0.090214f, -0.019868f, -0.089563f, 0.202674f, -0.136102f, -0.005790f, -0.025760f, -0.244882f, -0.242779f, 0.262293f, -0.218682f, -0.126579f, 0.271900f, 0.032661f, 0.217801f, 0.209779f, -0.088927f, 0.023223f, 0.112163f, 0.001235f, -0.230088f, 0.046063f, 0.196098f, 0.271261f, -0.187844f, -0.219157f, -0.108241f, -0.024040f, 0.005279f, 0.110468f, 0.241175f, 0.197340f, -0.047533f, 0.061183f, -0.255496f, 0.150562f, -0.172389f, 0.114413f, 0.161268f, 0.082309f, 0.167533f, 0.075756f, -0.056974f, 0.273680f, -0.029446f, -0.085972f, 0.250876f, 0.124413f, -0.090015f, 0.199622f, 0.054080f, 0.033942f, 0.111950f, -0.146178f, 0.270168f, -0.132985f, -0.107632f, -0.125603f, -0.216663f, -0.221773f, 0.258250f, -0.004322f, -0.261923f, 0.181476f, 0.096985f, 0.073237f, -0.156267f, 0.230137f, -0.063316f, 0.087192f, 0.202417f, -0.008720f, -0.165057f, 0.018654f, -0.135805f, 0.247791f, 0.122767f, -0.185267f, -0.077366f, 0.101021f, 0.266181f, -0.093102f, 0.137498f, 0.211490f, 0.079622f, -0.001907f, 0.252236f, -0.129823f, 0.075203f, 0.009139f, -0.156590f, -0.095990f, -0.083883f, 0.017170f, -0.164252f, 0.269098f, -0.141714f, -0.238882f, -0.111886f, 0.268657f, 0.220947f, 0.102847f, 0.112911f, 0.068259f, 0.228385f, 0.245420f, 0.138101f, 0.084435f, 0.222321f, 0.152398f, 0.057093f, -0.028988f, 0.238028f, 0.036390f, -0.133666f, 0.242193f, 0.172460f, 0.105271f, -0.075342f, -0.246980f, -0.181467f, 0.026716f, 0.092926f, -0.114535f, 0.249177f, -0.066354f, -0.197054f, 0.127813f, -0.195933f, 0.230958f, 0.214267f, -0.121111f, 0.239641f, 0.116203f, 0.177578f, 0.239923f, -0.067267f, 0.182330f, 0.115916f, -0.026404f, -0.183983f, 0.210722f, -0.205412f, -0.175360f, -0.068604f, 0.021816f, 0.113639f, 0.273517f, 0.035490f, 0.035317f, 0.124711f, 0.067679f, -0.081440f, -0.257591f, 0.256810f, -0.154707f, -0.117071f, 0.168756f, -0.114232f, -0.216912f, -0.101959f, 0.036316f, 0.250744f, 0.097544f, -0.233359f, 0.014082f, 0.004133f, 0.072670f, 0.147073f, 0.044619f, -0.065572f, 0.009611f, -0.152267f, -0.201104f, -0.105742f, 0.185720f, -0.028282f, 0.179436f, -0.215962f, -0.257839f, 0.260292f, 0.256171f, -0.120150f, -0.033172f, 0.203064f, 0.169905f, -0.026247f, 0.222228f, 0.270023f, 0.225431f, -0.180979f, 0.211911f, 0.089437f, -0.211058f, 0.026376f, 0.010776f, 0.217461f, 0.046015f, 0.107511f, 0.113058f, -0.082103f, -0.112864f, 0.142695f, -0.114269f, 0.130207f, 0.264657f, 0.255008f, -0.124414f, 0.245803f, -0.154628f, -0.193495f, -0.208416f, 0.091137f, -0.136510f, -0.248932f, -0.179206f, -0.043654f, 0.245854f, -0.023914f, 0.053821f, 0.213311f, -0.067007f, 0.076236f, -0.138628f, -0.106272f, 0.177761f, 0.179698f, 0.011610f, 0.241329f, 0.242445f, 0.158130f, 0.083478f, 0.096072f, 0.025341f, -0.150148f, 0.055901f, -0.261379f, 0.160270f, -0.267696f, -0.265523f, -0.041736f, 0.120490f, 0.219717f, -0.211530f, 0.215174f, 0.213776f, 0.031405f, -0.140821f, -0.062907f, -0.242892f, -0.209831f, -0.201115f, -0.176072f, -0.137655f, -0.156126f, 0.191788f, -0.095434f, -0.155765f, 0.034742f, 0.036067f, 0.000237f, -0.061489f, -0.159761f, 0.008817f, -0.240479f, 0.193907f, -0.262712f, -0.028775f, 0.147171f, 0.039563f, -0.207089f, -0.143079f, -0.114951f, -0.197742f, -0.156246f, 0.245029f, 0.053292f, -0.194252f, -0.015782f, -0.011951f, 0.215716f, -0.154452f, 0.082424f, -0.255421f, -0.082311f, -0.208815f, -0.226510f, -0.183107f, -0.102724f, -0.027078f, 0.087828f, 0.266938f, 0.167907f, -0.070079f, -0.214974f, -0.227938f, 0.084445f, 0.136128f, -0.119987f, 0.256796f, 0.119232f, -0.211678f, -0.164924f, -0.207869f, -0.023543f, 0.233897f, -0.059463f, -0.130847f, -0.210046f, -0.064809f, -0.220971f, -0.034596f, 0.194337f, 0.048279f, -0.230273f, 0.227386f, 0.183481f, -0.256688f, -0.090134f, 0.260356f, 0.162499f, -0.267831f, -0.230562f, -0.045277f, 0.146011f, 0.026427f, -0.225909f, -0.105421f, 0.142893f, -0.076190f, 0.112213f, 0.011677f, -0.136326f, -0.122947f, -0.156664f, -0.094926f, 0.225128f, 0.057185f, -0.211596f, 0.187589f, 0.034903f, -0.046606f, -0.071542f, 0.250833f, -0.062560f, 0.062651f, 0.194134f, 0.095901f, 0.093472f, 0.061554f, -0.154094f, -0.114614f, -0.260867f, -0.265578f, -0.244864f, -0.113790f, 0.243587f, 0.060752f, -0.156573f, -0.140437f, 0.185153f, 0.015886f, -0.223183f, -0.006259f, 0.161811f, 0.177833f, -0.269151f, -0.266929f, -0.247995f, -0.236672f, 0.149377f, 0.116452f, 0.052426f, 0.104400f, 0.117070f, 0.236590f, 0.087761f, -0.142171f, -0.022970f, -0.249331f, -0.146950f, -0.186289f, -0.073152f, 0.110841f, 0.165018f, -0.155729f, 0.179308f, -0.179348f, -0.066777f, -0.036778f, 0.168671f, 0.075021f, -0.251291f, 0.074226f, 0.216706f, 0.040976f, -0.140195f, 0.129513f, 0.005779f, 0.060300f, 0.240886f, -0.156112f, 0.190506f, 0.177905f, 0.230130f, -0.235211f, 0.252087f, -0.212944f, -0.135947f, 0.042248f, 0.114962f, 0.095035f, -0.003289f, -0.156295f, -0.143117f, -0.229791f, 0.221118f, -0.147169f, 0.164155f, 0.104777f, 0.134701f, 0.216111f, -0.158571f, 0.099912f, 0.094715f, 0.081710f, 0.143578f, -0.146627f, 0.050825f, 0.228360f, 0.217066f, 0.010033f, -0.166583f, -0.146754f, 0.058430f, 0.047165f, 0.191870f, -0.266218f, 0.212751f, -0.061642f, 0.179769f, -0.180098f, -0.065097f, 0.157754f, -0.202181f, 0.165221f, 0.222255f, 0.264193f, -0.174999f, -0.091247f, -0.109538f, -0.177995f, 0.059320f, -0.075603f, 0.241422f, -0.104417f, 0.253267f, -0.179594f, 0.114843f, -0.107119f, 0.261772f, 0.125142f, -0.032411f, -0.101060f, 0.170272f, 0.249076f, 0.260404f, -0.255874f, 0.128064f, 0.230392f, 0.115432f, -0.267125f, 0.192147f, -0.207088f, 0.196419f, 0.165060f, 0.130971f, 0.205113f, 0.204298f, 0.183916f, 0.112383f, 0.142324f, -0.200875f, 0.239359f, -0.034658f, 0.093673f, -0.119097f, 0.021241f, 0.227143f, 0.155637f, -0.023440f, -0.077007f, -0.156814f, -0.019651f, 0.096257f, -0.263029f, 0.137391f, 0.139853f, -0.084241f, 0.030871f, -0.234327f, 0.249966f, 0.155514f, 0.151148f, 0.215391f, -0.158950f, -0.061518f, -0.235067f, 0.270992f, -0.111927f, 0.213222f, -0.208599f, -0.223856f, 0.030301f, -0.164482f, 0.252813f, 0.029843f, 0.072047f, -0.099617f, -0.159840f, 0.190932f, 0.042970f, -0.067532f, 0.013511f, -0.130282f, 0.158190f, 0.039188f, -0.093275f, -0.160565f, 0.188560f, 0.065924f, -0.092903f, 0.099153f, -0.101249f, -0.239055f, 0.257933f, 0.162580f, -0.111306f, 0.259453f, 0.167224f, 0.232871f, 0.069688f, 0.010870f, -0.205522f, 0.224927f, -0.136792f, -0.084538f, 0.019649f, 0.101076f, 0.203866f, -0.187986f, -0.182303f, -0.080234f, -0.078385f, -0.048411f, -0.235679f, 0.150008f, -0.032886f, 0.017828f, 0.199120f, -0.271102f, 0.115688f, -0.226012f, 0.241079f, -0.250099f, 0.099670f, 0.221373f, 0.270283f, -0.078316f, 0.048425f, -0.129989f, 0.063843f, 0.124830f, 0.090097f, -0.136392f, 0.042791f, 0.155683f, 0.015018f, -0.123739f, 0.139185f, 0.079912f, -0.179117f, 0.160608f, 0.226109f, 0.213613f, -0.094169f, 0.245585f, -0.035066f, -0.179245f, 0.234197f, -0.012930f, 0.270261f, -0.177298f, -0.019173f, -0.039599f, -0.259697f, -0.203473f, 0.233712f, -0.013581f, -0.163269f, 0.206890f, -0.266514f, -0.129335f, 0.016099f, 0.135694f, -0.212530f, -0.041506f, 0.029425f, 0.003835f, 0.135464f, 0.001806f, -0.169152f, -0.201833f, 0.131362f, -0.227822f, -0.188703f, 0.111743f, -0.240722f, -0.022053f, 0.164150f, -0.057667f, 0.147962f, -0.070686f, 0.111853f, -0.110917f, -0.025638f, 0.168682f, -0.232916f, 0.088876f, 0.004709f, 0.264828f, -0.212986f, 0.154789f, 0.063372f, 0.254174f, -0.077735f, 0.224941f, 0.163763f, -0.045746f, -0.264367f, 0.219581f, -0.204302f, 0.085493f, 0.112885f, 0.037517f, 0.265140f, -0.200960f, 0.026320f, 0.270161f, 0.020869f, -0.086642f, -0.004789f, -0.138143f, -0.108387f, -0.031100f, -0.244189f, 0.092151f, 0.032516f, -0.055931f, 0.198793f, 0.178051f, -0.247823f, 0.019925f, 0.016210f, 0.040571f, 0.188805f, -0.061819f, -0.160762f, -0.260744f, 0.235476f, -0.115406f, -0.234410f, 0.229768f, -0.161150f, 0.261892f, -0.208810f, -0.201081f, 0.031383f, -0.242179f, 0.163557f, -0.147039f, -0.235167f, -0.179178f, -0.151899f, 0.018114f, -0.188423f, -0.096237f, 0.087074f, 0.241999f, 0.027036f, -0.091719f, -0.028707f, -0.231876f, -0.237767f, -0.080664f, -0.237476f, -0.255250f, 0.013723f, -0.185038f, 0.040679f, -0.048772f, 0.056110f, 0.268604f, 0.217695f, -0.122989f, -0.103046f, 0.131748f, -0.156484f, -0.020097f, 0.230703f, 0.061042f, -0.006214f, -0.100212f, 0.150564f, 0.039373f, -0.209991f, 0.223746f, 0.217042f, -0.134797f, -0.189562f, -0.099777f, 0.106650f, -0.011197f, 0.163049f, 0.238933f, -0.070983f, 0.143574f, -0.065701f, -0.135651f, 0.235490f, -0.171762f, -0.226948f, 0.266963f, 0.164246f, -0.010156f, -0.093718f, -0.245045f, -0.006746f, -0.184402f, -0.266926f, -0.109113f, -0.092402f, 0.188869f, -0.022494f, 0.210244f, -0.060222f, 0.006918f, 0.100681f, 0.156869f, 0.213661f, -0.114411f, 0.219633f, -0.144795f, 0.251565f, -0.137222f, 0.061060f, -0.273498f, 0.076925f, 0.081654f, 0.258479f, 0.242054f, 0.212101f, -0.196773f, 0.224521f, 0.178386f, -0.006250f, 0.048245f, -0.114574f, -0.130867f, -0.061413f, 0.164078f, -0.261720f, -0.083585f, 0.120314f, -0.144605f, 0.047159f, -0.151366f, 0.133643f, 0.141251f, 0.115501f, -0.172067f, 0.266668f, 0.193317f, -0.158125f, -0.273353f, -0.039704f, 0.240229f, 0.081458f, 0.178854f, -0.142139f, -0.178220f, -0.271402f, -0.254396f, 0.161993f, -0.146505f, 0.136620f, -0.009918f, 0.270135f, -0.153675f, -0.105719f, 0.121237f, 0.168451f, 0.052448f, -0.244422f, 0.247822f, 0.220356f, -0.094329f, -0.250462f, -0.075503f, -0.256452f, 0.008022f, 0.227558f, 0.272073f, 0.049894f, -0.043006f, -0.201640f, -0.030969f, 0.116931f, -0.036637f, -0.098667f, 0.225891f, -0.085329f, -0.068769f, 0.227789f, -0.054994f, 0.101632f, -0.179816f, -0.020453f, -0.214406f, -0.167240f, -0.063712f, 0.072043f, 0.073972f, 0.006270f, 0.183114f, -0.012170f, 0.251079f, -0.032082f, 0.117720f, -0.020674f, -0.036474f, -0.254696f, -0.111583f, -0.120099f, -0.160454f, -0.121102f, 0.207161f, 0.116053f, -0.132652f, 0.098606f, 0.233324f, -0.086159f, -0.077595f, -0.062726f, 0.154155f, -0.178585f, 0.207054f, 0.212495f, 0.041904f, -0.104489f, 0.053311f, -0.073439f, -0.178770f, -0.122087f, -0.018771f, -0.018585f, 0.111849f, -0.181296f, 0.243559f, 0.254369f, -0.092451f, -0.049334f, -0.017692f, -0.059460f, -0.027726f, 0.107125f, 0.109678f, -0.044397f, 0.257371f, -0.099501f, 0.118156f, -0.204943f, -0.270370f, -0.020318f, 0.071489f, 0.122058f, 0.008907f, 0.054639f, 0.064397f, 0.169359f, -0.201359f, 0.077906f, -0.187835f, 0.016838f, -0.197519f, -0.177323f, -0.175354f, 0.178381f, 0.149654f, -0.078588f, -0.238909f, -0.202120f, -0.062605f, -0.243479f, 0.256677f, -0.060507f, -0.067347f, 0.101352f, 0.127305f, 0.145521f, 0.071218f, 0.169489f, 0.170202f, 0.143610f, 0.074238f, -0.080403f, -0.130383f, -0.238879f, -0.214146f, 0.235373f, 0.266786f, 0.028262f, 0.083285f, 0.061184f, -0.139823f, 0.121958f, -0.047264f, 0.100127f, -0.174782f, 0.051584f, 0.102983f, 0.243976f, -0.146785f, 0.000792f, -0.123178f, 0.140798f, -0.254428f, -0.043617f, 0.202315f, -0.239841f, -0.100010f, -0.084648f, 0.136494f, -0.176015f, -0.082234f, -0.273656f, 0.216188f, 0.162097f, -0.143227f, 0.250255f, -0.091356f, -0.162255f, 0.013729f, -0.073407f, -0.105541f, 0.020277f, -0.196116f, -0.097984f, 0.244580f, 0.241955f, -0.194660f, 0.044881f, 0.199532f, -0.179819f, -0.037690f, 0.071291f, -0.254176f, -0.118106f, 0.188639f, -0.156834f, -0.226915f, -0.115706f, 0.058395f, -0.028592f, 0.137216f, -0.046183f, -0.268780f, 0.157722f, -0.239389f, 0.194831f, 0.073216f, 0.079313f, -0.047715f, -0.087463f, 0.177521f, 0.171658f, 0.031553f, 0.249300f, -0.258857f, -0.062252f, -0.143161f, 0.248696f, 0.062005f, 0.132737f, -0.104051f, -0.034857f, 0.031080f, -0.248822f, -0.141260f, 0.228074f, -0.257697f, -0.266627f, -0.134636f, 0.254546f, 0.115620f, -0.192922f, 0.181861f, 0.137573f, -0.252473f, 0.225398f, -0.180998f, -0.244978f, 0.095066f, -0.129736f, 0.183604f, 0.151452f, -0.245228f, 0.218561f, 0.214429f, 0.148782f, -0.188576f, -0.151589f, -0.028703f, -0.225986f, 0.016905f, -0.137516f, 0.265048f, 0.060004f, -0.236730f, 0.119444f, 0.140523f, 0.042913f, 0.101115f, -0.160974f, 0.210507f, -0.164385f, -0.208593f, -0.226811f, 0.019201f, -0.118988f, -0.160461f, 0.005854f, -0.171477f, -0.151871f, 0.108767f, 0.006224f, -0.163872f, -0.044000f, -0.147503f, -0.119937f, 0.023333f, -0.203893f, -0.073347f, -0.267232f, -0.262908f, 0.073203f, -0.265120f, -0.204981f, -0.000403f, -0.202527f, 0.130287f, 0.266605f, 0.001460f, 0.264347f, 0.128171f, -0.063678f, 0.184636f, -0.102569f, -0.252210f, -0.143584f, -0.241493f, 0.093888f, 0.235744f, -0.230369f, -0.012841f, -0.270216f, 0.221210f, 0.252089f, -0.173793f, 0.194481f, -0.155351f, -0.177789f, 0.097424f, 0.060605f, -0.025812f, -0.143607f, -0.148083f, 0.239825f, -0.092249f, 0.107043f, -0.017754f, -0.239718f, -0.180706f, 0.073032f, 0.154824f, 0.263093f, -0.077972f, -0.003198f, 0.228319f, -0.016260f, 0.242492f, 0.113547f, 0.027957f, -0.048078f, 0.192478f, 0.082678f, -0.256766f, -0.217936f, 0.179346f, -0.200573f, -0.075805f, -0.148465f, -0.033122f, 0.108262f, -0.039799f, -0.009356f, 0.213012f, 0.056729f, -0.051687f, 0.136002f, -0.095880f, -0.054562f, -0.083582f, 0.119479f, 0.132849f, 0.257289f, -0.265167f, -0.174166f, -0.147643f, -0.115485f, -0.013051f, -0.263002f, 0.106698f, 0.169694f, 0.171617f, 0.259791f, 0.183398f, -0.139246f, -0.180232f, -0.177312f, -0.146621f, 0.265225f, -0.063202f, 0.272241f, -0.120182f, -0.204246f, 0.181875f, -0.268648f, 0.222976f, -0.125935f, 0.056258f, -0.014210f, -0.024418f, 0.169293f, -0.136372f, 0.163305f, 0.137352f, 0.167887f, -0.017073f, -0.017313f, 0.026038f, -0.045023f, -0.080560f, -0.237790f, -0.237095f, -0.059637f, -0.222154f, 0.122960f, -0.136413f, 0.171036f, 0.051769f, -0.099436f, -0.129776f, -0.254514f, 0.228907f, -0.111568f, 0.084516f, -0.004281f, -0.201400f, -0.211346f, 0.015130f, -0.256839f, 0.124746f, 0.155982f, 0.128572f, 0.019123f, 0.214268f, 0.256644f, 0.139301f, -0.007131f, -0.008157f, 0.087227f, 0.061826f, 0.181180f, 0.161504f, -0.093554f, 0.182441f, 0.243576f, 0.023454f, -0.033688f, -0.272350f, 0.094041f, 0.012170f, -0.046098f, 0.131921f, -0.174000f, 0.259204f, 0.144986f, 0.222135f, 0.175765f, 0.153471f, 0.099795f, 0.198529f, 0.153724f, -0.119466f, 0.181254f, -0.007016f, 0.259128f, -0.096862f, 0.262672f, 0.086590f, -0.244274f, -0.272254f, 0.202658f, -0.105964f, 0.267857f, 0.034297f, 0.091889f, -0.169991f, 0.095009f, -0.259287f, 0.252311f, -0.097734f, 0.022406f, 0.202008f, 0.032676f, -0.133387f, -0.124756f, -0.142242f, -0.268992f, -0.045069f, 0.071618f, 0.058845f, 0.006342f, -0.198960f, -0.061069f, -0.191943f, 0.127330f, -0.261265f, -0.198713f, 0.101089f, 0.222637f, -0.183835f, 0.128651f, 0.158952f, 0.085355f, -0.175649f, -0.062007f, -0.012316f, -0.093769f, -0.027233f, 0.151543f, 0.197627f, 0.002329f, -0.253243f, -0.005858f, -0.182134f, 0.072090f, -0.197817f, -0.238546f, -0.231819f, -0.147662f, -0.124250f, 0.178046f, 0.157436f, 0.000712f, 0.042955f, -0.042118f, -0.094627f, 0.137118f, -0.183813f, -0.142757f, -0.075840f, -0.177840f, 0.163317f, -0.048152f, -0.084921f, -0.049179f, -0.239443f, -0.184092f, 0.050030f, -0.189650f, -0.129347f, -0.077185f, 0.261449f, 0.130754f, -0.183749f, -0.209950f, -0.228750f, 0.088178f, 0.198721f, 0.166832f, -0.020438f, 0.027348f, 0.230221f, -0.019561f, 0.246639f, 0.188920f, 0.139459f, 0.017246f, 0.181396f, 0.202012f, 0.201233f, -0.037798f, 0.105794f, -0.184722f, -0.008173f, 0.044540f, -0.053471f, 0.260376f, 0.112667f, -0.056800f, 0.152841f, 0.121102f, -0.087729f, 0.118699f, -0.225894f, -0.099573f, -0.153699f, -0.244395f, 0.012948f, 0.211182f, 0.120141f, -0.178936f, 0.073006f, 0.058478f, -0.180047f, -0.036680f, 0.120723f, 0.251597f, -0.186325f, 0.204938f, 0.133882f, -0.253141f, 0.258631f, 0.272841f, -0.034224f, -0.110236f, 0.018084f, 0.050111f, 0.176181f, 0.084190f, -0.067831f, 0.161227f, 0.206447f, -0.273646f, -0.008076f, 0.183736f, -0.030752f, 0.214937f, 0.222628f, 0.230280f, 0.090411f, -0.198885f, 0.200761f, -0.158004f, 0.264654f, -0.218682f, 0.147124f, -0.190095f, 0.018910f, -0.109672f, -0.117482f, -0.086454f, 0.145315f, -0.226844f, -0.131102f, 0.040971f, -0.085033f, 0.253640f, 0.174854f, 0.023618f, 0.112089f, -0.019029f, 0.070989f, 0.266245f, 0.009401f, -0.170985f, -0.074889f, -0.050313f, -0.084418f, 0.116650f, 0.174271f, -0.102912f, 0.180261f, -0.128205f, -0.257134f, 0.232950f, 0.220510f, -0.100889f, -0.081905f, 0.106988f, -0.172602f, 0.114502f, 0.227693f, -0.189023f, 0.141140f, -0.266372f, -0.042398f, 0.269051f, -0.176649f, 0.068888f, -0.218916f, 0.214157f, -0.169930f, -0.243300f, 0.229344f, -0.125092f, 0.188002f, -0.043210f, -0.198486f, 0.204932f, 0.015732f, -0.061418f, 0.185335f, -0.073209f, -0.054022f, -0.233001f, -0.086754f, 0.024693f, 0.205796f, -0.117195f, 0.093712f };
static const float heart_layer_3_biases[40] = { 0.000000f, 0.000000f, 0.000000f, -0.000000f, 0.000000f, -0.000000f, -0.000000f, 0.000000f, 0.000000f, 0.000000f, -0.000000f, 0.000000f, -0.000000f, -0.000000f, 0.000000f, -0.000000f, 0.000000f, 0.000000f, -0.000000f, -0.000000f, -0.000000f, 0.000000f, -0.000000f, 0.000000f, -0.000000f, 0.000000f, 0.000000f, 0.000000f, 0.000000f, 0.000000f, -0.000000f, 0.000000f, -0.000000f, 0.000000f, -0.000000f, -0.000000f, -0.000000f, 0.000000f, 0.000000f, 0.000000f };
static const float heart_layer_3_weights[1600] = { -0.104005f, -0.060794f, -0.100704f, 0.018135f, 0.261986f, -0.019137f, 0.073761f, 0.124196f, -0.193608f, -0.057279f, 0.012834f, 0.017564f, 0.037847f, -0.178175f, -0.035777f, 0.106495f, -0.061142f, -0.117566f, -0.056008f, 0.109011f, -0.000255f, 0.054245f, -0.128499f, -0.017863f, -0.027178f, 0.011785f, 0.008146f, 0.079797f, -0.258007f, -0.192710f, -0.072044f, -0.149029f, -0.150685f, 0.026641f, 0.010430f, 0.094272f, -0.244554f, 0.032649f, 0.212307f, 0.045591f, -0.254585f, 0.120795f, -0.119753f, 0.238076f, 0.261986f, -0.193669f, 0.021701f, -0.199207f, -0.065910f, -0.028842f, 0.267167f, 0.202375f, 0.034530f, -0.171015f, -0.023478f, -0.218498f, 0.122685f, 0.204688f, -0.066058f, -0.000635f, -0.168764f, -0.128279f, 0.006535f, 0.006174f, 0.058150f, 0.007296f, -0.047781f, 0.126846f, -0.092994f, -0.250205f, -0.268183f, 0.254779f, 0.081802f, -0.211383f, -0.192432f, 0.232157f, -0.172260f, -0.247015f, -0.104991f, 0.010487f, -0.195516f, 0.227047f, 0.106292f, 0.070666f, -0.206752f, 0.238720f, -0.232580f, 0.225044f, 0.113421f, 0.188906f, 0.031827f, 0.039189f, 0.130752f, 0.111343f, 0.150595f, 0.066961f, -0.140068f, -0.105683f, -0.240831f, -0.060376f, -0.194833f, 0.029230f, 0.115649f, -0.170405f, -0.223616f, 0.247105f, 0.170331f, 0.228181f, -0.176711f, -0.114266f, 0.025475f, 0.137642f, -0.162283f, -0.220664f, -0.158036f, -0.257541f, -0.152375f, -0.183088f, -0.232220f, 0.184266f, -0.217186f, -0.204783f, 0.201844f, -0.168173f, 0.232942f, 0.062307f, 0.192782f, -0.225345f, 0.183467f, -0.143667f, 0.195443f, 0.240345f, 0.088681f, -0.191627f, -0.243163f, 0.085469f, -0.080513f, -0.009749f, -0.223135f, 0.226395f, -0.166928f, 0.087923f, 0.125276f, -0.259025f, 0.250749f, -0.155033f, -0.043933f, 0.084401f, -0.019260f, -0.072118f, -0.024544f, 0.083173f, -0.192187f, -0.103078f, -0.264820f, -0.224672f, -0.252111f, 0.071621f, -0.220719f, 0.154484f, -0.176797f, 0.076042f, -0.183633f, 0.118887f, 0.135799f, -0.187360f, -0.026941f, 0.115444f, 0.237802f, 0.244375f, -0.048474f, -0.114366f, 0.045499f, 0.042226f, -0.272829f, -0.207304f, -0.083203f, -0.025958f, 0.008032f, 0.030932f, 0.064280f, -0.006581f, -0.122531f, 0.179842f, 0.215832f, -0.141648f, 0.125998f, 0.247713f, 0.150852f, 0.164371f, -0.195890f, -0.178573f, 0.273772f, -0.142238f, -0.121691f, 0.193713f, -0.045075f, -0.080126f, 0.060257f, -0.111174f, 0.026754f, -0.260392f, -0.216897f, 0.087548f, -0.066083f, 0.247719f, 0.215314f, -0.202577f, -0.175807f, 0.120376f, 0.038470f, 0.063392f, -0.007906f, -0.251222f, -0.185564f, -0.006404f, 0.128254f, 0.108531f, -0.160478f, 0.209440f, 0.229542f, 0.011569f, -0.097436f, 0.148725f, -0.001257f, -0.101075f, 0.021888f, 0.004711f, -0.070464f, -0.052585f, 0.092392f, -0.027965f, -0.194898f, -0.112827f, -0.104819f, 0.266050f, -0.167817f, -0.266643f, 0.040093f, 0.253067f, 0.270393f, 0.011520f, 0.226834f, 0.223744f, 0.132208f, 0.232285f, -0.034631f, 0.271261f, -0.261883f, 0.169179f, 0.007496f, -0.180466f, 0.039239f, -0.020941f, -0.007459f, -0.232062f, -0.015109f, -0.000613f, -0.056141f, 0.149054f, -0.039369f, 0.254194f, -0.164682f, 0.081417f, -0.098106f, 0.084884f, 0.206299f, 0.172305f, -0.256026f, -0.080651f, -0.197961f, 0.219697f, -0.160250f, 0.044308f, 0.233737f, -0.020346f, 0.246655f, 0.273438f, 0.009028f, 0.075741f, 0.197306f, -0.060685f, -0.038950f, -0.167496f, -0.046471f, 0.229401f, 0.223363f, 0.253067f, 0.017863f, 0.208222f, 0.117419f, -0.145944f, -0.033743f, 0.224120f, -0.111283f, 0.042919f, 0.165151f, -0.049724f, -0.268021f, -0.252309f, 0.092619f, -0.136022f, 0.013633f, 0.228620f, 0.267690f, 0.066496f, -0.229434f, 0.271589f, 0.157052f, 0.183180f, -0.166318f, -0.175441f, 0.086944f, 0.232782f, -0.159921f, -0.055734f, -0.238636f, 0.155907f, 0.264773f, -0.042710f, 0.134590f, -0.162380f, -0.035834f, 0.247646f, 0.115678f, -0.061050f, -0.211706f, 0.112699f, 0.051036f, 0.156485f, 0.019335f, 0.173533f, -0.201092f, 0.238094f, 0.083429f, 0.038188f, -0.002680f, -0.136533f, -0.019799f, -0.202872f, 0.191778f, 0.268063f, 0.211313f, 0.131964f, 0.181400f, -0.018631f, 0.269019f, -0.221442f, 0.031545f, 0.010580f, 0.158352f, -0.155179f, -0.192751f, -0.027255f, -0.116384f, 0.118274f, 0.092094f, 0.147562f, 0.179027f, 0.203294f, 0.217747f, 0.177741f, 0.099556f, -0.181974f, -0.187563f, -0.191959f, 0.040607f, -0.176243f, 0.149204f, -0.004237f, -0.012225f, -0.013229f, -0.116905f, 0.098465f, 0.188109f, 0.076446f, 0.163155f, 0.193329f, 0.027926f, -0.113620f, 0.106821f, 0.223898f, 0.103495f, -0.228063f, -0.049179f, -0.234615f, 0.166066f, 0.146888f, 0.074541f, -0.233739f, 0.020133f, -0.202001f, -0.024945f, -0.216874f, 0.008020f, 0.265315f, 0.213361f, 0.141161f, -0.130840f, 0.206883f, 0.165249f, -0.253744f, 0.080641f, -0.168518f, 0.206741f, 0.152219f, -0.004802f, -0.086700f, -0.229267f, -0.004270f, -0.146552f, -0.104182f, 0.047952f, 0.139179f, 0.046032f, 0.206371f, -0.122228f, -0.167562f, -0.026352f, -0.221905f, -0.010288f, -0.104409f, 0.035333f, -0.067313f, -0.195964f, 0.248686f, 0.197482f, -0.064422f, -0.260151f, -0.120152f, -0.161673f, -0.053270f, -0.112577f, -0.051691f, -0.121794f, 0.088570f, -0.027501f, -0.230611f, -0.231784f, 0.139274f, 0.116851f, -0.109791f, 0.136025f, 0.213057f, -0.003379f, -0.206509f, -0.190444f, -0.034289f, -0.245593f, 0.116538f, -0.173672f, 0.030622f, 0.094650f, 0.016723f, 0.155597f, 0.217189f, -0.032737f, 0.109477f, -0.196801f, -0.130157f, 0.104526f, -0.036826f, -0.006146f, 0.158021f, 0.266788f, 0.199649f, -0.229329f, 0.101072f, 0.112950f, 0.171637f, -0.129609f, -0.058405f, 0.264681f, -0.061358f, 0.199113f, -0.064194f, -0.068213f, -0.141644f, -0.219891f, 0.088913f, -0.178984f, 0.105427f, -0.087260f, 0.229324f, 0.160552f, -0.195408f, -0.048595f, -0.191424f, 0.114929f, 0.023414f, -0.135904f, -0.095175f, -0.107263f, -0.079971f, 0.044858f, 0.032793f, 0.014712f, 0.142265f, 0.196368f, 0.204204f, 0.263031f, -0.000267f, 0.205787f, 0.126064f, 0.176478f, -0.022907f, 0.260984f, 0.016626f, -0.051657f, 0.033711f, -0.024310f, -0.273464f, 0.255206f, 0.041949f, -0.152457f, 0.137611f, -0.264636f, 0.247046f, -0.024428f, 0.018570f, 0.136861f, -0.153100f, -0.224092f, 0.030308f, -0.042606f, -0.048852f, -0.074628f, 0.216051f, 0.026457f, -0.233619f, -0.147215f, -0.257165f, -0.004883f, -0.013253f, 0.043896f, 0.218528f, 0.018534f, 0.204952f, -0.091698f, 0.038234f, -0.245386f, -0.125567f, 0.241077f, 0.095166f, 0.021067f, -0.099692f, 0.083898f, 0.146631f, -0.219302f, 0.017616f, -0.224967f, -0.100690f, -0.054641f, -0.183512f, -0.167071f, 0.199557f, -0.079633f, 0.095723f, 0.261407f, 0.170472f, -0.100244f, 0.211337f, 0.215742f, 0.051585f, -0.029169f, 0.006906f, -0.160757f, -0.268318f, -0.184872f, -0.183606f, -0.173962f, -0.270309f, -0.272688f, 0.116992f, 0.263475f, 0.100883f, -0.004287f, -0.165863f, 0.083874f, -0.016800f, -0.261071f, -0.071892f, 0.187607f, 0.064569f, 0.149108f, -0.220999f, 0.131839f, -0.181202f, 0.017188f, 0.038333f, 0.055725f, 0.169994f, -0.024136f, 0.122614f, 0.107271f, -0.048689f, -0.112789f, -0.028416f, -0.103567f, 0.134384f, 0.106596f, -0.214719f, 0.216717f, 0.229750f, 0.133836f, 0.205021f, 0.167972f, 0.000010f, 0.167312f, -0.113548f, 0.156955f, 0.187735f, 0.166654f, -0.104969f, -0.251606f, 0.140663f, 0.119254f, 0.233035f, -0.084857f, -0.143557f, 0.176122f, -0.216837f, 0.242338f, 0.204473f, -0.131049f, -0.131706f, -0.231247f, 0.086285f, -0.256990f, 0.203146f, 0.198474f, -0.219667f, -0.135756f, 0.054870f, 0.107211f, -0.233400f, 0.203407f, 0.247917f, 0.202392f, 0.115005f, -0.111696f, -0.053860f, -0.239370f, -0.254934f, -0.041129f, 0.217258f, 0.087878f, -0.013016f, 0.247524f, 0.122456f, 0.263237f, -0.195889f, 0.184147f, -0.262579f, 0.123745f, -0.218019f, -0.220737f, 0.147374f, -0.163505f, -0.247742f, 0.245062f, 0.254663f, -0.030617f, 0.233844f, 0.161969f, 0.194900f, -0.236020f, -0.093682f, -0.106230f, 0.156351f, -0.173954f, -0.238977f, 0.240510f, -0.229572f, -0.123945f, 0.197368f, -0.074188f, -0.073697f, 0.011879f, 0.216411f, 0.003588f, 0.071832f, -0.257114f, 0.005800f, 0.115851f, 0.114195f, -0.143946f, -0.027926f, 0.127188f, 0.244441f, -0.125496f, 0.068825f, 0.060767f, 0.076805f, -0.094009f, -0.002032f, -0.170582f, 0.148145f, 0.002873f, -0.159228f, -0.256052f, 0.006256f, -0.029073f, 0.061975f, -0.263504f, 0.181736f, 0.259226f, 0.073703f, 0.179406f, 0.212886f, 0.008537f, 0.194446f, 0.222703f, -0.140712f, 0.200932f, -0.257764f, -0.033852f, 0.123475f, -0.032418f, -0.033093f, 0.233700f, 0.052377f, 0.192944f, -0.143868f, -0.229223f, 0.213082f, -0.086163f, 0.068370f, -0.044065f, -0.021190f, 0.258016f, -0.209805f, -0.192402f, 0.266333f, -0.073957f, 0.105428f, 0.154676f, 0.011711f, 0.027561f, -0.210141f, 0.130388f, 0.168840f, -0.026943f, -0.193466f, -0.090106f, 0.127942f, -0.241278f, 0.123414f, 0.246490f, 0.037744f, -0.022204f, 0.133800f, -0.047526f, -0.179283f, 0.133608f, 0.157074f, -0.202539f, -0.261228f, 0.106698f, -0.091344f, -0.185443f, 0.225527f, 0.270184f, -0.134829f, 0.200836f, 0.120205f, 0.150550f, -0.031059f, -0.162335f, -0.111509f, 0.009338f, -0.197720f, -0.206946f, -0.181995f, -0.100409f, -0.123453f, 0.039773f, 0.180881f, -0.010662f, 0.069965f, -0.051646f, -0.172640f, 0.066774f, -0.063041f, 0.144911f, -0.146922f, -0.024528f, 0.068753f, 0.126242f, 0.028699f, -0.263933f, 0.201517f, 0.019285f, -0.174547f, -0.039949f, -0.273288f, 0.217782f, 0.129324f, 0.024658f, 0.138513f, 0.259887f, 0.078141f, 0.234800f, -0.136005f, -0.002054f, -0.052031f, -0.233462f, -0.063773f, 0.198899f, 0.245558f, 0.066394f, -0.221528f, 0.209107f, 0.159670f, -0.228847f, -0.262462f, -0.186165f, 0.173074f, 0.048743f, -0.020984f, 0.165948f, -0.018914f, 0.042119f, -0.267039f, -0.167003f, 0.187279f, 0.089853f, 0.180369f, 0.146778f, 0.022346f, 0.106608f, 0.273625f, 0.053000f, 0.120673f, -0.132125f, -0.063476f, 0.089730f, -0.142184f, -0.045449f, 0.141526f, 0.031686f, -0.037506f, 0.202153f, 0.131087f, 0.052882f, 0.132204f, -0.067405f, 0.169788f, 0.195093f, 0.154427f, -0.135241f, 0.122694f, 0.028605f, 0.197590f, 0.171212f, 0.202566f, 0.166597f, 0.230701f, -0.114371f, -0.162214f, 0.205475f, -0.022241f, -0.162776f, 0.026069f, 0.120786f, -0.046267f, -0.260113f, 0.164212f, 0.271037f, -0.096346f, -0.075518f, -0.246909f, 0.039006f, 0.155462f, -0.105113f, 0.095714f, 0.218192f, -0.175187f, 0.165404f, 0.223003f, -0.084449f, 0.257926f, 0.173423f, 0.219669f, -0.251455f, 0.164294f, 0.077827f, 0.216124f, -0.200884f, -0.201070f, -0.140030f, -0.022410f, 0.126468f, -0.166779f, -0.179247f, -0.176198f, 0.157008f, -0.076637f, -0.077019f, -0.226574f, 0.233885f, 0.245655f, -0.163961f, 0.208360f, -0.226232f, 0.160783f, -0.043945f, -0.038225f, -0.031321f, -0.072661f, -0.058407f, 0.072459f, -0.131158f, -0.173425f, -0.128960f, -0.173471f, -0.233411f, -0.108202f, 0.229398f, -0.066929f, 0.215852f, 0.172194f, -0.121379f, -0.174664f, 0.146068f, -0.056052f, 0.040105f, -0.176548f, -0.106238f, -0.141743f, 0.111002f, 0.115755f, 0.266753f, -0.137860f, -0.045869f, -0.094456f, -0.160035f, 0.145231f, -0.210357f, -0.037083f, 0.003620f, -0.037630f, 0.132892f, -0.205264f, -0.187186f, 0.001178f, 0.237668f, 0.138988f, -0.160519f, -0.083135f, -0.226333f, 0.267468f, -0.230034f, 0.104911f, -0.192938f, -0.176686f, -0.016944f, -0.225571f, -0.056217f, 0.132997f, 0.023680f, 0.249199f, 0.128628f, 0.142082f, -0.170876f, 0.000687f, 0.090470f, -0.031338f, 0.230907f, -0.051912f, 0.136931f, 0.106734f, -0.194829f, 0.250122f, -0.220929f, -0.053787f, -0.001909f, -0.213718f, -0.196316f, 0.273248f, 0.220293f, -0.108237f, 0.231043f, 0.094802f, -0.136569f, 0.061537f, -0.077706f, 0.121602f, -0.181726f, 0.139437f, 0.061244f, 0.235641f, 0.193906f, -0.079689f, -0.059902f, 0.206154f, -0.039808f, -0.110102f, -0.090877f, -0.182941f, 0.097975f, 0.220146f, -0.248409f, -0.053968f, -0.168766f, 0.043796f, -0.144944f, -0.166578f, -0.226602f, 0.168875f, 0.139989f, -0.219528f, -0.063229f, -0.025202f, 0.051555f, 0.182952f, 0.199382f, 0.191092f, 0.042585f, -0.246866f, -0.048040f, -0.241493f, -0.125294f, 0.170111f, -0.182236f, 0.011700f, 0.161165f, -0.260624f, 0.241618f, 0.209967f, -0.256865f, 0.002126f, 0.213901f, 0.222053f, -0.021270f, 0.017856f, -0.232865f, 0.043914f, -0.130138f, -0.185503f, -0.052835f, -0.126510f, 0.272940f, 0.018123f, 0.113838f, -0.226775f, 0.094352f, 0.263235f, 0.011865f, -0.267343f, -0.134416f, -0.164044f, -0.212221f, 0.001281f, -0.043256f, -0.179278f, -0.013333f, 0.005134f, -0.106510f, 0.203544f, 0.019547f, -0.213975f, 0.179325f, -0.253886f, 0.081568f, -0.091318f, 0.195750f, -0.032413f, -0.175604f, 0.056047f, 0.112514f, 0.047192f, 0.114648f, 0.053706f, -0.081154f, -0.063063f, -0.017979f, 0.194144f, -0.026549f, -0.008611f, -0.132446f, 0.124726f, 0.142962f, -0.101159f, -0.121479f, -0.055189f, 0.193315f, -0.165926f, 0.018046f, 0.053822f, 0.015136f, 0.113956f, -0.200318f, 0.094998f, 0.145257f, 0.247355f, -0.212857f, -0.190827f, 0.256069f, -0.149428f, -0.116568f, -0.201420f, 0.135763f, -0.228170f, -0.217001f, 0.087751f, 0.216226f, 0.229469f, 0.139842f, -0.266511f, 0.082898f, 0.009890f, -0.051243f, 0.248166f, 0.194168f, -0.071072f, 0.082820f, 0.009376f, 0.129684f, -0.014101f, 0.072158f, -0.176923f, -0.092394f, -0.023608f, -0.194847f, 0.129106f, 0.130888f, 0.088650f, -0.064482f, 0.202268f, -0.052058f, -0.170701f, -0.063340f, -0.118370f, 0.036114f, -0.142704f, -0.265696f, 0.132027f, 0.083922f, -0.195815f, 0.075424f, 0.095117f, 0.085106f, -0.084156f, 0.103900f, 0.186255f, 0.183371f, -0.235747f, 0.123715f, -0.065923f, -0.241225f, -0.231489f, 0.147941f, -0.165548f, 0.136756f, 0.029936f, 0.003893f, -0.035608f, -0.050420f, 0.212761f, -0.206078f, -0.022826f, 0.126751f, -0.105407f, -0.078852f, -0.051917f, 0.092565f, -0.159682f, -0.017252f, 0.211375f, 0.022211f, 0.251360f, -0.014241f, 0.023324f, -0.259758f, -0.092699f, 0.198405f, -0.144286f, 0.245117f, -0.110323f, -0.012959f, -0.213024f, -0.173712f, -0.242717f, -0.123386f, 0.126353f, 0.002992f, 0.027566f, 0.213744f, 0.036504f, 0.054636f, -0.012603f, 0.267295f, -0.128812f, -0.081980f, 0.066432f, -0.045792f, -0.237801f, 0.237416f, 0.106749f, -0.220679f, -0.002952f, 0.185020f, 0.003675f, -0.174051f, 0.254446f, -0.138106f, 0.057390f, 0.121553f, -0.028772f, -0.001096f, 0.226561f, 0.025270f, 0.201106f, 0.244577f, -0.225943f, 0.027204f, -0.200612f, -0.078701f, -0.036356f, 0.164649f, -0.041808f, -0.174735f, 0.159427f, 0.022767f, -0.091224f, -0.192785f, 0.044068f, 0.000290f, -0.238964f, 0.007154f, 0.035706f, -0.217908f, 0.189670f, 0.190255f, -0.117585f, -0.137348f, 0.019571f, -0.131888f, 0.224155f, -0.044110f, -0.131105f, 0.119346f, -0.263115f, 0.177284f, 0.004546f, 0.210032f, -0.024567f, -0.111000f, 0.214067f, 0.059482f, -0.094294f, -0.026493f, 0.193320f, 0.061557f, 0.100711f, -0.048614f, -0.181926f, -0.038505f, 0.249596f, -0.020213f, -0.088636f, 0.224787f, 0.250860f, 0.145660f, 0.005680f, -0.234357f, 0.000528f, 0.179882f, 0.172888f, 0.080916f, 0.187769f, -0.035975f, 0.184684f, -0.118412f, -0.238500f, -0.178844f, 0.145154f, 0.032876f, -0.031677f, 0.033945f, -0.011672f, 0.218800f, -0.155222f, -0.148918f, 0.037475f, -0.029496f, 0.233507f, 0.134888f, 0.047430f, 0.219818f, 0.213543f, -0.229198f, 0.164011f, 0.238147f, -0.234095f, -0.166678f, -0.060256f, 0.078388f, -0.082645f, 0.047764f, -0.161648f, -0.261681f, -0.070897f, 0.156763f, 0.119688f, 0.097137f, -0.233048f, 0.013375f, -0.012140f, 0.130229f, 0.019103f, -0.125615f, 0.220357f, -0.178586f, 0.118378f, 0.237827f, -0.038737f, 0.166124f, 0.188638f, 0.105414f, -0.071054f, -0.252679f, 0.067573f, -0.097892f, -0.193121f, 0.074645f, -0.065892f, 0.260354f, -0.004690f, -0.105884f, -0.114736f, -0.126281f, -0.100955f, 0.242115f, 0.039587f, 0.112585f, -0.092407f, -0.210447f, -0.180743f, -0.189771f, -0.184394f, 0.128943f, -0.229855f, 0.266609f, 0.240267f, -0.177850f, -0.035983f, 0.091365f, -0.197652f, -0.074295f, -0.149043f, -0.181795f, 0.136992f, 0.074343f, 0.031824f, 0.233361f, 0.038371f, 0.155637f, 0.013480f, -0.197484f, -0.057646f, -0.192706f, 0.200967f, -0.023309f, -0.112168f, 0.181660f, 0.158113f, 0.048062f, -0.077315f, -0.164526f, 0.254310f, -0.119628f, -0.130807f, 0.030907f, -0.062013f, -0.149032f, -0.130483f, 0.147649f, -0.032600f, -0.103062f, 0.008420f, -0.218030f, -0.101397f, 0.196167f, -0.223206f, 0.100218f, 0.003290f, -0.218609f, 0.140684f, 0.097590f, 0.108449f, -0.115046f, -0.121458f, -0.056213f, -0.075802f, 0.201963f, -0.043765f, 0.074859f, -0.199145f, -0.197881f, 0.094903f, 0.031106f, 0.071029f, 0.032807f, 0.043356f, 0.187557f, -0.145612f, 0.083629f, -0.231722f, -0.182232f, 0.056359f, 0.256003f, -0.186883f, 0.221026f, 0.235293f, 0.231899f, -0.234915f, 0.093486f, 0.153268f, 0.162964f, -0.066755f, -0.189951f, 0.111198f, 0.226517f, -0.035451f, -0.101841f, 0.232879f, -0.189823f, 0.030466f, 0.032174f, 0.198938f, 0.158703f, 0.090073f, 0.178610f, -0.080027f, -0.265910f, -0.040772f, -0.093796f, -0.002380f, -0.157152f, 0.058818f, 0.191644f, -0.238512f, -0.162839f, 0.191546f, -0.236794f, -0.124503f, 0.095995f, -0.102610f, -0.202529f, -0.257793f, -0.115331f, -0.006281f, 0.181140f, 0.173535f, -0.088725f, -0.239789f, -0.038663f, 0.187253f, -0.123668f, 0.063044f, -0.145621f, 0.119210f, -0.166324f, 0.248943f, -0.039158f, -0.168475f, -0.051411f, 0.111461f, -0.130161f, 0.024122f, -0.233742f, -0.266426f, -0.132648f, -0.143995f, -0.118292f, 0.221937f, -0.264474f, -0.244354f, 0.243006f, 0.220106f, 0.232297f, -0.141018f, -0.040805f, 0.244145f, -0.076946f, -0.010526f, -0.256837f, 0.015726f, 0.253205f, 0.039056f, -0.094852f, -0.023284f, -0.080031f, 0.207435f, 0.248880f, -0.223956f, 0.096121f, 0.199797f, 0.075839f, -0.208961f, 0.173640f, 0.232834f, 0.234139f, -0.200703f, 0.136290f, 0.245742f, 0.000270f, 0.161913f, 0.249075f, 0.172851f, 0.114405f, 0.075321f, 0.039366f, 0.110801f, 0.118141f, -0.059392f, 0.178386f, 0.210242f, 0.250654f, -0.003209f, 0.053844f, -0.152664f, 0.123803f, 0.101419f, -0.244984f, 0.190059f, -0.085759f, -0.083682f, 0.255072f, -0.166660f, -0.219858f, 0.166592f, 0.271792f, 0.075378f, -0.128016f, 0.198483f, 0.206053f, 0.233138f, 0.078350f, 0.012506f, -0.269270f, -0.265595f, 0.218883f, 0.076634f, -0.218301f, 0.246296f, -0.207534f, 0.043922f, -0.170367f, 0.042227f, -0.074585f, 0.092833f, -0.197848f, 0.048722f, 0.100413f, 0.200337f, 0.087790f, -0.176868f, -0.175000f, -0.094257f, -0.017280f, 0.213921f, -0.042394f, -0.152075f, -0.228069f, 0.028869f, -0.261508f, 0.121048f, -0.256189f, 0.137288f, 0.023781f, 0.078295f, 0.261531f, -0.023283f, 0.136784f, 0.204253f, -0.078006f, -0.038210f, -0.268590f, -0.093305f, -0.218442f, -0.251216f, -0.075215f, -0.257646f, -0.001703f, 0.054208f, 0.106601f, 0.114572f, 0.062860f, -0.038292f, 0.193162f, -0.178983f, 0.271667f, -0.098476f, -0.135024f, 0.005588f, -0.189060f, 0.247254f };
static const float heart_layer_4_biases[40] = { -0.000000f, -0.000000f, 0.000000f, 0.000000f, -0.000000f, -0.000000f, -0.000000f, 0.000000f, -0.000000f, 0.000000f, 0.000000f, -0.000000f, 0.000000f, 0.000000f, 0.000000f, 0.000000f, 0.000000f, -0.000000f, -0.000000f, -0.000000f, 0.000000f, -0.000000f, -0.000000f, -0.000000f, 0.000000f, -0.000000f, 0.000000f, -0.000000f, 0.000000f, 0.000000f, -0.000000f, -0.000000f, -0.000000f, -0.000000f, -0.000000f, 0.000000f, 0.000000f, -0.000000f, -0.000000f, 0.000000f };
static const float heart_layer_4_weights[1600] = { 0.023984f, -0.215150f, 0.265839f, 0.034589f, -0.038259f, -0.150518f, -0.246116f, 0.089382f, 0.190610f, 0.113502f, 0.033987f, -0.201665f, -0.045486f, -0.010750f, -0.134367f, 0.076452f, -0.217193f, -0.114469f, -0.267871f, 0.199699f, 0.086227f, -0.186111f, 0.174020f, 0.139422f, -0.123528f, -0.088819f, 0.121166f, -0.143509f, 0.158097f, -0.256143f, -0.118883f, -0.047885f, -0.166845f, 0.182646f, 0.169266f, 0.158285f, -0.111492f, 0.024625f, 0.029450f, 0.161117f, -0.182525f, -0.144110f, 0.194611f, 0.026127f, 0.236522f, 0.210037f, 0.074555f, 0.036777f, 0.184459f, 0.113906f, -0.197414f, -0.237975f, -0.177946f, -0.268392f, -0.146036f, 0.097898f, 0.138423f, -0.153820f, 0.246669f, -0.042789f, 0.250270f, 0.253240f, -0.026414f, 0.061577f, -0.264718f, -0.142304f, -0.176638f, 0.131630f, 0.170082f, 0.049846f, 0.079113f, -0.113440f, 0.093510f, 0.229499f, -0.162057f, 0.114799f, -0.154455f, -0.103922f, 0.161794f, 0.169602f, -0.269680f, -0.062765f, -0.016724f, 0.040034f, 0.143613f, -0.230211f, 0.127338f, -0.046868f, 0.159068f, 0.230087f, -0.175718f, -0.142154f, -0.094770f, -0.245094f, 0.034267f, 0.262222f, -0.065304f, 0.091532f, 0.254950f, 0.204025f, -0.230059f, -0.012183f, -0.222643f, -0.234330f, -0.049864f, -0.187627f, 0.163787f, -0.005359f, -0.169523f, -0.060483f, -0.028426f, -0.098458f, 0.225727f, 0.062337f, 0.165069f, -0.097537f, 0.215378f, -0.065804f, -0.265135f, 0.078057f, -0.086347f, 0.251122f, -0.077603f, -0.047318f, -0.050379f, -0.155450f, 0.224065f, 0.264925f, -0.150791f, -0.265328f, 0.168998f, 0.087190f, 0.010231f, 0.211571f, -0.050541f, -0.120289f, -0.166717f, -0.160256f, 0.163483f, -0.228316f, 0.113341f, -0.252395f, 0.161922f, 0.161239f, 0.022925f, -0.047196f, -0.097512f, 0.010358f, -0.233514f, -0.078143f, -0.200736f, -0.175317f, -0.075960f, 0.219568f, 0.155444f, -0.244176f, -0.228445f, -0.231259f, 0.214922f, 0.076277f, -0.187680f, 0.028376f, 0.169089f, 0.045898f, 0.260118f, -0.254293f, -0.028585f, 0.229779f, -0.127122f, -0.102542f, 0.234715f, 0.228916f, 0.156837f, -0.057468f, 0.067198f, 0.273524f, 0.121104f, -0.102943f, -0.253154f, 0.061786f, 0.043332f, -0.194203f, 0.048100f, -0.160785f, -0.082111f, -0.085478f, -0.248491f, -0.249666f, 0.172556f, -0.037020f, 0.053469f, 0.052092f, 0.109244f, 0.111628f, 0.148873f, -0.146528f, -0.226430f, -0.263577f, -0.096033f, -0.037701f, -0.153235f, 0.239074f, -0.126561f, -0.244409f, 0.235095f, -0.097976f, 0.243462f, 0.079666f, 0.223421f, 0.081188f, 0.240350f, 0.144214f, -0.247020f, -0.182741f, -0.126403f, -0.110888f, 0.241556f, -0.119330f, -0.058196f, -0.242696f, -0.228112f, -0.124786f, -0.161463f, 0.065376f, 0.273829f, 0.217842f, 0.129823f, 0.263218f, 0.116890f, 0.218471f, -0.148149f, 0.107349f, -0.213438f, 0.082157f, 0.270232f, 0.109779f, 0.098076f, -0.253009f, 0.005961f, 0.182341f, 0.113544f, -0.155588f, 0.144050f, -0.015911f, -0.030876f, 0.161523f, -0.064479f, -0.207673f, 0.165621f, -0.266952f, 0.207324f, -0.042647f, -0.193828f, -0.198473f, -0.232783f, 0.184926f, -0.244939f, -0.254388f, -0.219617f, 0.220734f, 0.017485f, -0.249564f, 0.170620f, -0.190712f, 0.246199f, 0.266839f, 0.163593f, 0.036008f, -0.220696f, 0.169744f, 0.217805f, -0.106454f, 0.085378f, -0.086360f, -0.260900f, -0.023701f, -0.041676f, 0.189863f, 0.020181f, 0.014859f, -0.173515f, 0.212621f, -0.197135f, 0.234719f, -0.219748f, -0.151246f, 0.017245f, -0.051473f, 0.036608f, 0.167456f, 0.117233f, 0.164929f, -0.264282f, -0.103147f, -0.105055f, -0.001345f, 0.203447f, -0.056468f, -0.149078f, -0.155134f, 0.052494f, -0.162480f, 0.132292f, -0.027156f, 0.089878f, -0.002805f, 0.208545f, 0.262189f, -0.018767f, -0.266240f, -0.072612f, -0.083538f, 0.068687f, 0.258811f, 0.155972f, -0.226192f, 0.247359f, 0.148705f, -0.157018f, -0.067727f, 0.199860f, 0.141882f, 0.246186f, -0.158298f, 0.084399f, -0.113516f, 0.105519f, 0.232079f, -0.088018f, -0.135738f, 0.163186f, -0.243667f, 0.159914f, 0.059060f, 0.157764f, -0.256395f, -0.011028f, 0.060963f, 0.132814f, 0.135207f, 0.126477f, 0.066027f, -0.249953f, -0.106002f, -0.170792f, 0.234581f, 0.156235f, -0.067252f, 0.026756f, 0.269071f, -0.021318f, -0.114118f, 0.041847f, 0.124779f, -0.011715f, -0.215499f, -0.129758f, 0.128643f, -0.072968f, -0.113219f, 0.015829f, -0.014045f, 0.198107f, 0.029968f, -0.028528f, -0.195938f, 0.243258f, -0.141851f, 0.233572f, -0.016433f, -0.158709f, 0.087877f, -0.066858f, 0.085793f, 0.223501f, -0.175586f, -0.249793f, 0.216235f, -0.186997f, -0.057476f, -0.137933f, -0.172539f, 0.079748f, 0.129132f, -0.018774f, -0.061684f, -0.233740f, -0.188772f, 0.020943f, -0.044982f, -0.272986f, -0.115506f, -0.226384f, 0.008093f, 0.231415f, 0.062225f, 0.120776f, -0.098276f, 0.130974f, -0.093619f, 0.198806f, 0.002438f, -0.032303f, 0.016483f, -0.156329f, 0.248912f, -0.117365f, 0.248416f, 0.102461f, 0.028015f, 0.118866f, -0.162463f, 0.084693f, -0.259941f, -0.183959f, -0.191627f, 0.247389f, -0.081154f, -0.165066f, 0.023690f, 0.237168f, -0.156230f, -0.046149f, -0.184853f, -0.038008f, 0.060908f, 0.140327f, 0.171798f, 0.262238f, 0.015842f, 0.056026f, 0.177963f, -0.127839f, -0.188150f, -0.095500f, 0.120888f, -0.171343f, -0.256990f, 0.204792f, 0.131661f, -0.241691f, 0.257873f, 0.134848f, 0.226342f, 0.242706f, -0.215864f, 0.107223f, -0.195953f, 0.150153f, -0.116439f, -0.161413f, -0.069316f, 0.042531f, 0.014314f, -0.151058f, 0.057141f, 0.133670f, -0.247989f, 0.269192f, -0.258900f, -0.159661f, -0.051917f, -0.058482f, 0.234777f, -0.091556f, 0.150374f, 0.102617f, -0.002595f, -0.034703f, -0.005732f, -0.045998f, 0.156123f, -0.015837f, -0.060349f, 0.192353f, -0.080485f, 0.175570f, -0.231971f, 0.017841f, 0.128571f, 0.171970f, -0.050753f, -0.167589f, -0.114836f, 0.259735f, 0.117301f, 0.175002f, 0.144610f, -0.053413f, -0.256025f, -0.199540f, 0.160548f, -0.130951f, -0.216106f, -0.141865f, -0.146100f, -0.115116f, -0.149668f, -0.009339f, -0.167079f, -0.049937f, 0.006980f, -0.184602f, -0.061885f, 0.123422f, -0.251807f, -0.201324f, 0.102447f, -0.117662f, 0.038255f, 0.020248f, 0.248208f, -0.165440f, 0.086050f, 0.004393f, -0.039025f, 0.145121f, 0.129164f, -0.035932f, 0.122414f, 0.139822f, 0.170887f, -0.213259f, 0.203553f, -0.265014f, 0.054030f, 0.256865f, 0.209132f, 0.016826f, -0.083237f, 0.248760f, -0.219768f, 0.222177f, -0.029855f, -0.156554f, 0.203722f, -0.080416f, -0.155566f, 0.202479f, 0.041319f, -0.051491f, 0.266981f, -0.250520f, -0.150207f, 0.162738f, 0.259093f, 0.227612f, 0.078537f, 0.084634f, -0.218266f, 0.048792f, 0.035355f, 0.257875f, -0.250755f, -0.083700f, 0.229376f, -0.069960f, 0.178340f, 0.264607f, 0.203346f, -0.090214f, 0.167902f, -0.121781f, -0.080652f, 0.148517f, -0.024399f, 0.123239f, -0.096097f, 0.261195f, -0.243442f, -0.019913f, -0.247846f, 0.032677f, 0.169575f, 0.242784f, 0.083914f, -0.106072f, 0.008144f, -0.202643f, 0.205709f, -0.101048f, -0.074616f, 0.113741f, -0.141244f, 0.244048f, -0.174508f, 0.049706f, -0.101258f, 0.064322f, 0.027750f, 0.184664f, -0.190843f, -0.062051f, -0.037964f, -0.224243f, 0.196870f, -0.202530f, -0.215700f, 0.047403f, -0.055230f, 0.005018f, 0.198947f, -0.046320f, -0.217948f, 0.229207f, -0.255011f, -0.077188f, 0.257929f, -0.168216f, -0.110425f, -0.205660f, 0.028682f, 0.228400f, 0.110968f, 0.093408f, -0.266325f, 0.186813f, -0.240564f, 0.070506f, -0.132669f, 0.076660f, 0.212398f, 0.153597f, 0.103544f, -0.072930f, 0.013523f, 0.167048f, 0.234142f, -0.147151f, -0.119902f, 0.271328f, 0.165749f, 0.032958f, -0.166077f, -0.226798f, 0.162868f, -0.143463f, 0.019230f, 0.058363f, 0.096162f, -0.201233f, 0.218620f, -0.070700f, -0.148338f, -0.165116f, 0.255800f, -0.025379f, 0.193712f, -0.247711f, -0.253142f, 0.201166f, -0.196389f, 0.118251f, 0.210154f, 0.015058f, 0.102930f, -0.186262f, 0.261975f, -0.261917f, 0.260417f, -0.057558f, -0.257645f, 0.098694f, 0.264958f, -0.151394f, -0.251517f, 0.167540f, -0.135084f, 0.061246f, 0.232088f, 0.193976f, -0.084319f, 0.206680f, -0.104953f, -0.214706f, -0.003893f, 0.149851f, -0.123400f, 0.209722f, -0.116897f, -0.058087f, -0.168905f, -0.226076f, -0.043745f, 0.089201f, -0.147632f, -0.018410f, -0.041916f, -0.193713f, -0.052250f, 0.201493f, 0.051318f, -0.076463f, -0.035321f, -0.126371f, 0.122895f, 0.200389f, -0.197641f, 0.150871f, -0.116546f, 0.231905f, 0.082215f, -0.241290f, -0.127894f, -0.236373f, -0.249321f, 0.095349f, -0.266953f, -0.006575f, -0.032329f, -0.249460f, -0.091062f, -0.140040f, 0.093111f, -0.117832f, -0.118391f, 0.089914f, 0.190785f, 0.025351f, -0.020478f, -0.268101f, -0.211682f, 0.267529f, 0.036148f, 0.195885f, 0.113721f, -0.131319f, -0.083341f, -0.186976f, 0.104874f, -0.196616f, 0.003026f, -0.080303f, -0.253877f, -0.214259f, 0.209567f, -0.014711f, 0.159083f, 0.268319f, 0.025358f, -0.120966f, -0.250849f, -0.021744f, -0.027942f, 0.137932f, -0.226370f, 0.058099f, 0.122260f, -0.211331f, -0.193895f, 0.247533f, -0.007660f, 0.252080f, -0.185598f, -0.215756f, 0.100699f, 0.094644f, 0.113247f, -0.128509f, 0.107351f, -0.106629f, -0.218240f, 0.161079f, 0.115124f, -0.215938f, 0.172303f, 0.206049f, 0.134924f, -0.133638f, -0.150049f, 0.164551f, -0.174917f, 0.067202f, -0.008519f, 0.190049f, -0.036867f, -0.240213f, 0.126633f, 0.190886f, 0.121616f, -0.121943f, -0.069371f, 0.268295f, -0.256738f, -0.216057f, -0.057318f, 0.198324f, 0.199964f, 0.043636f, -0.151867f, -0.055020f, 0.206198f, -0.026377f, 0.179195f, 0.234844f, -0.179154f, -0.233752f, 0.210672f, -0.006440f, -0.158015f, 0.184248f, -0.247005f, -0.133060f, -0.079633f, 0.011145f, -0.032194f, 0.269123f, -0.141853f, -0.116755f, 0.071313f, -0.141851f, 0.221748f, 0.221266f, -0.230565f, -0.259504f, -0.151845f, 0.004373f, -0.263253f, 0.118681f, 0.181692f, 0.013638f, -0.142655f, 0.071295f, 0.161241f, 0.082945f, 0.056817f, -0.133085f, -0.109674f, -0.005138f, 0.194371f, -0.264861f, -0.062592f, -0.174286f, 0.155397f, 0.269821f, 0.270951f, -0.081157f, 0.009608f, -0.026435f, 0.193026f, -0.143453f, 0.037614f, -0.242470f, 0.269608f, 0.097026f, 0.169196f, 0.052592f, 0.037103f, 0.250811f, -0.161529f, 0.248810f, -0.081661f, 0.115243f, -0.219990f, -0.006049f, 0.056550f, 0.263013f, 0.196982f, -0.266558f, 0.127797f, -0.000003f, -0.093706f, 0.212774f, -0.077204f, 0.241811f, 0.251028f, 0.215100f, 0.137630f, -0.253810f, 0.186388f, -0.035254f, 0.198785f, -0.167588f, -0.089969f, -0.224150f, 0.031888f, 0.025416f, 0.203772f, -0.070526f, 0.021706f, 0.259311f, -0.092304f, -0.127990f, -0.029448f, 0.124959f, 0.268280f, -0.048412f, -0.020962f, -0.230223f, -0.192729f, 0.153338f, 0.214843f, -0.098890f, 0.030807f, 0.120806f, 0.066040f, 0.083859f, -0.062580f, -0.157090f, 0.211192f, -0.266762f, 0.197969f, 0.168448f, 0.038757f, 0.154578f, 0.010675f, 0.133401f, -0.131595f, -0.244600f, 0.183726f, 0.183735f, -0.213523f, 0.097795f, -0.118507f, -0.208805f, 0.260445f, 0.143629f, 0.130813f, -0.090092f, -0.248551f, -0.111775f, -0.183630f, -0.252675f, 0.157221f, -0.126296f, -0.166280f, 0.261466f, -0.194697f, 0.148825f, 0.081790f, -0.151900f, -0.064820f, -0.169798f, 0.033590f, -0.229905f, 0.123811f, 0.249966f, 0.002642f, 0.017741f, -0.069102f, -0.104817f, -0.021308f, -0.194601f, -0.015905f, -0.153401f, -0.016001f, 0.202848f, 0.263192f, 0.054403f, -0.229838f, 0.032835f, -0.145510f, -0.171119f, 0.041270f, 0.162631f, 0.267974f, -0.240266f, -0.206294f, 0.099171f, 0.205557f, 0.141671f, -0.044720f, 0.188163f, -0.129363f, -0.050654f, -0.023438f, 0.197206f, 0.050152f, -0.118638f, -0.184596f, 0.064150f, 0.095355f, 0.145396f, -0.244784f, -0.185608f, -0.079950f, -0.093901f, -0.035805f, 0.183681f, -0.151706f, -0.171282f, 0.142432f, 0.251720f, -0.184614f, 0.221632f, -0.243761f, 0.174780f, 0.014970f, -0.095972f, -0.127064f, -0.240317f, -0.228123f, 0.141420f, -0.190801f, 0.214657f, -0.039982f, -0.174239f, 0.179857f, 0.007018f, 0.143649f, -0.237409f, -0.177876f, 0.057227f, 0.159103f, -0.015057f, -0.064310f, 0.218452f, -0.110903f, 0.140642f, -0.152610f, 0.221334f, 0.042374f, 0.258188f, -0.240077f, 0.058840f, -0.158532f, -0.219604f, -0.159667f, 0.174272f, -0.108286f, 0.032774f, -0.250660f, 0.111479f, 0.143300f, 0.213787f, 0.001851f, 0.149218f, -0.204430f, -0.085177f, 0.245378f, 0.041150f, -0.184555f, 0.155559f, -0.126160f, 0.249800f, 0.014576f, -0.033851f, -0.111981f, 0.118857f, -0.227134f, -0.240038f, 0.129749f, 0.038963f, -0.079531f, -0.086260f, 0.250017f, -0.052248f, 0.135068f, 0.246533f, -0.219014f, -0.139020f, 0.110746f, -0.194717f, -0.111505f, -0.049062f, -0.263700f, 0.052321f, -0.141028f, -0.076653f, -0.060935f, 0.161293f, -0.194793f, 0.030969f, 0.171733f, 0.247581f, -0.097205f, -0.188011f, -0.138286f, 0.217640f, -0.163781f, -0.131120f, 0.116816f, 0.183203f, -0.211764f, -0.213876f, 0.255560f, -0.168924f, -0.069364f, -0.189032f, 0.265859f, -0.160123f, -0.051880f, 0.157025f, 0.238851f, 0.210703f, 0.178437f, -0.076834f, -0.003614f, -0.233171f, 0.054289f, 0.204399f, -0.118419f, 0.133135f, -0.182125f, -0.052127f, -0.091443f, -0.029462f, 0.006642f, -0.125071f, -0.219824f, 0.050521f, 0.014153f, 0.211241f, 0.065113f, 0.136862f, 0.155857f, 0.026658f, 0.090392f, 0.152193f, -0.012827f, 0.188208f, -0.182859f, 0.271828f, 0.121417f, 0.176927f, 0.271647f, -0.108122f, -0.055320f, 0.203604f, -0.121650f, 0.099958f, -0.133232f, -0.252959f, 0.230705f, 0.021407f, -0.160081f, -0.089603f, -0.091493f, -0.264020f, 0.208460f, -0.177922f, 0.018952f, 0.077765f, 0.137211f, 0.059807f, -0.060649f, -0.234701f, 0.263321f, -0.117906f, 0.024922f, 0.173446f, -0.160987f, -0.228840f, -0.009534f, 0.066038f, -0.136164f, -0.100063f, 0.099173f, 0.024055f, 0.116896f, -0.102624f, -0.130968f, 0.055529f, -0.106108f, -0.022302f, -0.119072f, -0.142650f, 0.188769f, 0.187134f, 0.255118f, -0.112996f, 0.118950f, 0.045488f, -0.074329f, -0.227973f, -0.167484f, 0.016238f, 0.188517f, -0.018567f, -0.199303f, -0.000935f, -0.177094f, 0.225211f, 0.098951f, 0.227178f, 0.254017f, -0.017769f, -0.099494f, 0.056997f, 0.241570f, -0.112016f, 0.056134f, -0.115384f, 0.066374f, 0.009885f, -0.272565f, 0.157730f, 0.111403f, 0.099824f, 0.138086f, -0.003376f, -0.095760f, 0.093426f, -0.272737f, -0.265488f, -0.148757f, 0.212525f, 0.016360f, -0.123567f, 0.172125f, 0.028035f, -0.082123f, 0.011748f, 0.247025f, 0.171137f, 0.071341f, 0.015309f, -0.183591f, 0.127622f, -0.259329f, -0.094966f, -0.054484f, -0.156160f, 0.218281f, -0.210710f, -0.243856f, -0.063810f, 0.050793f, 0.083552f, 0.090813f, -0.090539f, -0.046679f, 0.083043f, 0.055121f, -0.143116f, -0.124787f, 0.117885f, -0.260390f, 0.161246f, 0.119429f, 0.064103f, 0.012975f, 0.237895f, 0.026467f, 0.164377f, -0.027368f, 0.054265f, 0.008694f, -0.030105f, 0.183011f, -0.083878f, -0.059882f, 0.043062f, -0.113210f, -0.021722f, -0.262879f, -0.223779f, 0.020907f, 0.019327f, 0.011244f, 0.003613f, -0.214179f, 0.144764f, 0.149006f, -0.119133f, 0.041344f, -0.051304f, 0.133110f, 0.086245f, 0.098983f, -0.234513f, 0.262805f, -0.239729f, 0.202651f, -0.144578f, -0.184837f, -0.084640f, -0.256425f, 0.178147f, -0.048038f, 0.265652f, -0.082853f, 0.269603f, 0.040397f, -0.021779f, -0.235633f, -0.200429f, -0.251460f, -0.178086f, 0.201689f, 0.253772f, 0.109223f, 0.263590f, -0.187886f, 0.221287f, -0.036777f, 0.078544f, -0.187433f, -0.076571f, -0.195458f, 0.032992f, -0.193551f, -0.113873f, 0.073792f, 0.268096f, -0.140322f, 0.197380f, 0.208568f, -0.068525f, 0.069788f, -0.168277f, 0.184943f, -0.170339f, 0.084520f, 0.035401f, 0.264839f, 0.057162f, -0.158764f, 0.223700f, 0.268739f, -0.203150f, 0.240709f, 0.027583f, 0.129449f, 0.061973f, -0.142155f, 0.157443f, -0.217976f, 0.099192f, 0.172239f, -0.035193f, -0.179929f, -0.107673f, -0.125420f, -0.077258f, 0.059349f, 0.094143f, 0.099663f, -0.017114f, 0.214207f, 0.204764f, 0.012763f, -0.241212f, 0.082489f, 0.206217f, -0.129758f, -0.172630f, 0.217999f, 0.159213f, -0.212593f, -0.008418f, 0.218564f, 0.162848f, 0.217036f, -0.237738f, 0.184594f, -0.005201f, 0.187567f, 0.006409f, 0.200988f, 0.080032f, -0.054913f, 0.055655f, 0.063121f, -0.261767f, 0.028956f, 0.240709f, -0.106564f, 0.160960f, 0.054173f, -0.165625f, 0.220449f, -0.088404f, -0.066983f, -0.223827f, -0.114110f, -0.093590f, -0.158204f, -0.128625f, -0.114417f, -0.023033f, -0.190283f, -0.040059f, -0.059870f, -0.213618f, 0.066545f, -0.143455f, 0.035500f, -0.240274f, -0.096520f, -0.260766f, 0.211788f, 0.113942f, -0.018221f, 0.040611f, -0.210104f, 0.232332f, -0.125315f, 0.179517f, 0.237959f, 0.271852f, 0.074665f, -0.054557f, -0.004551f, 0.201035f, -0.127822f, -0.181608f, -0.259898f, -0.163941f, -0.211026f, -0.006201f, -0.150078f, 0.269028f, -0.185308f, -0.194483f, 0.054594f, -0.145582f, -0.056913f, 0.167231f, -0.041511f, -0.143988f, -0.162665f, 0.259343f, 0.225375f, -0.267452f, -0.207105f, 0.165798f, -0.105085f, -0.024761f, 0.095838f, 0.134632f, 0.114315f, 0.006032f, -0.028599f, -0.181495f, 0.173074f, 0.055393f, 0.134294f, 0.115945f, -0.171252f, -0.162262f, 0.195151f, 0.042939f, -0.011241f, 0.270414f, -0.126795f, 0.053038f, -0.002650f, 0.058153f, -0.068522f, 0.158460f, 0.099598f, 0.078204f, 0.124228f, 0.221359f, -0.123191f, 0.227121f, 0.019956f, 0.136761f, -0.174863f, -0.258156f, -0.101189f, 0.062646f, 0.209893f, -0.070122f, 0.184689f, -0.048389f, 0.162240f, 0.137297f, -0.075085f, 0.190730f, -0.023819f, -0.144086f, -0.023763f, -0.091699f, 0.014172f, 0.209507f, -0.058984f, -0.149880f, 0.148198f, -0.155664f, 0.251477f, -0.088087f, -0.048540f, -0.259589f, 0.105990f, -0.222691f, -0.166799f, 0.255935f, 0.126336f, 0.175330f, -0.240374f, 0.245113f, 0.097788f, 0.053319f, -0.065574f, 0.025932f, 0.204752f, 0.122785f, 0.273709f, -0.246776f, -0.184793f, -0.171295f, -0.188723f, 0.260231f, -0.050508f, -0.165833f, 0.187219f, -0.002840f, 0.249976f, 0.271903f, -0.211913f, -0.175159f, 0.065927f, -0.237193f, -0.160612f, -0.255295f, -0.218758f, -0.271227f, -0.220170f, 0.222650f, -0.113217f, -0.231511f, 0.027228f, 0.055979f, 0.125516f, -0.078263f, -0.260068f, 0.167776f, 0.100773f, 0.210062f, 0.111434f, 0.091484f, 0.126184f, -0.155754f, -0.197305f, 0.148804f, -0.211856f, 0.115845f, 0.187141f, -0.154774f, -0.236196f, 0.098276f, 0.205642f, 0.133427f, -0.058066f, -0.189713f, 0.023348f, -0.236443f, -0.060178f, -0.271509f, -0.066620f, -0.142265f, 0.051391f, 0.192258f, -0.003454f, -0.149536f, -0.209979f, 0.017708f, 0.227957f, -0.098152f, -0.235279f, 0.037608f, -0.168108f, 0.136996f, 0.266111f, -0.190598f, -0.241310f, -0.167728f, -0.036867f, 0.114987f, -0.235504f, 0.208331f, 0.081453f, 0.252474f, 0.160021f, 0.077398f, -0.044373f, 0.071339f, 0.231966f, -0.013582f, -0.151616f, 0.039820f, 0.076363f, 0.003350f, 0.061269f, 0.046639f, -0.153814f, -0.135623f, -0.233309f, -0.121538f, -0.197037f, -0.237217f, 0.216443f, -0.163153f, -0.240341f, 0.166125f, -0.198448f, 0.003487f, -0.027407f, 0.015798f, 0.272273f, 0.203101f, 0.252387f, 0.227147f, 0.112227f, -0.051506f, -0.115702f, 0.159920f, -0.217714f };
static const float heart_layer_5_biases[40] = { 0.000000f, 0.000000f, -0.000000f, -0.000000f, -0.000000f, 0.000000f, 0.000000f, -0.000000f, 0.000000f, 0.000000f, 0.000000f, 0.000000f, -0.000000f, -0.000000f, 0.000000f, -0.000000f, -0.000000f, -0.000000f, -0.000000f, -0.000000f, -0.000000f, 0.000000f, 0.000000f, 0.000000f, -0.000000f, 0.000000f, -0.000000f, -0.000000f, 0.000000f, -0.000000f, 0.000000f, -0.000000f, -0.000000f, 0.000000f, -0.000000f, 0.000000f, -0.000000f, -0.000000f, -0.000000f, -0.000000f };
static const float heart_layer_5_weights[1600] = { -0.172563f, 0.240418f, 0.208450f, -0.258865f, 0.105669f, -0.120727f, 0.146578f, 0.163976f, -0.087784f, -0.202496f, 0.144665f, -0.164570f, 0.138409f, 0.103266f, 0.056106f, 0.082142f, 0.246355f, -0.207155f, 0.223486f, 0.086768f, -0.120923f, 0.107355f, 0.053067f, 0.048191f, -0.085830f, 0.175709f, 0.124278f, -0.028439f, 0.007552f, 0.227292f, -0.128582f, 0.183918f, 0.125691f, -0.017683f, 0.146944f, -0.166330f, 0.188357f, -0.011105f, -0.079777f, -0.042619f, 0.176542f, 0.142782f, -0.206272f, 0.204740f, -0.030413f, -0.235060f, 0.216626f, -0.111995f, 0.185009f, -0.181710f, 0.138800f, 0.181104f, 0.071075f, 0.271854f, 0.252333f, 0.221777f, 0.267826f, 0.191505f, 0.163616f, -0.077760f, 0.234310f, -0.087558f, 0.098936f, -0.147155f, -0.083232f, 0.072410f, 0.192720f, -0.267517f, -0.121418f, -0.118007f, 0.224096f, 0.144081f, -0.026775f, 0.145145f, 0.004804f, -0.239726f, 0.073669f, 0.102241f, -0.068812f, 0.198045f, 0.113814f, 0.063155f, 0.076570f, -0.016819f, 0.190432f, 0.207847f, -0.049384f, 0.231779f, 0.185627f, -0.003220f, -0.078911f, -0.099297f, 0.119265f, -0.243682f, 0.121086f, -0.088427f, 0.211082f, -0.133520f, -0.039978f, -0.224067f, 0.074586f, -0.167465f, -0.222332f, 0.058806f, -0.241509f, 0.176661f, -0.104177f, 0.261309f, 0.245072f, -0.046583f, -0.134866f, 0.176251f, 0.046899f, 0.032600f, 0.153264f, 0.134892f, 0.064355f, 0.123636f, -0.041766f, -0.201463f, 0.165877f, -0.050412f, -0.050010f, 0.120106f, 0.110178f, 0.146769f, 0.030611f, -0.255025f, 0.148443f, -0.162917f, 0.163403f, 0.195547f, 0.177486f, -0.076210f, 0.182588f, 0.099457f, -0.064936f, -0.128829f, -0.253814f, 0.214329f, -0.095612f, 0.218155f, 0.082554f, -0.024475f, 0.009161f, -0.158407f, 0.225720f, 0.021560f, -0.264971f, 0.076287f, -0.040253f, 0.011149f, 0.021973f, 0.001985f, 0.255393f, -0.158955f, -0.044536f, 0.019014f, -0.249423f, -0.175139f, 0.075033f, -0.101897f, -0.216406f, 0.169987f, -0.095726f, -0.186959f, 0.121909f, -0.020545f, -0.139023f, -0.055665f, 0.227705f, -0.183422f, 0.137255f, -0.035068f, -0.238941f, -0.162745f, 0.223002f, 0.139596f, -0.185395f, -0.063643f, -0.191601f, 0.218746f, 0.251623f, 0.017280f, -0.266988f, -0.037565f, 0.201607f, 0.157955f, -0.222294f, -0.084593f, 0.256341f, -0.235278f, -0.001939f, -0.252400f, 0.214787f, 0.064547f, -0.020167f, 0.138050f, -0.232491f, 0.133059f, -0.220749f, -0.258162f, -0.010612f, 0.008246f, -0.029898f, 0.148624f, 0.181639f, 0.144923f, -0.108381f, 0.130919f, -0.267643f, -0.087615f, 0.139672f, -0.219296f, -0.041986f, 0.221684f, -0.063978f, 0.224107f, 0.032293f, 0.017958f, -0.170193f, 0.025923f, -0.136579f, -0.144910f, 0.124666f, 0.127381f, 0.239852f, 0.203062f, -0.092899f, -0.115916f, 0.167504f, 0.064622f, 0.042047f, -0.105233f, -0.063172f, -0.196256f, -0.088442f, -0.065449f, 0.019193f, -0.071377f, -0.257920f, 0.249086f, -0.051608f, -0.071000f, -0.235846f, 0.019677f, -0.265243f, 0.075109f, -0.016806f, -0.222699f, 0.106952f, -0.222992f, -0.162349f, -0.208082f, -0.226374f, 0.246839f, -0.031883f, 0.040695f, -0.267311f, -0.186081f, 0.050809f, -0.136235f, -0.170730f, 0.108519f, 0.071903f, 0.025526f, 0.262078f, -0.226291f, -0.002585f, -0.115108f, 0.157891f, 0.042225f, 0.095493f, -0.018994f, -0.170718f, 0.233375f, -0.231165f, -0.208984f, -0.054339f, -0.134022f, -0.116620f, 0.000124f, 0.009561f, 0.185920f, 0.180435f, -0.220703f, 0.029209f, 0.042034f, 0.175006f, -0.041285f, -0.013400f, -0.017996f, -0.065550f, -0.206156f, 0.127106f, -0.039537f, -0.252346f, 0.144023f, 0.223877f, 0.152086f, -0.146629f, 0.180211f, -0.173325f, -0.081046f, -0.136625f, 0.212393f, 0.004621f, 0.014173f, 0.039078f, -0.129033f, -0.208506f, 0.136311f, 0.100311f, 0.243775f, -0.116000f, 0.099670f, 0.041689f, -0.252009f, 0.204801f, 0.052927f, -0.027532f, -0.092494f, 0.175182f, -0.093689f, 0.108078f, 0.020942f, -0.205669f, 0.105369f, 0.149113f, 0.192399f, 0.109645f, 0.079543f, -0.268181f, -0.177937f, -0.137426f, 0.014682f, 0.200405f, -0.190922f, -0.251400f, -0.251403f, 0.013832f, -0.106826f, 0.097346f, 0.165127f, 0.245865f, 0.097073f, -0.220666f, 0.107276f, -0.164114f, 0.062129f, 0.016246f, -0.151524f, -0.200275f, 0.051053f, -0.242826f, -0.085218f, 0.125962f, -0.164784f, 0.137800f, 0.053379f, -0.195005f, -0.221379f, -0.061721f, -0.201939f, -0.108844f, 0.238618f, -0.038806f, 0.099478f, 0.007678f, -0.090794f, -0.205767f, -0.038566f, 0.196960f, -0.061420f, 0.134716f, -0.246070f, -0.093822f, 0.262268f, -0.018344f, 0.024374f, -0.194005f, 0.130509f, 0.263767f, 0.091813f, 0.248585f, -0.110541f, 0.240895f, -0.131209f, 0.267133f, -0.155205f, 0.175504f, 0.222008f, 0.062237f, -0.012764f, -0.122805f, 0.070470f, 0.110056f, -0.201024f, -0.226548f, -0.228112f, 0.126395f, 0.140015f, -0.101090f, -0.247318f, 0.013382f, 0.028997f, -0.191817f, 0.183459f, -0.117650f, -0.109151f, -0.030264f, 0.000489f, -0.105976f, -0.184543f, -0.194967f, 0.063389f, -0.130126f, -0.135008f, -0.130005f, 0.089279f, 0.180290f, -0.160283f, 0.200078f, -0.003965f, 0.223889f, 0.163823f, -0.156561f, -0.109823f, 0.191376f, -0.086542f, 0.037348f, 0.123342f, 0.054804f, -0.027912f, 0.125992f, 0.021225f, 0.069083f, -0.114132f, -0.197666f, 0.076869f, 0.189852f, -0.156427f, -0.135711f, -0.256722f, 0.261065f, -0.090388f, -0.141445f, 0.071341f, -0.092108f, -0.253223f, -0.219131f, -0.254154f, 0.135792f, 0.137344f, -0.038875f, -0.035052f, -0.134189f, 0.160303f, -0.235852f, 0.188518f, -0.126927f, 0.221953f, -0.196666f, 0.031798f, 0.074686f, -0.075032f, -0.008933f, 0.126531f, 0.056916f, -0.054379f, -0.047280f, 0.196287f, 0.148272f, -0.145934f, -0.114418f, -0.004116f, 0.153337f, -0.137409f, 0.032757f, -0.103331f, -0.256881f, -0.137669f, 0.126530f, -0.216421f, 0.091870f, 0.261224f, -0.108441f, 0.094516f, -0.084867f, 0.228150f, 0.016153f, -0.185060f, 0.143078f, 0.211982f, 0.155870f, 0.159635f, -0.214239f, 0.265002f, 0.039164f, 0.239721f, 0.243481f, 0.117763f, 0.178578f, 0.040628f, -0.097130f, -0.047086f, -0.247488f, -0.127796f, 0.045860f, -0.115737f, -0.127496f, 0.148534f, -0.037356f, -0.079370f, 0.168682f, 0.249041f, -0.005453f, -0.010310f, -0.060687f, -0.129743f, 0.065788f, 0.261312f, -0.051948f, -0.240290f, -0.153740f, -0.032513f, -0.081074f, 0.241506f, -0.073962f, -0.083372f, 0.009123f, -0.108648f, -0.273686f, -0.059933f, -0.021688f, -0.048615f, 0.144792f, 0.141824f, -0.161006f, 0.146694f, 0.155209f, 0.053476f, 0.169485f, 0.035830f, 0.045794f, -0.025348f, -0.032037f, -0.195971f, 0.262802f, -0.204935f, 0.264537f, 0.048837f, -0.104102f, 0.032145f, -0.079245f, 0.162854f, 0.262248f, 0.044643f, -0.142906f, -0.262870f, 0.247989f, -0.263414f, -0.180677f, 0.162319f, -0.241445f, 0.215389f, -0.166681f, -0.207526f, -0.089407f, -0.005390f, -0.189190f, 0.209146f, 0.176326f, -0.195057f, -0.215932f, 0.123481f, -0.142483f, -0.130648f, 0.143930f, 0.270951f, -0.152713f, 0.197610f, 0.032857f, 0.142404f, -0.205671f, -0.028270f, -0.026248f, 0.032844f, -0.016959f, 0.191911f, 0.215889f, -0.172355f, 0.139805f, -0.180726f, -0.219498f, 0.220570f, -0.211101f, 0.160705f, -0.071543f, 0.163441f, -0.055025f, 0.019602f, 0.182328f, -0.216147f, 0.137299f, -0.092063f, 0.260869f, 0.042632f, 0.242636f, -0.031162f, 0.213821f, 0.147228f, -0.101916f, -0.076221f, -0.167777f, -0.241830f, -0.195421f, -0.178222f, -0.037886f, 0.211744f, 0.129202f, 0.156381f, -0.033725f, 0.066577f, -0.258764f, -0.245155f, 0.091237f, 0.190978f, -0.153198f, -0.237382f, 0.159838f, 0.253409f, 0.209117f, 0.016969f, -0.080700f, -0.016191f, -0.132815f, 0.090333f, -0.037097f, -0.046761f, -0.180817f, -0.270615f, -0.088690f, 0.221647f, -0.091612f, 0.109235f, -0.013709f, 0.261842f, 0.031963f, 0.066322f, -0.171905f, -0.095507f, -0.261233f, -0.124691f, 0.171981f, 0.063035f, 0.122496f, -0.023766f, -0.252657f, -0.242277f, 0.033122f, 0.127335f, -0.061876f, 0.151746f, -0.115495f, -0.149109f, -0.166435f, 0.188830f, 0.129901f, 0.003165f, -0.261541f, 0.218140f, -0.043266f, 0.172312f, 0.015399f, 0.118136f, 0.225105f, -0.261900f, 0.110855f, -0.194581f, -0.009467f, -0.089337f, -0.221108f, 0.123178f, 0.141747f, -0.090687f, -0.033405f, 0.173861f, 0.067852f, 0.180822f, -0.237161f, 0.123870f, 0.049922f, 0.183686f, -0.149370f, 0.058016f, -0.183597f, -0.097964f, -0.129917f, -0.086239f, 0.035088f, -0.143684f, 0.241719f, -0.081979f, -0.079363f, 0.217104f, 0.245038f, 0.125837f, -0.158816f, 0.149522f, -0.020844f, -0.051080f, 0.258091f, -0.266682f, 0.202665f, 0.116942f, 0.137699f, -0.085694f, 0.201581f, 0.010397f, -0.271736f, 0.018304f, 0.045980f, -0.109368f, -0.254805f, 0.143801f, -0.089409f, -0.068628f, 0.273246f, 0.199836f, 0.026793f, -0.108548f, 0.170138f, 0.080525f, -0.176524f, -0.176602f, 0.036750f, 0.187479f, 0.139052f, -0.117310f, 0.156869f, 0.035025f, -0.252920f, -0.169124f, 0.207883f, -0.034652f, 0.148562f, 0.090822f, 0.172227f, -0.156261f, 0.247751f, 0.110548f, 0.225651f, -0.085185f, 0.013310f, -0.069756f, -0.204359f, -0.116707f, -0.083141f, 0.239826f, 0.212614f, 0.128571f, 0.257784f, 0.003680f, -0.165753f, -0.182141f, 0.024189f, 0.265122f, 0.193184f, 0.111642f, 0.012477f, -0.065900f, 0.222158f, 0.137708f, -0.079047f, -0.032296f, -0.098299f, -0.206492f, 0.191141f, 0.099804f, 0.211381f, -0.218516f, -0.034952f, 0.178213f, 0.154452f, -0.104359f, 0.175471f, -0.247803f, 0.178743f, 0.176924f, 0.252658f, -0.037886f, -0.131989f, 0.094537f, -0.001964f, -0.201936f, -0.032597f, 0.015202f, 0.008428f, -0.167701f, 0.201241f, 0.084684f, -0.260822f, 0.075932f, -0.032776f, 0.160543f, 0.051806f, 0.131143f, 0.242730f, 0.270150f, 0.073157f, 0.186248f, -0.137661f, 0.064208f, 0.037044f, -0.061382f, -0.239873f, -0.038713f, -0.262525f, -0.168082f, -0.194925f, -0.100653f, -0.247600f, 0.136138f, -0.075829f, -0.126756f, -0.132653f, -0.020036f, -0.178286f, -0.142463f, -0.220978f, 0.242927f, 0.160096f, -0.244846f, 0.224720f, 0.062218f, 0.205720f, 0.075325f, 0.086429f, 0.116927f, -0.257581f, -0.091103f, 0.128497f, 0.021702f, -0.140852f, -0.014771f, 0.271468f, -0.109893f, -0.142606f, 0.095635f, -0.204580f, 0.040481f, -0.203309f, 0.205623f, -0.223986f, -0.236005f, 0.157968f, 0.004488f, 0.212523f, -0.011482f, 0.184566f, -0.137087f, 0.100341f, 0.191606f, 0.133401f, 0.224451f, -0.262838f, -0.186985f, -0.078378f, -0.271495f, -0.063841f, 0.272951f, 0.156494f, -0.018429f, -0.086735f, 0.090907f, -0.127197f, -0.202496f, 0.028676f, 0.115536f, 0.230892f, -0.161772f, -0.167956f, -0.227907f, -0.248477f, -0.065460f, 0.232813f, 0.109333f, -0.216175f, 0.099719f, 0.190105f, -0.060373f, -0.012859f, 0.057683f, -0.233078f, -0.033941f, -0.011171f, -0.169230f, -0.008685f, 0.005707f, -0.094912f, -0.015980f, -0.001707f, -0.023917f, -0.033376f, 0.081909f, 0.126178f, -0.270251f, -0.141742f, 0.248691f, 0.076613f, 0.169402f, -0.181563f, 0.251488f, -0.007135f, 0.245737f, 0.271459f, 0.121936f, 0.080136f, 0.090482f, -0.118684f, 0.135780f, -0.264037f, -0.148299f, -0.226261f, 0.021415f, 0.027175f, 0.259372f, -0.219251f, 0.088765f, 0.217528f, -0.006649f, 0.046558f, 0.018476f, -0.182814f, -0.067371f, 0.122882f, 0.135060f, 0.230529f, 0.036367f, -0.226816f, 0.144671f, 0.001335f, -0.219373f, -0.222063f, -0.246080f, -0.012121f, -0.261164f, -0.030904f, -0.131082f, 0.006438f, 0.270850f, -0.131592f, -0.220473f, 0.192153f, 0.032155f, -0.013977f, 0.005110f, 0.155133f, 0.050106f, -0.083729f, 0.042081f, -0.114334f, -0.065391f, 0.229768f, 0.064603f, 0.149200f, 0.004318f, 0.190691f, 0.251561f, 0.179124f, 0.249697f, -0.058695f, -0.026166f, -0.063393f, 0.140141f, -0.039442f, 0.017192f, 0.001603f, 0.271866f, 0.117387f, -0.077040f, 0.115840f, -0.232360f, 0.133982f, -0.137883f, 0.195128f, -0.184177f, 0.155550f, -0.177175f, 0.083634f, 0.056358f, 0.094829f, -0.212066f, 0.095139f, -0.115030f, -0.123683f, -0.013720f, -0.075377f, -0.072321f, -0.179884f, 0.225165f, 0.036697f, 0.177796f, -0.144014f, -0.038194f, -0.258680f, -0.019360f, 0.025276f, -0.006540f, -0.071210f, -0.116028f, 0.195787f, 0.131172f, -0.106261f, -0.272060f, -0.111866f, 0.169255f, -0.148007f, -0.127730f, -0.154567f, 0.045241f, -0.019812f, 0.256054f, -0.013435f, -0.094175f, 0.077897f, 0.106789f, -0.103570f, -0.101133f, 0.212616f, -0.059203f, 0.072999f, 0.094703f, -0.203634f, 0.001353f, 0.017395f, 0.240883f, -0.224685f, -0.099874f, 0.214094f, -0.213599f, 0.269294f, 0.160088f, 0.086938f, 0.232628f, -0.102223f, -0.076357f, 0.148466f, -0.000282f, 0.137225f, 0.028220f, 0.259173f, -0.026453f, -0.245943f, 0.187331f, -0.265896f, -0.163562f, 0.195315f, 0.212454f, 0.088235f, -0.155711f, 0.171614f, 0.176765f, 0.032474f, -0.137188f, -0.259280f, -0.041086f, 0.032609f, 0.031391f, 0.076175f, -0.187784f, -0.010397f, -0.238369f, -0.003618f, 0.083008f, -0.215138f, -0.126355f, -0.108895f, 0.037943f, -0.008572f, -0.095546f, -0.147005f, -0.159418f, -0.076822f, -0.096900f, -0.230701f, 0.061835f, -0.267653f, -0.109178f, 0.087016f, -0.080052f, 0.249195f, 0.118912f, -0.131103f, 0.250852f, -0.138129f, -0.114906f, 0.127965f, -0.257815f, -0.061653f, -0.221350f, 0.133337f, 0.131873f, 0.016951f, -0.255434f, -0.186684f, 0.072907f, 0.098726f, 0.100317f, -0.185845f, -0.023012f, 0.004215f, 0.154135f, 0.235650f, -0.098954f, -0.153094f, -0.229265f, 0.059908f, 0.074413f, 0.065174f, 0.212496f, 0.035372f, 0.213805f, 0.146648f, 0.183559f, 0.066311f, 0.108539f, -0.025758f, -0.055534f, 0.172132f, -0.042841f, -0.249597f, -0.143420f, 0.100425f, 0.208899f, 0.089333f, 0.018316f, 0.079862f, 0.248616f, 0.068862f, -0.098024f, 0.026204f, 0.019260f, -0.193774f, -0.266823f, -0.130584f, -0.219021f, 0.235157f, 0.052450f, 0.200380f, 0.138586f, -0.022026f, -0.155530f, 0.098301f, 0.104640f, 0.075734f, 0.194621f, 0.152033f, 0.034941f, -0.246436f, 0.151521f, -0.216642f, 0.066707f, -0.122709f, -0.019745f, -0.137083f, -0.054289f, 0.169797f, -0.245688f, 0.257450f, 0.247321f, -0.203746f, -0.233614f, 0.080857f, -0.151909f, -0.177761f, 0.159444f, -0.207689f, -0.085555f, 0.206813f, -0.062899f, 0.051292f, 0.256133f, 0.194783f, 0.210080f, -0.265807f, -0.031631f, 0.046624f, -0.075753f, -0.085391f, 0.202907f, 0.026067f, -0.072100f, -0.139602f, -0.202506f, 0.074351f, -0.214119f, -0.215916f, -0.040144f, -0.228470f, -0.100491f, 0.024279f, -0.093569f, -0.191327f, 0.014825f, 0.173547f, 0.183015f, -0.180339f, -0.167634f, 0.069537f, 0.252655f, -0.115053f, 0.061615f, -0.243726f, 0.035951f, 0.270063f, -0.012764f, 0.189109f, -0.011723f, -0.125568f, -0.167995f, -0.266348f, 0.032971f, -0.258227f, 0.075045f, -0.214697f, -0.171186f, 0.041140f, 0.157860f, -0.120749f, -0.261637f, 0.148782f, 0.224879f, -0.007312f, 0.247160f, 0.188247f, -0.008058f, 0.248292f, -0.077636f, 0.068792f, 0.109166f, -0.052431f, -0.163387f, -0.142008f, -0.258902f, 0.065471f, 0.231062f, -0.084002f, -0.236798f, -0.015351f, 0.267999f, 0.159493f, 0.196442f, 0.006422f, 0.125551f, 0.122690f, -0.030683f, 0.207381f, -0.166155f, 0.246281f, -0.059743f, -0.123144f, -0.157968f, 0.260266f, 0.164121f, -0.113846f, -0.114765f, -0.215866f, -0.051959f, -0.166445f, 0.135019f, 0.113825f, -0.001583f, 0.243069f, 0.198113f, 0.058632f, 0.240365f, 0.041700f, 0.222174f, 0.159600f, 0.138329f, -0.202057f, -0.110431f, 0.272219f, -0.240117f, -0.038690f, 0.160648f, -0.176991f, -0.115788f, -0.028830f, -0.170482f, 0.213733f, 0.236386f, -0.233019f, -0.250712f, -0.206009f, -0.004576f, 0.096561f, 0.018030f, 0.176732f, -0.143251f, 0.072541f, -0.012578f, -0.145297f, 0.177956f, 0.222204f, -0.030403f, -0.136449f, 0.072357f, 0.064069f, 0.189669f, -0.258114f, 0.144138f, -0.110082f, 0.027209f, 0.001858f, 0.062878f, -0.089308f, -0.098119f, -0.223078f, -0.140619f, 0.005833f, 0.225747f, -0.190588f, 0.253358f, -0.045497f, -0.071492f, 0.094777f, -0.260467f, -0.054210f, 0.185494f, -0.196434f, 0.097097f, -0.054222f, 0.179912f, -0.245414f, -0.071755f, -0.074406f, -0.034713f, -0.226882f, -0.196426f, 0.033945f, -0.205378f, -0.085755f, 0.145991f, 0.039667f, 0.061351f, 0.202729f, 0.160920f, 0.070089f, -0.201487f, -0.257681f, -0.003649f, -0.023033f, 0.178299f, 0.153338f, 0.234417f, 0.126536f, 0.223843f, -0.157016f, 0.014945f, 0.093721f, 0.101491f, -0.059295f, -0.135418f, -0.168699f, -0.020146f, -0.215841f, 0.156179f, -0.163129f, -0.153612f, -0.020059f, -0.223450f, 0.266731f, 0.102024f, 0.141830f, 0.112143f, 0.103162f, -0.133282f, -0.112314f, -0.168557f, -0.124178f, -0.163018f, -0.041407f, -0.174450f, 0.162962f, -0.096533f, -0.036071f, 0.272150f, 0.132502f, -0.055736f, 0.239743f, -0.046297f, -0.164690f, -0.153014f, -0.097549f, 0.182764f, -0.119382f, -0.150031f, 0.268087f, 0.153081f, -0.000018f, 0.128513f, 0.107824f, -0.115237f, -0.247386f, 0.071907f, -0.246354f, 0.144917f, -0.230082f, 0.013818f, 0.024127f, 0.242323f, 0.206860f, 0.082002f, -0.188502f, -0.173020f, -0.249910f, 0.177242f, -0.212733f, -0.224044f, -0.164831f, 0.225250f, -0.248107f, 0.125238f, 0.116438f, -0.224352f, 0.070495f, 0.156063f, -0.185420f, 0.116008f, -0.228932f, -0.244126f, 0.117772f, 0.241644f, -0.237846f, -0.229744f, 0.153134f, -0.265508f, 0.093807f, -0.101615f, -0.209837f, 0.045027f, -0.217478f, -0.106426f, 0.209163f, 0.043795f, -0.139160f, 0.234855f, 0.002852f, 0.173634f, 0.168325f, -0.038339f, 0.199135f, -0.235282f, 0.138018f, 0.184033f, 0.215943f, -0.173865f, -0.145082f, 0.187356f, 0.202847f, -0.207781f, 0.117870f, -0.000033f, -0.025980f, -0.260748f, 0.247290f, 0.057438f, 0.158899f, -0.126612f, -0.244884f, -0.068339f, -0.179817f, -0.267953f, -0.050008f, 0.031013f, -0.178050f, -0.021018f, 0.092981f, -0.114850f, -0.054222f, 0.103570f, -0.269900f, -0.254768f, -0.061078f, -0.053867f, -0.024287f, 0.091196f, 0.178739f, 0.134960f, 0.134338f, 0.191780f, -0.231302f, 0.065451f, 0.096127f, 0.193518f, 0.197527f, 0.216845f, 0.084700f, -0.272214f, -0.204749f, 0.036215f, -0.183926f, 0.187429f, -0.047135f, -0.267021f, -0.270238f, -0.110893f, 0.273514f, 0.090076f, -0.064620f, -0.039102f, -0.169017f, 0.174532f, -0.162526f, 0.011201f, 0.267352f, -0.019725f, -0.060220f, -0.199719f, 0.015506f, -0.135434f, 0.000758f, -0.136737f, -0.180306f, -0.244183f, 0.191100f, 0.170625f, -0.136386f, -0.239726f, 0.191802f, -0.054937f, 0.157584f, -0.235487f, 0.112390f, 0.266163f, -0.227838f, -0.197559f, -0.155025f, 0.039178f, 0.255406f, -0.261919f, -0.163249f, 0.265386f, -0.149299f, 0.148897f, 0.059145f, 0.263025f, 0.068705f, 0.210195f, -0.266128f, 0.137297f, 0.227565f, -0.011069f, 0.231475f, 0.147388f, 0.265610f, 0.263829f, 0.122283f, -0.252247f, -0.104378f, 0.225516f, -0.068861f, -0.017324f, 0.163463f, -0.133044f, 0.002888f, -0.024845f, -0.113262f, -0.153085f, 0.202728f, -0.155281f, 0.181737f, 0.037782f, -0.261646f, 0.229701f, -0.050662f, 0.078070f, -0.054878f, -0.238525f, 0.036960f, -0.109042f, -0.228764f, 0.071844f, -0.001152f, -0.122041f, 0.115364f, -0.238597f, -0.016759f, 0.065269f, 0.179888f, 0.160822f, -0.102046f, 0.201094f, -0.140216f, -0.072870f, -0.234519f, 0.224959f };
static const float heart_layer_6_biases[40] = { -0.000000f, -0.000000f, 0.000000f, -0.000000f, -0.000000f, 0.000000f, 0.000000f, -0.000000f, -0.000000f, 0.000000f, -0.000000f, -0.000000f, -0.000000f, -0.000000f, 0.000000f, -0.000000f, 0.000000f, -0.000000f, 0.000000f, -0.000000f, -0.000000f, 0.000000f, 0.000000f, 0.000000f, 0.000000f, 0.000000f, -0.000000f, -0.000000f, -0.000000f, -0.000000f, -0.000000f, -0.000000f, 0.000000f, -0.000000f, 0.000000f, 0.000000f, 0.000000f, 0.000000f, 0.000000f, -0.000000f };
