
#include <eml_net.h>
static const float cuore_layer_0_biases[30] = { 0.001039f, 0.000000f, -0.013741f, 0.000000f, 0.000000f, 0.000000f, -0.012957f, 0.000000f, 0.010694f, 0.000984f, -0.009372f, -0.019302f, -0.020659f, 0.000000f, 0.029851f, 0.000000f, 0.000000f, 0.012517f, 0.008201f, -0.013179f, 0.000000f, 0.011938f, 0.000000f, 0.010739f, 0.008677f, 0.000000f, -0.009597f, 0.013425f, 0.000000f, 0.007822f };
static const float cuore_layer_0_weights[120] = { 0.406851f, -0.245299f, -0.048541f, -0.294435f, -0.367763f, -0.205473f, 0.092437f, -0.127709f, 0.211246f, -0.304899f, 0.060366f, 0.073373f, 0.226975f, 0.019142f, -0.233093f, -0.241369f, -0.091118f, 0.115517f, 0.355945f, 0.174763f, -0.194113f, 0.025003f, -0.169311f, 0.304880f, -0.110026f, -0.248944f, 0.208399f, 0.213502f, -0.369004f, -0.192388f, -0.035394f, 0.312440f, -0.141140f, -0.068735f, -0.074299f, 0.124399f, -0.266236f, 0.283256f, 0.222390f, 0.076064f, -0.155338f, 0.116574f, 0.038756f, -0.229813f, -0.120348f, -0.054975f, -0.289227f, -0.317160f, -0.006467f, -0.073737f, -0.062840f, 0.403396f, 0.221505f, -0.055390f, 0.290146f, -0.418511f, 0.357784f, -0.115681f, -0.036946f, -0.393983f, -0.233356f, 0.308298f, -0.154760f, 0.385096f, 0.404277f, -0.012726f, 0.194269f, -0.222702f, -0.275607f, 0.313411f, 0.228580f, 0.420614f, 0.051441f, 0.366762f, 0.134785f, -0.028219f, -0.307537f, 0.330736f, -0.304058f, 0.015492f, 0.150086f, 0.114225f, -0.114967f, 0.190965f, 0.414144f, -0.134565f, 0.191727f, -0.343002f, 0.257600f, 0.300264f, 0.054005f, -0.238008f, 0.123050f, -0.293342f, -0.248615f, -0.005330f, 0.396609f, -0.220377f, 0.067591f, 0.194422f, 0.282507f, 0.376643f, 0.367126f, -0.045212f, 0.192994f, -0.127837f, -0.252713f, 0.184850f, -0.018844f, 0.049879f, -0.184551f, 0.029080f, 0.035134f, -0.126346f, 0.112020f, -0.361606f, 0.174345f, -0.123584f, -0.172784f, 0.190481f };
static const float cuore_layer_1_biases[30] = { 0.008985f, 0.000000f, 0.000000f, 0.000000f, -0.013323f, -0.001494f, -0.011592f, 0.000000f, -0.020311f, -0.011103f, 0.012033f, 0.000000f, -0.001306f, 0.000000f, -0.001696f, 0.000000f, -0.007890f, 0.000000f, 0.000000f, 0.000000f, -0.002880f, 0.013170f, 0.000000f, -0.001799f, 0.000000f, 0.000000f, 0.012956f, 0.009422f, 0.010118f, 0.000702f };
static const float cuore_layer_1_weights[900] = { 0.055002f, -0.112703f, -0.064064f, 0.063004f, -0.099248f, 0.215489f, -0.047501f, 0.045304f, 0.148183f, -0.139622f, -0.268520f, -0.281229f, 0.232951f, -0.280318f, 0.006669f, -0.210119f, -0.033334f, 0.209157f, 0.132189f, 0.022507f, 0.010927f, -0.048287f, 0.100837f, 0.190988f, 0.060555f, -0.211511f, 0.178469f, 0.179979f, -0.276371f, -0.089249f, 0.090167f, -0.137173f, -0.261154f, 0.240579f, 0.109006f, -0.154178f, -0.078798f, -0.231538f, 0.197041f, -0.315581f, 0.256431f, 0.074541f, -0.006827f, 0.126241f, 0.238277f, 0.067835f, -0.216661f, 0.234100f, 0.221684f, -0.109917f, 0.301038f, 0.283726f, -0.096371f, 0.243834f, 0.306114f, 0.073217f, 0.180162f, 0.124191f, 0.102830f, 0.185127f, -0.200098f, 0.233963f, 0.199255f, -0.174317f, 0.006726f, 0.159879f, 0.103722f, 0.273751f, 0.281250f, 0.236617f, 0.167926f, -0.070609f, 0.040998f, 0.262508f, 0.158996f, -0.297260f, -0.184988f, -0.266173f, -0.116630f, 0.011698f, -0.247528f, 0.253264f, 0.212180f, -0.260303f, 0.052411f, -0.269217f, -0.156068f, 0.016880f, -0.265967f, -0.100965f, -0.302258f, -0.087703f, -0.250675f, 0.046932f, -0.287035f, -0.169701f, 0.115411f, 0.103607f, 0.080554f, 0.039801f, 0.123966f, -0.028941f, -0.200368f, -0.120416f, -0.274934f, -0.118534f, -0.252007f, 0.232758f, -0.080402f, 0.288762f, -0.217941f, -0.171686f, 0.305978f, -0.046400f, 0.210971f, -0.270046f, -0.150667f, 0.262456f, -0.295958f, -0.123125f, -0.126954f, -0.100347f, -0.311854f, -0.296447f, 0.149288f, 0.148798f, 0.027875f, -0.217085f, 0.083547f, 0.167433f, -0.252409f, -0.151370f, -0.290749f, 0.223677f, 0.236502f, 0.254318f, -0.213968f, -0.269961f, 0.282656f, 0.256945f, -0.090860f, 0.219996f, 0.117972f, -0.250133f, 0.115980f, -0.240600f, 0.039280f, -0.159946f, 0.242745f, -0.187329f, -0.065491f, -0.179761f, 0.311971f, -0.264846f, -0.257117f, 0.032655f, 0.204683f, 0.309046f, -0.294347f, -0.099775f, 0.200782f, 0.033495f, 0.052685f, -0.095389f, 0.175741f, 0.282894f, 0.111254f, 0.175810f, -0.125820f, -0.280800f, 0.084539f, 0.236339f, -0.069047f, -0.214317f, -0.302941f, -0.018333f, 0.007125f, -0.113795f, 0.167080f, 0.007545f, 0.211698f, -0.155232f, -0.111186f, -0.308933f, 0.309142f, -0.101068f, 0.189630f, -0.286850f, 0.241230f, 0.256440f, -0.015323f, 0.289447f, -0.210955f, -0.134280f, -0.108062f, -0.232915f, -0.154439f, -0.263513f, -0.035792f, -0.089952f, 0.136832f, -0.206076f, -0.140572f, 0.032252f, 0.161848f, 0.052048f, -0.095243f, 0.106612f, 0.086492f, -0.120879f, -0.184541f, 0.229046f, 0.025447f, -0.265213f, 0.111013f, -0.265374f, 0.103949f, 0.109809f, 0.251787f, 0.164626f, -0.146220f, -0.230155f, 0.010230f, -0.250204f, -0.305060f, -0.087812f, 0.068879f, 0.290576f, 0.098936f, 0.298318f, 0.280430f, 0.050724f, -0.266902f, -0.265808f, 0.146808f, 0.241766f, -0.032174f, 0.146082f, 0.210082f, -0.192295f, -0.019255f, 0.191207f, -0.010329f, 0.092025f, -0.003574f, -0.041683f, 0.000334f, 0.006573f, -0.088721f, -0.207649f, -0.118060f, -0.277127f, -0.053119f, -0.172335f, 0.242676f, -0.184777f, 0.227082f, -0.020389f, -0.168885f, -0.314581f, 0.071770f, 0.307693f, -0.014911f, 0.072560f, -0.006624f, 0.098631f, -0.105558f, -0.299275f, -0.255253f, -0.157625f, -0.268556f, -0.133381f, -0.141515f, -0.153663f, 0.265577f, 0.271558f, -0.166981f, 0.191791f, 0.075353f, 0.178984f, -0.047888f, -0.316151f, 0.096113f, 0.198700f, -0.063738f, -0.022116f, 0.302774f, 0.270088f, -0.023194f, -0.092701f, -0.229175f, -0.034092f, 0.203537f, -0.050799f, 0.016780f, 0.267171f, -0.005635f, 0.075101f, 0.281231f, 0.000801f, -0.089444f, 0.185666f, 0.178004f, -0.184057f, 0.082309f, -0.314378f, 0.175429f, 0.257706f, -0.130034f, -0.137675f, 0.270766f, 0.035880f, -0.237033f, 0.027043f, -0.006972f, -0.135290f, 0.134413f, -0.313003f, 0.009661f, -0.163372f, 0.066943f, -0.280858f, -0.136669f, -0.038767f, -0.173591f, -0.110190f, -0.220618f, 0.151509f, 0.326615f, 0.283542f, -0.044178f, -0.309562f, 0.046765f, 0.058063f, -0.191556f, 0.273178f, 0.141243f, 0.086118f, 0.240085f, 0.077002f, 0.128809f, -0.301582f, 0.070393f, -0.279957f, 0.184684f, -0.092244f, 0.043119f, -0.177957f, -0.220308f, -0.163310f, -0.201457f, 0.228664f, -0.015514f, -0.189400f, -0.226109f, -0.315648f, -0.011215f, -0.156093f, 0.233693f, -0.047002f, 0.217680f, -0.278952f, -0.046207f, 0.285760f, 0.248434f, -0.021985f, 0.159730f, -0.214398f, -0.110245f, 0.216767f, 0.077036f, -0.279895f, 0.178125f, -0.083156f, -0.245124f, -0.043258f, 0.116516f, -0.025113f, 0.197794f, -0.003519f, 0.163807f, 0.129513f, -0.085460f, -0.045392f, -0.061314f, -0.271875f, 0.187170f, 0.271181f, 0.118991f, 0.277157f, -0.291448f, 0.257233f, 0.148866f, 0.184922f, 0.156828f, -0.168972f, 0.133745f, -0.169898f, 0.258981f, 0.142920f, -0.076635f, -0.237542f, 0.211241f, 0.310859f, -0.164689f, 0.124095f, -0.281093f, -0.074492f, 0.224043f, -0.028539f, -0.208638f, 0.199216f, -0.140213f, 0.285513f, -0.130127f, 0.248675f, -0.260451f, -0.316066f, 0.160609f, 0.316226f, -0.339205f, 0.227845f, -0.255274f, 0.037543f, 0.107623f, -0.114098f, -0.051887f, -0.017521f, -0.108968f, -0.079985f, -0.154259f, -0.293195f, -0.016925f, 0.286353f, 0.209083f, -0.149390f, 0.175190f, 0.216639f, -0.169252f, 0.068787f, 0.062096f, -0.104891f, 0.041996f, -0.180021f, -0.163367f, -0.036040f, -0.117177f, -0.046827f, 0.305669f, -0.224838f, 0.136699f, 0.198585f, 0.028923f, -0.193219f, -0.273037f, 0.154250f, -0.034996f, 0.132734f, 0.313693f, 0.195888f, -0.262054f, -0.026089f, -0.166889f, -0.215421f, 0.195834f, 0.013853f, -0.202500f, 0.044187f, 0.047680f, 0.287759f, -0.098335f, 0.272194f, -0.186077f, -0.038771f, -0.021293f, -0.154035f, -0.300846f, 0.233554f, 0.188134f, 0.210180f, -0.114838f, 0.243709f, 0.307589f, 0.008565f, -0.128499f, -0.149354f, 0.012858f, 0.115341f, -0.073402f, 0.213805f, -0.232270f, 0.103341f, -0.088688f, 0.115379f, -0.199090f, 0.216198f, 0.199742f, -0.195469f, 0.229463f, 0.050023f, -0.074321f, 0.269967f, -0.305794f, 0.187821f, 0.273779f, -0.169988f, 0.016441f, 0.210350f, 0.142486f, -0.130815f, 0.035704f, -0.275330f, -0.293273f, -0.247162f, 0.173990f, 0.260681f, -0.262601f, -0.154684f, 0.079895f, 0.109167f, 0.089133f, 0.231956f, -0.257131f, -0.155992f, -0.191496f, -0.135687f, -0.187643f, -0.234165f, 0.047416f, -0.123671f, -0.273069f, 0.187839f, 0.149576f, 0.129455f, -0.239890f, 0.286404f, 0.178799f, -0.213765f, 0.030940f, -0.045017f, -0.013966f, -0.315834f, -0.250115f, -0.134981f, -0.062076f, -0.061474f, -0.251592f, -0.065055f, -0.175355f, -0.035614f, 0.018703f, 0.057049f, 0.104847f, 0.259426f, 0.077424f, 0.232386f, -0.264344f, -0.258526f, -0.289731f, -0.095258f, -0.291414f, -0.232105f, -0.302551f, -0.172517f, -0.130888f, -0.315180f, -0.053135f, 0.058156f, -0.287748f, -0.257629f, -0.079549f, 0.294206f, 0.017321f, 0.123697f, -0.149741f, -0.129207f, 0.013290f, -0.233836f, 0.059087f, 0.052999f, -0.229482f, 0.001726f, -0.256551f, 0.282861f, -0.143649f, -0.150519f, 0.223922f, -0.053477f, 0.200264f, -0.224532f, 0.054546f, 0.295223f, 0.169421f, -0.085216f, 0.312003f, 0.011952f, 0.238739f, -0.124761f, -0.029559f, 0.265095f, 0.259328f, 0.037691f, -0.263493f, 0.169239f, 0.239478f, -0.312088f, -0.042082f, -0.238052f, -0.241021f, -0.083542f, -0.302469f, 0.126071f, -0.272312f, -0.302238f, -0.281556f, -0.190697f, -0.250627f, -0.302893f, 0.036595f, 0.042940f, 0.057641f, -0.258263f, 0.146845f, -0.315170f, -0.259580f, -0.116410f, -0.272377f, -0.240447f, 0.178279f, -0.095818f, 0.211397f, -0.286534f, 0.185949f, 0.002061f, 0.255496f, 0.035915f, -0.131864f, 0.003827f, -0.099354f, -0.239010f, 0.121919f, 0.143587f, -0.179064f, 0.083540f, -0.246284f, 0.025732f, -0.191079f, -0.020851f, 0.289636f, -0.145780f, -0.101742f, 0.065612f, 0.006147f, -0.013572f, -0.196030f, 0.051614f, 0.231548f, -0.187361f, 0.149641f, 0.304825f, 0.202540f, 0.023467f, -0.030036f, -0.262031f, 0.170539f, -0.154881f, -0.020027f, -0.006046f, 0.155907f, 0.052595f, 0.022431f, -0.076090f, 0.252739f, -0.155500f, -0.037162f, 0.193685f, -0.162848f, 0.093134f, 0.281827f, -0.257455f, 0.252771f, 0.034629f, -0.068582f, 0.277836f, -0.034890f, 0.260249f, 0.143328f, 0.215162f, 0.006185f, -0.069393f, 0.167362f, 0.207216f, 0.289160f, -0.258378f, -0.158043f, -0.161068f, -0.092546f, 0.258654f, -0.307858f, -0.290846f, 0.126085f, 0.248655f, 0.080306f, 0.164237f, -0.150217f, -0.125243f, -0.273489f, -0.245024f, -0.051108f, 0.086002f, -0.182441f, 0.110049f, 0.220588f, 0.122379f, -0.031936f, -0.215826f, 0.229513f, 0.134305f, 0.280457f, 0.186473f, -0.012669f, 0.228270f, 0.273637f, 0.255972f, 0.344231f, 0.308227f, 0.101796f, 0.133014f, -0.079019f, 0.329940f, 0.004366f, -0.068904f, 0.014316f, 0.137002f, -0.077245f, -0.241812f, 0.342826f, -0.199181f, 0.019701f, -0.028923f, 0.206996f, 0.286371f, -0.187084f, 0.163077f, 0.315734f, 0.019450f, -0.070426f, -0.107251f, 0.214834f, -0.044812f, -0.222672f, -0.096384f, 0.201626f, 0.086987f, 0.053530f, -0.281820f, -0.296274f, -0.054269f, 0.245767f, -0.195361f, -0.072894f, -0.059463f, -0.215320f, 0.270129f, 0.121382f, -0.128141f, 0.120273f, 0.289011f, 0.239181f, 0.194824f, -0.211838f, 0.296798f, -0.073199f, -0.241376f, 0.207582f, -0.215232f, 0.069156f, -0.226976f, -0.091249f, 0.252820f, -0.253859f, -0.082968f, 0.142384f, 0.042209f, 0.243711f, -0.302365f, 0.290339f, 0.306851f, 0.224580f, -0.015932f, 0.048137f, -0.289826f, -0.027285f, -0.150477f, 0.151578f, -0.040794f, 0.192708f, -0.110529f, -0.160661f, -0.024566f, 0.135327f, -0.111504f, 0.042910f, -0.087182f, -0.153665f, -0.110539f, -0.111119f, -0.205408f, -0.258971f, -0.086499f, -0.115090f, 0.153167f, -0.101899f, 0.283853f, 0.229083f, 0.102380f, -0.268817f, -0.292514f, -0.243648f, -0.249655f, 0.117322f, -0.213793f, -0.159092f, 0.021341f, 0.204133f, -0.267551f, -0.226568f, 0.127762f, 0.172151f, -0.078260f, 0.199143f, -0.095453f, 0.028196f, -0.053819f, 0.047181f, -0.247510f, 0.295030f, 0.290936f, 0.081455f, 0.026364f, 0.184584f, 0.302805f, -0.194759f, -0.076808f, 0.129198f, 0.181165f, 0.078260f, 0.098861f, 0.150575f, 0.150805f, 0.144647f, -0.028969f, 0.131804f, -0.055878f, 0.001775f, -0.297411f, -0.116312f, -0.244612f, -0.112097f, -0.115390f, -0.269337f, 0.017240f, -0.256897f, 0.296530f, 0.187419f, -0.201741f, -0.031933f, 0.309120f, -0.110744f, 0.027031f, 0.254552f, -0.055160f, -0.153251f, 0.054263f, -0.009367f, -0.017187f, -0.160462f, -0.152025f, 0.039745f, 0.164562f, -0.191450f, 0.168363f, -0.145763f, 0.297979f, -0.279269f, 0.117346f, 0.255295f, 0.282861f, -0.216641f, 0.302260f, -0.159771f, -0.063844f, 0.056372f, -0.275180f, 0.136623f, -0.167300f, -0.310933f, -0.138707f, 0.098585f, 0.268605f };
static const float cuore_layer_2_biases[30] = { -0.010326f, -0.013391f, 0.000000f, 0.010657f, 0.013157f, -0.008963f, -0.014822f, -0.014817f, 0.011491f, -0.010947f, 0.000000f, 0.000000f, 0.007452f, 0.011462f, 0.000000f, -0.004858f, -0.007041f, 0.000000f, -0.009987f, 0.000000f, 0.000000f, 0.000000f, 0.011520f, 0.000000f, -0.008266f, 0.000000f, 0.000000f, 0.006090f, -0.011364f, -0.009756f };
static const float cuore_layer_2_weights[900] = { -0.167577f, 0.024483f, 0.024875f, 0.117469f, 0.198867f, -0.081709f, -0.088808f, 0.112083f, 0.177749f, 0.086167f, -0.201020f, 0.109807f, 0.196258f, 0.266454f, 0.232298f, -0.296165f, 0.163751f, 0.058786f, 0.129561f, 0.036050f, 0.194205f, 0.166735f, 0.185309f, -0.282343f, 0.223908f, -0.243458f, -0.089019f, -0.151916f, -0.264885f, -0.050761f, 0.172874f, 0.053515f, 0.209916f, -0.188184f, 0.130997f, 0.237285f, -0.296643f, -0.267609f, 0.288550f, -0.313890f, 0.260705f, -0.001244f, 0.141775f, 0.283600f, 0.028735f, 0.217432f, 0.092997f, -0.137110f, -0.253946f, -0.246666f, 0.190321f, -0.231169f, 0.002460f, 0.230256f, -0.214301f, 0.045437f, -0.190751f, 0.124247f, 0.268765f, -0.224372f, -0.136811f, 0.168229f, 0.054870f, -0.085069f, -0.158103f, -0.024761f, 0.261079f, -0.313731f, -0.287779f, -0.137641f, 0.302308f, -0.071365f, 0.096930f, 0.309150f, 0.214868f, -0.202424f, -0.181193f, -0.026809f, -0.165109f, 0.025311f, 0.129571f, -0.131984f, 0.094079f, 0.299232f, 0.249259f, -0.049231f, -0.057147f, 0.262680f, 0.143695f, -0.058221f, -0.196813f, -0.118388f, -0.109343f, 0.226173f, -0.122375f, 0.090712f, 0.063166f, 0.304897f, 0.312816f, 0.038702f, 0.111180f, -0.294978f, -0.049900f, -0.077948f, -0.264474f, -0.036671f, 0.045757f, 0.207650f, -0.051224f, -0.205650f, -0.010434f, -0.079045f, -0.036533f, 0.185988f, 0.114954f, 0.216984f, -0.017509f, 0.095788f, 0.218503f, -0.112148f, 0.232373f, 0.046066f, -0.256084f, 0.157292f, 0.287941f, 0.167887f, 0.048464f, -0.220109f, 0.044824f, 0.239806f, -0.278695f, -0.242137f, 0.128942f, 0.223592f, -0.186581f, 0.189187f, 0.150951f, -0.126980f, -0.102896f, 0.106143f, -0.060715f, -0.033076f, 0.238367f, -0.314827f, 0.082791f, -0.227790f, -0.011315f, 0.093939f, -0.154867f, 0.239760f, 0.188191f, -0.239135f, 0.007275f, -0.156623f, 0.131540f, 0.224793f, -0.310467f, 0.015495f, 0.215649f, -0.073338f, -0.130372f, -0.262956f, 0.166205f, -0.070807f, -0.104953f, 0.131028f, -0.084144f, -0.260741f, 0.193796f, 0.093031f, -0.295077f, 0.258153f, 0.302360f, -0.253158f, 0.260982f, -0.291895f, 0.202081f, -0.294359f, 0.170955f, 0.174658f, 0.140286f, 0.202704f, 0.087558f, 0.151753f, -0.075541f, -0.131798f, -0.080485f, 0.180952f, 0.109224f, 0.046173f, -0.190920f, 0.044472f, -0.280036f, 0.152951f, -0.316000f, 0.030238f, -0.133972f, -0.186053f, -0.032821f, -0.196062f, -0.168782f, -0.225480f, -0.121168f, 0.071672f, 0.312279f, 0.304254f, -0.312871f, 0.172550f, 0.264360f, 0.294674f, -0.056483f, 0.193246f, 0.132507f, 0.021742f, 0.289271f, -0.205829f, 0.253080f, -0.091960f, -0.162534f, -0.109322f, 0.033878f, 0.097449f, 0.292269f, -0.150894f, 0.186358f, -0.158484f, -0.139081f, -0.047113f, -0.184922f, -0.183963f, -0.313292f, 0.289565f, 0.056649f, 0.064683f, 0.293325f, 0.114275f, 0.261662f, 0.032085f, 0.075011f, 0.125815f, 0.078517f, 0.271083f, -0.034783f, -0.027865f, -0.041327f, -0.233006f, 0.197257f, -0.052339f, 0.109961f, -0.297480f, 0.094539f, -0.261570f, 0.152963f, -0.039765f, -0.132187f, 0.009429f, -0.199181f, 0.026040f, -0.062834f, -0.170282f, -0.087947f, -0.273952f, -0.149679f, -0.090122f, 0.137041f, 0.101667f, -0.095465f, 0.181965f, 0.095918f, -0.023471f, -0.107140f, 0.265277f, 0.234312f, -0.315883f, -0.136742f, 0.184847f, -0.003280f, 0.251486f, -0.153694f, 0.204262f, 0.203817f, 0.298825f, -0.204431f, -0.202902f, 0.225695f, 0.061163f, 0.297434f, 0.013815f, 0.295602f, 0.256865f, 0.173971f, -0.007620f, -0.176142f, -0.038747f, 0.232050f, -0.260689f, -0.152954f, -0.099600f, 0.236390f, -0.229755f, -0.208731f, -0.147028f, 0.304960f, 0.227950f, 0.019340f, -0.209360f, -0.138878f, -0.301716f, -0.124260f, -0.041236f, -0.042242f, -0.002712f, -0.215100f, 0.287618f, -0.251864f, 0.044583f, 0.074913f, -0.290576f, 0.196135f, 0.112399f, 0.004229f, -0.011562f, 0.256089f, 0.125255f, -0.279160f, -0.269518f, -0.294570f, -0.014738f, -0.249069f, 0.226177f, -0.201864f, -0.130996f, -0.076463f, -0.007678f, 0.243345f, 0.071463f, -0.250944f, 0.045506f, -0.191322f, 0.075352f, -0.304264f, 0.197942f, 0.023473f, -0.251128f, -0.183577f, 0.069603f, -0.219980f, 0.183352f, 0.280422f, -0.258403f, -0.214157f, 0.149260f, -0.218652f, -0.142698f, -0.034733f, 0.100973f, -0.048494f, -0.258695f, 0.249153f, 0.253031f, -0.181294f, -0.248718f, -0.218199f, 0.087374f, 0.149996f, 0.312955f, 0.210330f, -0.066478f, 0.069866f, 0.174749f, -0.249021f, -0.185734f, -0.167511f, 0.045295f, 0.285234f, 0.091918f, -0.201823f, 0.175147f, -0.178354f, -0.093240f, -0.148237f, -0.017011f, -0.264583f, -0.049376f, -0.004837f, -0.075000f, 0.273846f, -0.288442f, -0.220041f, -0.061421f, 0.016043f, 0.315219f, -0.000526f, 0.153425f, -0.222151f, 0.278529f, -0.300858f, 0.026519f, -0.286530f, 0.264408f, 0.018936f, -0.228069f, -0.211436f, 0.298479f, -0.121180f, 0.308963f, -0.179869f, 0.147223f, 0.157057f, 0.180733f, -0.294359f, -0.086700f, -0.274987f, -0.051323f, 0.063930f, -0.282670f, 0.184973f, 0.091535f, 0.083624f, -0.061845f, -0.000294f, 0.024941f, -0.108404f, -0.001105f, -0.053231f, 0.283782f, -0.247532f, -0.172765f, 0.158039f, 0.026880f, -0.012098f, -0.305747f, -0.210876f, 0.215300f, 0.201296f, 0.258627f, 0.098855f, -0.004285f, -0.004107f, -0.220220f, 0.219910f, -0.149456f, -0.067254f, -0.254799f, 0.287432f, -0.240074f, 0.173865f, -0.304768f, 0.019435f, -0.225094f, -0.006896f, -0.043771f, 0.179021f, 0.215907f, -0.049304f, -0.196869f, -0.034081f, -0.115319f, 0.089073f, -0.024576f, -0.125198f, -0.004476f, -0.111364f, -0.164259f, -0.281245f, 0.212829f, -0.185802f, 0.097761f, -0.062911f, -0.045075f, -0.258409f, -0.173424f, 0.302137f, -0.034729f, 0.173837f, 0.125274f, 0.278138f, 0.196809f, 0.169589f, 0.307463f, 0.251214f, 0.174787f, -0.109033f, -0.181514f, -0.260863f, 0.153135f, 0.054357f, 0.217395f, -0.195279f, -0.115530f, -0.146659f, 0.223152f, 0.272387f, -0.176621f, 0.261083f, -0.092915f, -0.011064f, 0.035632f, 0.235969f, 0.290006f, -0.069796f, 0.114540f, -0.263190f, 0.082320f, 0.067868f, -0.001298f, -0.149162f, -0.143353f, -0.135253f, 0.290434f, 0.290097f, -0.166287f, -0.037578f, 0.210923f, -0.085576f, -0.305119f, -0.027619f, 0.281813f, 0.175950f, -0.289405f, 0.154329f, -0.307331f, -0.261353f, -0.082344f, 0.275082f, 0.122584f, 0.299356f, 0.103973f, -0.264867f, 0.252130f, 0.242141f, -0.079342f, -0.042153f, -0.042730f, 0.230002f, -0.298193f, 0.079021f, 0.301165f, 0.054516f, 0.173308f, 0.093275f, -0.177860f, -0.087463f, -0.289630f, -0.143714f, 0.106718f, 0.298619f, -0.169863f, 0.231045f, 0.275292f, 0.149480f, 0.045582f, -0.091251f, -0.125203f, 0.259493f, 0.021164f, 0.202487f, 0.065765f, 0.222114f, 0.059685f, 0.312250f, 0.153587f, 0.133195f, -0.095508f, 0.151867f, -0.079755f, 0.048875f, 0.001391f, 0.103144f, -0.240437f, -0.244952f, -0.291120f, -0.204840f, -0.052164f, 0.284811f, 0.255541f, -0.270422f, -0.020600f, -0.313008f, -0.266228f, 0.123071f, -0.221094f, 0.035172f, 0.276948f, -0.280409f, -0.109509f, 0.026137f, -0.199938f, 0.196224f, 0.305098f, 0.071925f, -0.245728f, -0.152520f, 0.083670f, 0.163068f, -0.280924f, 0.272754f, 0.289128f, -0.271939f, 0.106169f, -0.044367f, -0.032728f, -0.209619f, 0.270172f, -0.177524f, 0.042639f, 0.075508f, -0.026120f, 0.034391f, -0.289948f, -0.256244f, 0.213606f, 0.040142f, 0.164642f, 0.073172f, -0.301461f, -0.017319f, 0.039738f, 0.229789f, -0.083833f, -0.181106f, 0.309912f, -0.116701f, -0.289927f, 0.246565f, 0.071432f, -0.005886f, 0.220765f, 0.167741f, -0.254949f, 0.301131f, -0.143222f, 0.126202f, 0.179999f, 0.025175f, 0.171587f, 0.032098f, -0.207459f, 0.311990f, 0.087529f, -0.024568f, 0.212216f, 0.104311f, 0.295084f, -0.265381f, 0.016962f, 0.070293f, -0.256127f, -0.158708f, -0.292102f, 0.045659f, -0.065210f, 0.291785f, -0.105467f, 0.200815f, 0.005346f, -0.030695f, 0.277919f, -0.218427f, 0.026513f, -0.292271f, 0.061211f, 0.127418f, -0.086020f, -0.157097f, -0.286112f, 0.079854f, -0.139587f, -0.173352f, 0.032098f, -0.082568f, -0.246068f, 0.205312f, 0.094491f, -0.128455f, -0.312610f, 0.165369f, -0.170076f, -0.218868f, 0.192960f, 0.233247f, 0.047611f, 0.086473f, -0.197239f, 0.009837f, -0.156370f, -0.172696f, -0.039520f, 0.132322f, -0.258340f, 0.243634f, 0.220844f, -0.301400f, -0.014646f, -0.148453f, -0.274377f, -0.308526f, 0.279844f, 0.145148f, -0.125620f, -0.207581f, -0.008930f, 0.077261f, -0.127179f, 0.192554f, 0.072747f, -0.147581f, 0.133570f, 0.135619f, -0.274273f, 0.059264f, 0.283144f, 0.023133f, -0.298974f, -0.245246f, -0.140565f, -0.256237f, 0.121015f, -0.227447f, -0.285075f, -0.179114f, 0.237341f, 0.053488f, 0.233696f, 0.272626f, -0.278010f, 0.059133f, 0.095932f, -0.153059f, 0.144215f, 0.153693f, -0.046272f, 0.041132f, -0.063642f, -0.303253f, 0.006196f, -0.106744f, -0.110480f, 0.128969f, 0.096061f, 0.228297f, 0.224269f, -0.017157f, -0.158367f, 0.031149f, -0.022741f, -0.138704f, -0.087898f, -0.087593f, 0.009817f, 0.264499f, -0.077211f, -0.082380f, -0.208098f, -0.002219f, -0.300258f, 0.172833f, 0.107077f, -0.182206f, -0.203280f, -0.165544f, -0.200546f, -0.184969f, -0.047024f, 0.197994f, 0.009904f, -0.151715f, 0.103941f, 0.138631f, 0.226792f, 0.049695f, -0.129551f, 0.056487f, 0.283546f, -0.033016f, -0.103899f, -0.032667f, 0.252616f, 0.206928f, 0.231361f, -0.318006f, -0.330474f, -0.209177f, 0.046202f, 0.141635f, -0.189588f, -0.259384f, -0.014834f, 0.306996f, 0.061859f, -0.300820f, -0.240828f, -0.130893f, -0.025384f, -0.133500f, -0.141852f, -0.120734f, -0.214928f, 0.057391f, -0.019306f, -0.238058f, 0.068429f, 0.257295f, -0.216293f, 0.119265f, -0.206266f, -0.075457f, -0.087027f, 0.249180f, 0.192385f, -0.030934f, 0.091734f, 0.004135f, 0.113000f, 0.240239f, 0.235089f, 0.258200f, 0.242802f, -0.103407f, -0.123008f, 0.082962f, 0.255710f, -0.183968f, 0.301154f, -0.158559f, 0.184944f, 0.001321f, 0.177695f, 0.239684f, -0.103702f, -0.013210f, -0.078901f, 0.254997f, 0.135687f, -0.189361f, -0.179360f, 0.053265f, -0.289290f, 0.278323f, 0.033750f, 0.094851f, 0.072535f, -0.088069f, 0.039827f, 0.217213f, -0.096345f, 0.079725f, -0.228708f, 0.186742f, -0.180744f, 0.160359f, -0.084591f, 0.234970f, 0.031119f, 0.249236f, 0.220693f, 0.230599f, -0.027073f, 0.075851f, -0.041381f, -0.184473f, 0.122033f, -0.209651f, 0.119302f, -0.127376f, 0.293236f, -0.195299f, 0.159860f, -0.157199f, 0.099419f, -0.185131f, -0.047441f, -0.246583f, 0.270245f, 0.207223f, -0.234506f, 0.116428f, -0.083507f, -0.230167f, 0.110101f, -0.205312f, -0.223371f, 0.201373f, 0.134585f, -0.072732f, 0.148466f, -0.137708f, -0.054717f, 0.295912f, -0.279854f, 0.168342f, 0.092222f, -0.204829f, -0.137336f, -0.223649f, 0.214133f, 0.188622f, 0.146805f, -0.037720f, 0.174506f };
static const float cuore_layer_3_biases[30] = { -0.021604f, -0.018133f, 0.006069f, 0.000000f, 0.000000f, 0.000000f, -0.003232f, 0.012116f, 0.016811f, 0.000000f, -0.010674f, 0.000000f, -0.004467f, 0.000000f, -0.004674f, -0.004071f, 0.016599f, -0.015491f, 0.013892f, 0.019438f, -0.041932f, 0.000000f, -0.008676f, -0.009942f, 0.021170f, -0.007282f, 0.000000f, -0.001832f, 0.000000f, -0.013346f };
static const float cuore_layer_3_weights[900] = { 0.067444f, -0.130491f, -0.130108f, -0.272262f, 0.175679f, 0.236737f, -0.051026f, 0.081127f, 0.329637f, 0.059751f, 0.305043f, 0.315546f, 0.264698f, 0.096539f, 0.113792f, 0.074871f, 0.195441f, -0.254213f, -0.122381f, -0.094064f, 0.049613f, -0.101414f, -0.088226f, 0.190582f, 0.083131f, -0.170319f, -0.176772f, -0.232784f, -0.227884f, -0.004660f, 0.149879f, 0.211226f, -0.295578f, 0.008072f, 0.157481f, 0.223739f, 0.069646f, 0.198471f, -0.004783f, -0.065648f, 0.333540f, 0.055402f, 0.017418f, -0.204834f, -0.097721f, 0.321874f, -0.227138f, 0.180075f, -0.231503f, -0.282321f, -0.156126f, 0.048005f, 0.247845f, -0.047049f, -0.231280f, 0.317637f, -0.155113f, -0.050396f, -0.177065f, 0.151194f, -0.286561f, -0.291804f, 0.109476f, 0.275131f, 0.207622f, 0.022168f, 0.124728f, -0.071261f, -0.108204f, -0.001386f, 0.055862f, -0.042708f, 0.256926f, -0.035805f, -0.141490f, 0.271968f, 0.023901f, -0.304090f, -0.005669f, 0.247635f, -0.070277f, -0.276958f, 0.238101f, 0.234684f, -0.218100f, 0.176268f, -0.091415f, 0.296927f, 0.263949f, -0.222096f, -0.189369f, 0.080937f, 0.169270f, -0.076725f, -0.040457f, 0.201889f, 0.045342f, 0.032890f, -0.135896f, 0.238695f, -0.253136f, 0.084764f, -0.274438f, -0.284223f, -0.198818f, -0.279720f, 0.027274f, -0.033611f, -0.104613f, 0.209376f, -0.254193f, 0.105861f, -0.225507f, 0.251518f, 0.160669f, 0.315219f, -0.138337f, -0.311840f, -0.197347f, 0.062162f, -0.182620f, -0.281141f, -0.144747f, 0.291787f, -0.081410f, 0.171578f, -0.212375f, 0.266543f, 0.144180f, -0.199662f, 0.123397f, 0.137007f, -0.199153f, 0.118688f, 0.045471f, -0.185878f, 0.284893f, 0.132052f, 0.184605f, 0.040549f, 0.269875f, -0.314153f, 0.290344f, -0.064797f, 0.165032f, 0.181033f, -0.300676f, -0.114438f, 0.163247f, -0.031295f, 0.078300f, -0.177640f, 0.162669f, 0.219340f, -0.240412f, -0.070708f, 0.248530f, 0.069253f, 0.236436f, -0.021415f, -0.033593f, -0.295860f, 0.229629f, 0.112000f, 0.272799f, -0.062408f, -0.114434f, 0.156334f, -0.208603f, 0.018056f, -0.111069f, -0.127843f, -0.123589f, 0.175571f, 0.158291f, -0.148103f, 0.181747f, -0.084252f, -0.283111f, 0.171334f, 0.033265f, 0.312269f, 0.176290f, 0.300751f, -0.227653f, 0.021677f, 0.294691f, -0.272699f, 0.150292f, -0.291897f, 0.327974f, 0.158476f, -0.047203f, -0.276996f, -0.230075f, -0.290739f, -0.111356f, -0.228467f, 0.104896f, -0.041110f, -0.187530f, -0.031202f, 0.175463f, -0.021107f, 0.271384f, 0.060117f, 0.188146f, 0.063000f, 0.042408f, 0.021805f, -0.162211f, -0.116713f, 0.246065f, -0.201621f, -0.242388f, -0.179532f, 0.134376f, 0.244172f, 0.087010f, 0.029822f, -0.268987f, -0.235633f, -0.072538f, -0.260390f, 0.194095f, 0.106707f, -0.183186f, -0.101259f, -0.249353f, 0.125520f, -0.143965f, 0.003952f, -0.206709f, -0.256979f, -0.204876f, 0.254676f, -0.149285f, -0.070001f, -0.070480f, 0.063769f, 0.069000f, -0.164744f, 0.193102f, -0.152224f, -0.017834f, 0.298090f, 0.125912f, 0.317241f, -0.190730f, 0.024815f, 0.233009f, -0.040986f, 0.198903f, -0.228765f, -0.294484f, 0.085719f, 0.217263f, 0.098949f, 0.087616f, 0.254798f, 0.181576f, 0.035729f, -0.143738f, -0.136330f, -0.286971f, -0.293584f, -0.006463f, 0.090027f, -0.260068f, -0.121636f, -0.069708f, 0.090067f, 0.216902f, -0.181356f, -0.011834f, -0.278252f, -0.058839f, -0.183167f, -0.153255f, -0.063631f, 0.272401f, -0.128500f, -0.010608f, -0.272364f, 0.284498f, 0.211158f, -0.126882f, 0.214149f, -0.265430f, -0.159194f, -0.197785f, -0.315429f, 0.177804f, 0.212026f, -0.139730f, -0.067938f, -0.221590f, 0.071309f, 0.282247f, -0.164342f, 0.113857f, 0.255472f, -0.250635f, 0.264650f, -0.211520f, -0.249148f, 0.245903f, -0.027703f, -0.222765f, 0.039602f, 0.180473f, -0.208500f, -0.200039f, -0.181488f, 0.072976f, -0.129570f, 0.252613f, -0.036755f, -0.180587f, 0.269373f, 0.118696f, 0.193452f, -0.178518f, -0.032053f, 0.064221f, -0.148409f, 0.019819f, 0.257409f, -0.269780f, 0.006555f, 0.082964f, 0.170240f, 0.013690f, -0.140208f, 0.155985f, 0.143363f, 0.180860f, 0.040843f, 0.023127f, -0.086890f, 0.193012f, -0.288853f, 0.138046f, -0.297666f, -0.264414f, -0.130720f, -0.007383f, -0.068781f, 0.285050f, -0.110529f, 0.296962f, -0.146209f, 0.308595f, -0.154059f, -0.039245f, -0.046173f, -0.259385f, 0.286722f, -0.309752f, -0.102481f, 0.251072f, 0.179773f, 0.095656f, 0.003202f, -0.255312f, -0.275911f, 0.225973f, -0.097080f, -0.129508f, -0.059427f, 0.088081f, 0.165946f, 0.165045f, -0.028076f, 0.039603f, -0.095014f, -0.157567f, 0.306555f, 0.265741f, 0.073941f, -0.247289f, 0.138557f, -0.307075f, -0.011389f, -0.324392f, 0.028299f, -0.287647f, 0.006910f, -0.207231f, 0.000971f, -0.051876f, -0.282134f, 0.232602f, -0.217317f, 0.054173f, -0.242785f, 0.270234f, 0.205157f, 0.204013f, 0.179345f, -0.106830f, -0.163843f, 0.066713f, -0.278355f, 0.105288f, 0.022179f, 0.273892f, 0.079356f, 0.022667f, 0.124183f, 0.004879f, -0.065397f, -0.000137f, 0.272566f, 0.123013f, -0.238773f, 0.159600f, 0.204177f, -0.016360f, 0.295060f, 0.057010f, -0.301899f, 0.076247f, 0.139415f, 0.169691f, -0.075948f, 0.278087f, 0.013464f, 0.305273f, -0.035366f, -0.179301f, -0.224458f, 0.110349f, 0.017849f, -0.310729f, 0.312407f, -0.111064f, -0.267468f, 0.095499f, -0.071736f, 0.010044f, 0.174742f, 0.121408f, 0.037939f, 0.174931f, 0.145443f, -0.166258f, 0.044936f, -0.194004f, -0.257986f, -0.110645f, -0.251946f, -0.186296f, -0.244668f, -0.295244f, -0.159467f, -0.304258f, -0.280675f, 0.322045f, -0.253577f, 0.088620f, -0.272055f, 0.257138f, 0.119750f, 0.144071f, 0.291128f, -0.188866f, 0.213160f, 0.238395f, -0.098981f, -0.346677f, -0.162673f, -0.053930f, -0.313063f, 0.096527f, 0.320713f, -0.053278f, -0.000790f, -0.082135f, 0.110847f, 0.089733f, -0.281536f, 0.101647f, 0.316075f, -0.160952f, 0.142334f, 0.083765f, -0.064424f, -0.236098f, -0.124312f, 0.315476f, 0.082333f, 0.185381f, 0.239000f, 0.266024f, 0.103817f, 0.088695f, -0.270676f, -0.183902f, 0.070357f, 0.246794f, 0.054931f, 0.120902f, -0.252466f, 0.124367f, 0.277660f, 0.308497f, 0.009958f, -0.044554f, 0.067734f, -0.168488f, -0.206473f, 0.293067f, -0.273077f, 0.173399f, 0.049007f, 0.062944f, 0.290631f, -0.048722f, -0.065659f, 0.037518f, -0.272068f, -0.209995f, 0.095686f, -0.134069f, -0.303419f, 0.107960f, -0.239320f, 0.055254f, 0.104301f, 0.044981f, 0.157734f, 0.050079f, -0.192970f, 0.171989f, 0.217312f, -0.098652f, -0.021433f, 0.012178f, 0.151155f, -0.063868f, 0.262754f, 0.036443f, 0.113420f, 0.263449f, -0.101989f, -0.176645f, 0.142762f, 0.241698f, 0.016221f, -0.121750f, -0.275286f, -0.232532f, -0.202360f, 0.249178f, 0.224043f, 0.270240f, 0.286998f, -0.250382f, -0.069111f, -0.339218f, -0.108547f, 0.305333f, 0.272983f, -0.051081f, -0.182739f, -0.077606f, 0.183850f, -0.231575f, -0.032856f, 0.240300f, -0.206592f, 0.090530f, 0.251692f, 0.093462f, -0.009046f, -0.261570f, -0.004776f, -0.209528f, 0.166421f, -0.277507f, 0.237918f, 0.306439f, 0.023491f, 0.223884f, 0.191457f, -0.242811f, -0.175041f, -0.274884f, 0.134942f, 0.132601f, 0.012396f, 0.296444f, 0.216168f, 0.175604f, 0.192557f, 0.238635f, 0.254815f, -0.114821f, 0.034446f, 0.215301f, 0.164232f, 0.154057f, 0.034678f, -0.150525f, -0.312759f, 0.097545f, -0.227631f, 0.088970f, -0.214370f, -0.066882f, 0.039938f, -0.004442f, -0.282450f, -0.048444f, 0.302988f, 0.040263f, -0.063955f, -0.213305f, 0.028993f, 0.047947f, 0.039867f, -0.062690f, -0.287454f, 0.100835f, 0.209478f, 0.179619f, 0.221447f, 0.119677f, 0.224223f, -0.259985f, 0.208615f, 0.240437f, 0.130872f, -0.187315f, 0.244292f, -0.150074f, -0.237407f, -0.090030f, 0.026581f, 0.136146f, 0.001301f, -0.103963f, -0.169423f, 0.269079f, -0.040719f, -0.020548f, -0.147391f, 0.260506f, 0.218801f, -0.310408f, -0.108581f, -0.046676f, -0.248606f, 0.287129f, -0.185086f, -0.084567f, 0.041299f, 0.176954f, 0.105970f, -0.322711f, 0.178485f, 0.198482f, -0.121407f, 0.078115f, -0.002327f, -0.170990f, 0.090078f, -0.094622f, -0.251590f, -0.162576f, -0.254835f, 0.149321f, -0.164405f, -0.234686f, 0.046909f, -0.135794f, -0.123643f, -0.028239f, 0.120240f, -0.124839f, 0.131709f, -0.237708f, -0.094086f, 0.079307f, -0.148100f, -0.151537f, -0.210923f, -0.002258f, -0.286381f, -0.218274f, -0.277502f, -0.234582f, 0.272110f, 0.303149f, -0.219268f, 0.310372f, -0.299484f, -0.138553f, -0.283747f, 0.163510f, -0.268186f, -0.292207f, -0.055696f, -0.097987f, 0.111707f, 0.298911f, -0.163347f, -0.030101f, 0.102603f, -0.142141f, -0.091928f, -0.140322f, -0.223565f, 0.066155f, 0.058010f, -0.065089f, -0.285222f, -0.201442f, -0.188927f, 0.214631f, 0.305241f, 0.251858f, -0.137233f, -0.198558f, -0.189615f, -0.077636f, -0.236599f, -0.262443f, -0.253663f, 0.285506f, -0.233759f, 0.036858f, -0.201295f, 0.264709f, 0.301985f, -0.255512f, 0.229752f, 0.253677f, 0.137383f, 0.092538f, -0.116877f, -0.305062f, -0.171761f, 0.276525f, 0.323008f, -0.261951f, -0.140748f, -0.065717f, -0.023418f, 0.168226f, 0.297025f, 0.075309f, 0.232512f, 0.194166f, -0.047839f, 0.053412f, -0.315949f, -0.309764f, -0.144397f, -0.308917f, -0.012554f, -0.298216f, 0.215825f, -0.223697f, 0.021651f, -0.267315f, -0.123146f, 0.237193f, 0.092697f, -0.306114f, -0.037554f, 0.006238f, 0.223986f, -0.250354f, 0.177146f, 0.101524f, -0.088163f, -0.291647f, 0.174129f, -0.041103f, 0.309720f, 0.202817f, 0.042694f, 0.201332f, 0.015365f, 0.080405f, -0.234155f, 0.206335f, 0.028730f, 0.206917f, 0.277871f, -0.235923f, 0.073156f, -0.314577f, -0.101005f, 0.012061f, -0.061955f, 0.034881f, -0.025691f, 0.119672f, 0.282354f, -0.166558f, -0.104601f, 0.157592f, 0.088366f, 0.009956f, -0.004719f, -0.209918f, 0.249454f, 0.123979f, 0.113827f, -0.029191f, 0.142500f, 0.079286f, -0.014106f, 0.133564f, 0.018233f, 0.265078f, 0.146598f, -0.192235f, -0.268396f, 0.263534f, -0.026653f, -0.145199f, -0.019858f, -0.201302f, -0.117116f, 0.209720f, 0.129227f, -0.194356f, -0.020094f, -0.009954f, -0.271664f, -0.165770f, 0.254771f, 0.168210f, -0.216306f, 0.065284f, 0.062314f, -0.025484f, -0.045092f, -0.157848f, 0.202378f, 0.257875f, 0.090073f, -0.210557f, 0.019511f, -0.229497f, -0.177540f, 0.043927f, -0.035858f, 0.058380f, -0.091948f, -0.163306f, -0.089448f, 0.221708f, -0.078871f, -0.014619f, -0.180861f, -0.313847f, -0.315028f, -0.047061f, -0.021335f, 0.187197f, 0.137432f, -0.083896f, 0.214472f, 0.213873f, -0.015596f, 0.270531f, 0.139881f, -0.103916f, -0.184508f, -0.223008f, -0.096462f, -0.178033f, -0.117942f, -0.170047f, -0.193640f, 0.258740f, 0.168101f, 0.295698f, 0.122616f, 0.052439f, 0.292095f, 0.164890f, -0.150696f, 0.101545f, 0.111345f, 0.127998f, -0.140859f, 0.197281f, -0.249666f, -0.265480f, -0.114645f, -0.209949f, 0.228293f, -0.076450f, -0.107519f };
static const float cuore_layer_4_biases[30] = { -0.029200f, -0.034729f, -0.005065f, 0.019880f, 0.000000f, 0.017154f, -0.009477f, -0.010031f, -0.011752f, -0.011468f, 0.009920f, 0.018401f, 0.027678f, 0.000000f, -0.020218f, -0.000603f, 0.015994f, -0.005660f, 0.003748f, 0.013504f, -0.001697f, 0.008789f, -0.010818f, 0.000000f, 0.006283f, 0.012365f, 0.024156f, -0.007552f, -0.011034f, 0.000000f };
static const float cuore_layer_4_weights[900] = { -0.092179f, -0.180952f, 0.049190f, 0.305681f, -0.018554f, 0.159914f, -0.165785f, -0.101043f, 0.242404f, 0.293128f, -0.230279f, -0.009396f, -0.303893f, -0.244521f, -0.038021f, 0.000874f, -0.000675f, -0.269864f, 0.208328f, 0.045334f, -0.215237f, 0.246217f, 0.091655f, 0.040484f, -0.115941f, -0.009419f, 0.176809f, 0.257742f, 0.260975f, -0.240173f, -0.195212f, -0.234532f, 0.005839f, -0.094286f, -0.007810f, -0.191428f, 0.098891f, 0.043991f, -0.152349f, 0.150387f, -0.136236f, -0.111571f, 0.019360f, -0.008968f, -0.300628f, -0.267757f, 0.206195f, 0.114772f, 0.236404f, 0.012331f, 0.085980f, 0.157598f, 0.220579f, -0.075426f, -0.204039f, -0.287540f, 0.146471f, -0.027513f, 0.125412f, -0.145684f, -0.070163f, -0.171682f, -0.269071f, 0.254449f, 0.203547f, -0.202142f, -0.230634f, -0.102904f, 0.045147f, 0.056238f, 0.281359f, -0.146311f, 0.174370f, 0.302367f, 0.088131f, -0.218217f, 0.077465f, 0.166125f, 0.259025f, 0.053880f, 0.188459f, 0.001207f, -0.255069f, -0.101739f, 0.149115f, 0.185487f, -0.052518f, -0.243974f, -0.302464f, -0.057916f, 0.294326f, -0.246773f, 0.049412f, 0.192128f, -0.131945f, -0.026061f, 0.043208f, -0.025938f, -0.307468f, -0.313975f, 0.207243f, 0.253195f, -0.305504f, 0.171690f, 0.170284f, -0.053600f, 0.144132f, 0.020464f, 0.220766f, -0.225058f, -0.120622f, -0.172064f, -0.177827f, 0.146643f, 0.303539f, -0.005523f, -0.153796f, 0.108596f, 0.096235f, -0.187161f, -0.003594f, -0.231625f, 0.183920f, 0.017348f, 0.309875f, 0.148702f, -0.144979f, -0.275009f, -0.228727f, 0.212761f, 0.220794f, 0.315305f, 0.082579f, 0.083728f, -0.293915f, 0.160239f, -0.112394f, -0.222966f, 0.229643f, -0.234221f, 0.105118f, -0.151876f, -0.275790f, 0.165196f, 0.301921f, -0.188180f, -0.302583f, 0.070701f, -0.106097f, 0.289667f, 0.272352f, 0.028381f, -0.166482f, 0.262615f, -0.250060f, -0.207597f, -0.228241f, -0.040416f, -0.068368f, 0.303005f, -0.156787f, -0.024450f, 0.172355f, -0.170361f, 0.210928f, 0.297369f, -0.309232f, -0.066583f, -0.256041f, 0.257103f, 0.199962f, 0.269720f, 0.031857f, 0.106373f, -0.019502f, 0.070850f, -0.181123f, 0.162802f, 0.155492f, -0.276302f, 0.263969f, 0.140399f, -0.224573f, -0.199304f, 0.266759f, 0.283031f, -0.112951f, 0.160336f, 0.227599f, -0.018034f, 0.069896f, 0.170848f, 0.227162f, -0.295900f, -0.022814f, 0.086900f, -0.073236f, 0.027722f, 0.050338f, -0.206936f, -0.042964f, -0.228887f, 0.012448f, 0.162241f, 0.211870f, -0.036574f, -0.047164f, 0.261823f, -0.193296f, -0.217513f, 0.292845f, 0.126392f, 0.043501f, 0.177286f, 0.294398f, -0.194867f, 0.119561f, 0.261541f, -0.310143f, -0.302742f, -0.270055f, 0.203267f, -0.024980f, -0.162355f, -0.175297f, 0.197455f, -0.200661f, -0.072769f, 0.143448f, 0.225522f, 0.075405f, 0.287099f, 0.288297f, 0.184842f, -0.024493f, -0.241569f, 0.267276f, -0.311400f, 0.121816f, -0.126060f, -0.112572f, -0.058681f, 0.081098f, -0.162426f, -0.106915f, -0.137617f, 0.001950f, -0.085823f, 0.018756f, 0.021587f, 0.163123f, -0.132155f, 0.140933f, 0.296996f, -0.032858f, -0.051629f, 0.116978f, -0.003035f, 0.173337f, 0.098166f, -0.296260f, 0.022642f, 0.334135f, -0.078125f, 0.155920f, 0.208703f, -0.293716f, 0.288807f, 0.289304f, 0.016634f, -0.059254f, 0.001742f, 0.133440f, -0.280558f, 0.298063f, -0.150719f, 0.132305f, -0.054344f, -0.211178f, -0.211226f, -0.314338f, 0.070848f, 0.310648f, 0.093777f, 0.004350f, -0.098423f, -0.146026f, 0.049433f, -0.187078f, 0.117031f, 0.182285f, -0.273375f, 0.077469f, -0.168910f, -0.100821f, -0.193932f, 0.022029f, 0.051947f, -0.116667f, -0.148856f, 0.042770f, -0.324356f, 0.291771f, -0.278309f, -0.213359f, 0.244908f, -0.043126f, -0.114337f, 0.141827f, 0.236152f, -0.254885f, -0.270931f, -0.140076f, 0.109539f, 0.142096f, 0.125396f, -0.103820f, 0.204433f, -0.281141f, -0.302093f, -0.138325f, 0.267986f, 0.275063f, -0.257099f, 0.262056f, 0.202378f, -0.120850f, -0.084068f, -0.024503f, -0.269115f, -0.102126f, -0.295191f, 0.004421f, -0.033669f, 0.068936f, -0.291614f, -0.109963f, -0.218341f, -0.171043f, -0.137943f, -0.193205f, 0.275240f, 0.167368f, 0.171931f, 0.097742f, 0.298307f, -0.294643f, 0.154386f, -0.044808f, 0.298189f, 0.083174f, -0.115265f, 0.315856f, -0.179145f, 0.058562f, 0.072967f, -0.284342f, 0.313954f, -0.273420f, -0.183001f, -0.100724f, -0.115637f, 0.245257f, -0.066323f, 0.045893f, 0.260450f, 0.254488f, -0.029169f, 0.278733f, -0.115824f, -0.196916f, 0.074585f, -0.251535f, -0.185592f, 0.105053f, 0.220694f, 0.128980f, 0.031168f, 0.038263f, -0.067769f, 0.004143f, 0.288871f, 0.118570f, 0.292504f, 0.020629f, -0.071774f, 0.267471f, -0.273117f, 0.007616f, -0.160160f, -0.174784f, -0.290390f, -0.239083f, 0.015354f, 0.239053f, -0.077780f, -0.022428f, 0.260733f, 0.089768f, 0.268128f, 0.075259f, -0.200123f, -0.112376f, -0.189784f, 0.191662f, -0.198011f, 0.260720f, 0.019325f, 0.196601f, 0.297854f, -0.144047f, 0.300942f, 0.221004f, 0.126731f, 0.113074f, 0.054333f, 0.211791f, 0.124680f, 0.281135f, -0.316192f, 0.201242f, -0.280117f, 0.247130f, -0.237266f, -0.060677f, 0.003224f, 0.010089f, 0.265093f, -0.084738f, 0.177768f, 0.125148f, 0.166775f, -0.210329f, -0.184900f, 0.298925f, 0.251280f, 0.104939f, 0.169844f, -0.072725f, -0.054873f, 0.239317f, -0.111424f, -0.027604f, -0.272647f, -0.271989f, 0.176004f, 0.205637f, 0.052280f, 0.227642f, -0.058662f, -0.016259f, 0.124904f, 0.136668f, 0.061558f, -0.270605f, 0.202637f, 0.143570f, -0.106644f, 0.289675f, 0.234080f, -0.280804f, 0.024675f, 0.139515f, 0.046337f, 0.248519f, 0.206338f, 0.123275f, 0.076304f, -0.203606f, 0.299049f, -0.018867f, -0.192923f, -0.080474f, -0.042210f, -0.104215f, -0.144657f, -0.138281f, -0.038914f, 0.175066f, -0.064249f, -0.090705f, 0.263816f, -0.300761f, 0.079526f, -0.314982f, 0.312050f, -0.087323f, 0.034563f, -0.126383f, -0.001237f, 0.211356f, -0.044636f, -0.056678f, -0.225308f, -0.135420f, -0.127090f, 0.272893f, 0.279150f, 0.167161f, -0.035650f, -0.083281f, 0.113073f, -0.311618f, -0.114326f, 0.174745f, -0.089820f, 0.091671f, -0.236632f, -0.052282f, 0.192410f, 0.234194f, -0.084919f, 0.264943f, 0.097322f, -0.289474f, -0.133529f, -0.087749f, 0.253013f, -0.073073f, -0.194413f, 0.098509f, 0.280166f, 0.086455f, 0.019334f, 0.062490f, 0.122041f, -0.058711f, 0.256145f, 0.181811f, -0.148262f, -0.090350f, -0.031887f, 0.294883f, -0.006157f, 0.230970f, 0.033368f, -0.135520f, 0.229778f, -0.165923f, 0.049705f, -0.330061f, 0.105534f, 0.057039f, -0.266426f, 0.126647f, 0.278802f, -0.046143f, 0.056020f, 0.279522f, 0.100631f, 0.120356f, 0.221134f, 0.058039f, -0.088583f, 0.173292f, -0.004848f, -0.044450f, -0.276680f, 0.143592f, -0.155146f, -0.264946f, -0.174051f, -0.035875f, 0.198856f, 0.221690f, 0.151661f, 0.012479f, 0.051368f, 0.151992f, -0.271719f, -0.045964f, 0.076236f, 0.305861f, -0.120055f, -0.170817f, 0.262283f, -0.235947f, -0.120716f, -0.246324f, -0.274302f, 0.292850f, 0.277819f, 0.323271f, -0.216222f, 0.144373f, 0.300460f, 0.241601f, -0.019478f, -0.190951f, 0.320750f, 0.072135f, -0.095989f, -0.240152f, -0.223809f, -0.149709f, 0.296435f, 0.213060f, -0.323414f, 0.095256f, 0.004630f, 0.180476f, 0.173445f, 0.188357f, -0.209102f, 0.097786f, 0.275262f, 0.128127f, -0.208647f, -0.184019f, -0.273583f, -0.159266f, 0.144030f, -0.061462f, -0.056731f, -0.026773f, 0.059296f, -0.186071f, 0.096588f, -0.176124f, -0.249138f, 0.135364f, -0.253192f, -0.294679f, -0.015452f, 0.317689f, -0.099048f, 0.017151f, 0.280657f, 0.061056f, 0.205071f, -0.295446f, -0.214147f, -0.058222f, 0.151738f, -0.122792f, -0.058038f, 0.283291f, -0.092143f, 0.192537f, 0.030053f, 0.128970f, 0.312858f, 0.041437f, 0.109122f, -0.221975f, -0.119889f, 0.216210f, 0.106251f, -0.217510f, 0.262816f, 0.203905f, -0.205676f, 0.252354f, -0.119191f, 0.239708f, -0.166994f, -0.089860f, -0.044575f, -0.134510f, 0.163839f, -0.021301f, -0.150246f, -0.018798f, -0.161246f, 0.068201f, -0.125277f, 0.272788f, -0.218134f, 0.035756f, -0.174273f, 0.151759f, -0.007622f, 0.207761f, -0.170370f, -0.099179f, 0.097800f, 0.114173f, 0.077274f, -0.172704f, -0.013780f, -0.286681f, 0.195010f, 0.219405f, 0.042632f, -0.189685f, -0.024387f, -0.166341f, 0.183340f, 0.061455f, 0.199696f, -0.219083f, -0.170848f, -0.065279f, 0.131293f, 0.313819f, -0.203089f, 0.151323f, 0.199092f, -0.044397f, 0.193180f, -0.222189f, 0.081956f, -0.244643f, 0.070605f, -0.019289f, 0.080294f, 0.269220f, -0.235633f, -0.224296f, 0.266891f, 0.003476f, -0.291403f, 0.014092f, 0.070742f, 0.096585f, -0.238613f, 0.162777f, 0.181391f, 0.123742f, 0.045705f, 0.114404f, 0.012792f, -0.145713f, -0.067200f, 0.110409f, 0.196035f, 0.107454f, -0.185685f, -0.172396f, 0.297554f, -0.184063f, 0.209285f, -0.051168f, 0.028655f, -0.342150f, -0.323642f, -0.287115f, -0.027397f, 0.235205f, 0.221345f, 0.006051f, 0.274643f, -0.210336f, -0.314263f, 0.270773f, -0.276562f, -0.159069f, 0.275346f, -0.123432f, -0.206701f, 0.265795f, -0.108632f, -0.124616f, 0.274859f, -0.078721f, 0.104574f, 0.237499f, -0.148235f, -0.207511f, 0.030583f, 0.010239f, 0.123395f, 0.034529f, -0.179391f, 0.004216f, 0.041476f, 0.163042f, 0.332432f, 0.016432f, 0.094849f, 0.139244f, -0.005962f, 0.282288f, -0.220261f, -0.138830f, 0.032156f, -0.142152f, -0.062531f, 0.224178f, 0.059485f, -0.292322f, -0.218891f, -0.250663f, 0.271591f, 0.172010f, -0.285324f, 0.221826f, 0.313336f, 0.096930f, 0.220399f, 0.156060f, -0.285251f, -0.158506f, 0.079356f, -0.295850f, 0.191887f, -0.249488f, 0.236926f, 0.202803f, -0.158259f, -0.235966f, 0.293411f, -0.018898f, -0.292131f, -0.244912f, -0.069492f, 0.102379f, 0.041145f, 0.008029f, 0.150646f, -0.213431f, -0.110240f, 0.054886f, 0.014263f, -0.014854f, 0.066978f, -0.132298f, 0.170836f, -0.139358f, 0.010029f, 0.139663f, -0.097392f, -0.244514f, 0.188017f, 0.066766f, 0.194241f, 0.127984f, 0.026284f, 0.182186f, -0.143889f, -0.250709f, 0.157682f, 0.105433f, -0.131618f, -0.212403f, 0.302688f, -0.161989f, 0.092883f, -0.122420f, -0.229291f, 0.249307f, 0.030579f, 0.150880f, -0.040023f, 0.087025f, 0.262094f, 0.150486f, 0.235527f, 0.059214f, -0.010068f, 0.173354f, -0.004672f, 0.198233f, 0.010664f, 0.253407f, -0.208209f, -0.237631f, 0.116628f, 0.034557f, -0.043028f, 0.050220f, 0.165937f, -0.261852f, -0.163857f, -0.035389f, 0.276254f, 0.307552f, 0.032119f, -0.019317f, 0.202841f, 0.151230f, 0.097820f, 0.108548f, -0.218918f, 0.298237f, -0.257031f, 0.051944f, 0.062752f, -0.088531f, -0.248042f, -0.105548f, -0.162087f, -0.235302f, -0.260472f, -0.280651f, 0.126456f, -0.015962f, 0.112087f, -0.294200f, -0.290708f, -0.049865f, 0.032082f, 0.161712f, 0.201998f, 0.138199f, -0.294631f, -0.030531f, -0.039548f, -0.042683f, 0.302278f };
static const float cuore_layer_5_biases[30] = { 0.011251f, 0.018159f, -0.021451f, 0.023849f, -0.001686f, 0.037576f, 0.009351f, -0.006450f, -0.000261f, 0.001628f, 0.000000f, 0.000000f, 0.024576f, 0.000000f, -0.002805f, -0.013613f, 0.000000f, -0.012969f, 0.000000f, 0.010637f, -0.022030f, 0.000000f, 0.018724f, 0.008711f, -0.001895f, -0.014907f, -0.022136f, -0.003780f, 0.021600f, 0.000000f };
static const float cuore_layer_5_weights[900] = { -0.098919f, 0.262584f, 0.286332f, 0.037782f, -0.065468f, -0.127865f, -0.270489f, -0.022571f, -0.049961f, -0.319687f, -0.209439f, 0.274996f, -0.042612f, -0.307608f, -0.211957f, 0.297819f, -0.143472f, 0.099218f, -0.292272f, 0.190597f, -0.252631f, -0.297067f, -0.027780f, -0.228837f, -0.270180f, 0.219843f, -0.082925f, 0.082739f, 0.191156f, 0.289348f, -0.046592f, 0.123217f, 0.018352f, 0.178024f, -0.326890f, -0.052017f, -0.114961f, 0.279756f, -0.100031f, -0.149364f, 0.314164f, -0.164815f, 0.161102f, 0.158791f, -0.009476f, 0.117929f, 0.258444f, 0.066803f, 0.037980f, -0.214772f, 0.166702f, -0.125673f, 0.102075f, -0.223657f, 0.182411f, 0.166255f, 0.065353f, 0.194571f, -0.072885f, -0.093776f, 0.169925f, -0.263446f, 0.202837f, 0.255725f, 0.083851f, -0.036554f, 0.132643f, -0.038213f, 0.166239f, 0.173337f, -0.226175f, -0.268107f, 0.158500f, -0.048175f, -0.218919f, -0.226503f, 0.110624f, -0.071592f, -0.251575f, -0.102765f, -0.083106f, -0.016127f, 0.073150f, -0.256994f, 0.037379f, 0.200900f, 0.061515f, 0.310278f, -0.311818f, 0.294436f, 0.132002f, 0.244443f, -0.081730f, 0.035206f, -0.265034f, 0.198830f, -0.009511f, 0.066715f, -0.155738f, -0.093458f, -0.277338f, -0.154555f, 0.052656f, 0.233716f, 0.152219f, -0.004127f, -0.142150f, 0.272300f, -0.172088f, 0.259223f, -0.309784f, -0.084426f, -0.187691f, 0.009029f, 0.333736f, 0.198487f, -0.032935f, -0.230389f, -0.014050f, 0.048722f, 0.136232f, 0.005715f, 0.058805f, 0.131327f, 0.017445f, 0.087172f, 0.023026f, 0.139108f, -0.170604f, 0.264714f, -0.086248f, 0.273476f, 0.168441f, -0.220494f, 0.014318f, 0.027673f, 0.295628f, -0.201123f, -0.243612f, 0.191768f, 0.031607f, -0.144947f, 0.145706f, 0.236029f, -0.275030f, -0.241694f, 0.162290f, 0.159758f, -0.205408f, -0.102853f, 0.177727f, -0.131193f, 0.097307f, 0.277406f, -0.228221f, 0.185031f, -0.058715f, 0.196460f, 0.317734f, 0.177595f, 0.015923f, -0.060360f, -0.114992f, -0.311254f, -0.300667f, -0.060835f, -0.137276f, -0.176808f, 0.166073f, -0.070418f, 0.122078f, 0.164406f, 0.273652f, 0.039930f, 0.179464f, 0.168500f, -0.047916f, -0.171659f, -0.062720f, -0.165622f, -0.190445f, 0.247371f, -0.013719f, -0.301594f, -0.267979f, -0.236805f, 0.198261f, 0.187965f, 0.260538f, 0.122944f, 0.066944f, -0.298466f, 0.163628f, 0.083006f, 0.169798f, -0.276704f, 0.042691f, -0.212811f, 0.010933f, -0.259331f, -0.168270f, 0.133993f, -0.187676f, -0.036806f, -0.251758f, -0.243402f, -0.205347f, 0.055447f, 0.237825f, -0.230424f, -0.017762f, -0.276350f, 0.086324f, -0.165328f, -0.285099f, -0.221143f, 0.170929f, 0.163959f, 0.223016f, 0.039711f, 0.211949f, -0.208204f, -0.049964f, -0.074721f, -0.291801f, -0.185128f, -0.128554f, -0.189408f, -0.041847f, -0.108044f, 0.222066f, 0.036680f, 0.133722f, 0.217309f, -0.271750f, 0.084578f, -0.087097f, -0.048571f, -0.097505f, 0.038598f, -0.281579f, 0.013986f, 0.107741f, -0.265172f, 0.130454f, -0.236287f, 0.210349f, -0.227275f, 0.318904f, -0.168613f, -0.158892f, 0.231097f, 0.062863f, -0.282856f, -0.176167f, -0.236440f, 0.294517f, -0.207510f, -0.304688f, -0.262455f, -0.276543f, -0.215182f, -0.229035f, 0.294617f, 0.038861f, 0.014297f, -0.290140f, 0.092182f, -0.025424f, 0.217317f, 0.151566f, 0.059740f, -0.248680f, 0.036899f, 0.209083f, 0.156788f, 0.040778f, 0.233313f, -0.217704f, 0.054670f, 0.093668f, -0.308338f, -0.083844f, -0.031336f, -0.192242f, 0.242600f, -0.085882f, 0.116015f, 0.027265f, -0.155255f, 0.279069f, 0.108380f, -0.303914f, 0.097096f, 0.244336f, 0.203169f, 0.081494f, 0.301076f, 0.025010f, 0.232262f, -0.041047f, 0.267893f, -0.361807f, 0.017728f, -0.085623f, 0.177515f, -0.195143f, 0.180321f, -0.255976f, 0.237914f, 0.003397f, -0.255426f, -0.158025f, 0.296839f, 0.321997f, -0.030817f, 0.217172f, -0.123644f, -0.138534f, -0.208197f, 0.222643f, 0.167957f, 0.214444f, 0.239220f, -0.133409f, -0.239895f, -0.311395f, 0.246977f, 0.303401f, 0.023912f, 0.146008f, -0.076658f, 0.170367f, -0.177015f, -0.035971f, -0.103529f, 0.009172f, -0.259502f, 0.171818f, 0.187742f, 0.192422f, 0.194146f, 0.217788f, -0.140901f, -0.282370f, -0.046945f, -0.045651f, 0.011532f, -0.184455f, -0.152012f, 0.196831f, -0.031216f, 0.320831f, 0.283303f, 0.022712f, 0.141891f, 0.237892f, 0.271265f, 0.237709f, 0.217074f, 0.211225f, 0.164650f, 0.020878f, 0.253345f, 0.130016f, 0.280018f, 0.185183f, -0.188870f, -0.000937f, 0.279232f, -0.172917f, 0.163162f, 0.178190f, -0.043737f, 0.076331f, 0.189664f, 0.201539f, -0.240860f, 0.259822f, 0.169152f, 0.210097f, -0.038933f, -0.141187f, 0.260270f, -0.300592f, 0.240791f, -0.207517f, 0.264393f, -0.038102f, -0.289515f, 0.258794f, 0.307706f, -0.276170f, 0.079359f, 0.301868f, -0.278616f, -0.137948f, -0.181102f, 0.218819f, -0.105392f, -0.166842f, -0.248027f, -0.131747f, -0.103942f, -0.239508f, -0.020594f, 0.057330f, -0.301688f, -0.235908f, -0.309915f, -0.246341f, -0.270007f, 0.053783f, -0.153821f, -0.126610f, -0.040673f, 0.243184f, 0.312344f, 0.206930f, -0.277405f, -0.047531f, 0.006721f, -0.155265f, 0.205560f, -0.019567f, -0.208638f, -0.153961f, 0.201643f, -0.181764f, 0.190356f, 0.050240f, -0.308876f, -0.003753f, 0.250727f, 0.243250f, 0.132424f, 0.140764f, -0.125304f, -0.039759f, 0.222130f, -0.233446f, -0.121885f, -0.211228f, 0.045300f, 0.315989f, -0.239217f, 0.122036f, -0.238689f, -0.143990f, -0.257238f, -0.102057f, 0.294855f, -0.178289f, -0.115420f, 0.095909f, -0.002113f, 0.210249f, 0.259166f, -0.091911f, -0.268462f, -0.222817f, 0.057666f, 0.183390f, 0.209854f, 0.077994f, -0.279895f, 0.208711f, 0.173781f, 0.032089f, 0.217576f, 0.055356f, -0.297107f, 0.141064f, 0.026522f, 0.207953f, -0.202667f, 0.283006f, -0.076475f, 0.194829f, -0.014867f, 0.320418f, 0.180497f, 0.027591f, 0.141728f, -0.053310f, -0.064539f, -0.200366f, -0.030058f, 0.093409f, 0.170208f, -0.209246f, 0.106639f, -0.008200f, -0.078790f, 0.181658f, -0.152849f, -0.111192f, 0.091425f, 0.224839f, 0.120062f, -0.251932f, 0.238869f, 0.231623f, 0.032250f, 0.153314f, 0.108010f, -0.112697f, -0.134588f, 0.076487f, -0.155741f, -0.174474f, -0.012448f, 0.007664f, -0.025541f, 0.210121f, -0.080768f, -0.205053f, 0.325910f, 0.289326f, -0.304125f, -0.142819f, -0.088344f, -0.227671f, -0.213042f, -0.170848f, 0.096035f, -0.261907f, 0.139663f, -0.313255f, -0.171063f, -0.327574f, -0.113219f, -0.147609f, 0.007418f, 0.157704f, 0.124379f, -0.319915f, -0.157022f, -0.103427f, -0.158335f, -0.218349f, 0.101259f, -0.254681f, 0.164900f, 0.215387f, 0.348600f, 0.213332f, -0.059101f, -0.151719f, 0.285998f, -0.088164f, -0.214766f, 0.005256f, -0.110868f, 0.269084f, -0.138681f, 0.084986f, 0.006763f, -0.190013f, -0.190283f, -0.046553f, 0.036397f, -0.223496f, -0.011390f, 0.000053f, 0.150453f, -0.122399f, -0.220561f, 0.366049f, -0.040595f, 0.145499f, 0.248172f, -0.213947f, 0.214952f, 0.260124f, 0.179719f, 0.093080f, -0.271646f, -0.260259f, 0.311027f, 0.025416f, -0.241373f, -0.003790f, -0.023729f, 0.153797f, -0.108207f, 0.087609f, -0.292324f, -0.209873f, 0.001726f, -0.161820f, -0.245517f, -0.112504f, 0.153984f, 0.000201f, -0.215181f, 0.115043f, 0.049978f, 0.135434f, -0.234999f, 0.253878f, 0.264636f, -0.112590f, 0.175617f, 0.308130f, 0.273953f, 0.123574f, -0.019228f, 0.170707f, -0.112922f, 0.152014f, 0.111579f, -0.009011f, 0.000830f, -0.278730f, -0.280146f, 0.180035f, 0.237724f, -0.045110f, 0.043028f, 0.164491f, 0.255028f, -0.126579f, 0.177340f, 0.103101f, -0.268976f, -0.247564f, 0.107963f, 0.070139f, 0.035214f, -0.275157f, -0.221779f, 0.169941f, -0.012738f, 0.155314f, -0.041092f, 0.153792f, 0.046262f, -0.217181f, 0.056091f, 0.055121f, -0.192423f, 0.214341f, -0.016407f, 0.250314f, 0.256092f, 0.012481f, -0.063704f, 0.257253f, 0.309928f, 0.209505f, -0.108503f, 0.085979f, 0.249495f, 0.062080f, -0.052704f, -0.317279f, 0.141372f, -0.029074f, -0.161705f, 0.281254f, -0.245094f, 0.107191f, -0.292353f, -0.066301f, -0.230527f, -0.253383f, 0.335663f, -0.036764f, 0.166240f, -0.269966f, 0.205182f, -0.169439f, 0.080399f, -0.297844f, 0.016194f, -0.151455f, 0.222365f, -0.258189f, 0.057382f, 0.237462f, -0.038510f, 0.120647f, -0.160414f, 0.249773f, 0.013888f, 0.200514f, 0.154801f, -0.008064f, -0.052031f, 0.091355f, -0.199721f, -0.274879f, -0.166986f, -0.255047f, -0.180310f, 0.089677f, 0.054080f, 0.080059f, 0.004756f, -0.301773f, 0.137533f, -0.114541f, 0.233912f, 0.241899f, 0.170067f, 0.181906f, -0.112909f, 0.283879f, 0.249799f, -0.137375f, 0.176913f, 0.063281f, -0.086214f, 0.092490f, 0.250945f, -0.087033f, 0.135357f, 0.184675f, 0.220836f, 0.025317f, 0.103462f, 0.106647f, -0.128557f, -0.011747f, 0.290346f, 0.245659f, -0.056417f, 0.061722f, -0.074417f, 0.025977f, 0.289107f, -0.050276f, 0.175978f, 0.167759f, 0.160266f, -0.299053f, 0.011662f, -0.130582f, 0.039929f, -0.272697f, -0.019355f, 0.173056f, 0.297888f, -0.180974f, 0.057842f, -0.251242f, 0.005328f, 0.249515f, 0.148229f, 0.050795f, -0.044465f, 0.062379f, -0.016743f, -0.169747f, -0.121251f, -0.005134f, -0.106217f, -0.009866f, 0.269723f, 0.146450f, -0.064442f, 0.287364f, -0.085045f, 0.258134f, -0.081749f, -0.190541f, 0.061932f, 0.106011f, 0.083952f, 0.234519f, 0.078193f, 0.155817f, 0.241562f, 0.208999f, 0.034757f, -0.264075f, -0.026811f, 0.127761f, -0.110500f, 0.011689f, -0.203150f, -0.011889f, 0.117785f, -0.217076f, 0.058677f, -0.091949f, 0.009372f, -0.229992f, 0.204423f, -0.179487f, 0.120695f, 0.120995f, 0.047534f, 0.226165f, -0.032541f, -0.173513f, 0.168284f, -0.095467f, -0.138225f, 0.086026f, -0.285930f, 0.067464f, 0.274825f, 0.190360f, -0.171062f, -0.307930f, 0.198137f, -0.040029f, 0.154888f, -0.071513f, -0.215807f, 0.251955f, 0.072022f, -0.082988f, -0.238216f, 0.223238f, 0.252429f, -0.289213f, 0.124059f, -0.016217f, -0.113692f, 0.293758f, 0.120157f, 0.289458f, 0.177109f, 0.029776f, -0.180218f, -0.039587f, -0.006713f, 0.123887f, 0.159730f, 0.293285f, 0.001473f, 0.011718f, 0.062122f, 0.085796f, -0.254738f, -0.123181f, -0.140856f, -0.112932f, 0.064661f, 0.157541f, -0.272341f, -0.221745f, -0.286082f, -0.230854f, -0.045259f, -0.008124f, -0.190802f, -0.061380f, 0.290415f, -0.028815f, 0.093700f, 0.067403f, -0.193763f, -0.059423f, -0.004008f, -0.048144f, -0.164279f, 0.139488f, 0.261856f, -0.134985f, 0.004943f, 0.205086f, 0.230527f, 0.241250f, 0.266991f, -0.306841f, -0.160766f, 0.086496f, -0.045844f, 0.044921f, 0.141276f, -0.148557f, -0.197069f, -0.234724f, 0.078550f, -0.148047f, 0.040241f, -0.245802f, 0.070500f, -0.151672f, -0.197379f, 0.021974f, 0.215759f, 0.133582f, -0.285986f, -0.051856f, 0.197818f, 0.277763f, 0.176182f, 0.052921f, -0.169904f, 0.234983f, 0.280368f, -0.280171f, -0.111787f, 0.063055f, -0.017355f };
static const float cuore_layer_6_biases[30] = { -0.011697f, -0.037113f, 0.000000f, 0.000000f, 0.014671f, 0.002217f, 0.010384f, -0.007445f, 0.000000f, -0.012006f, 0.011914f, 0.000000f, -0.002467f, -0.004306f, 0.000000f, 0.007627f, 0.000000f, 0.008541f, 0.006533f, 0.000000f, -0.003685f, -0.007530f, -0.007036f, -0.014354f, 0.000000f, -0.015248f, -0.023043f, -0.002658f, -0.015015f, -0.009395f };
static const float cuore_layer_6_weights[900] = { -0.068865f, -0.119848f, 0.065784f, 0.025348f, 0.089575f, 0.154132f, -0.291164f, -0.038297f, -0.081052f, 0.249971f, -0.045719f, 0.296728f, -0.151053f, -0.045947f, 0.312998f, -0.061998f, -0.096412f, 0.158722f, 0.195810f, 0.040875f, -0.056630f, 0.281110f, -0.180131f, 0.044895f, 0.026277f, -0.018767f, 0.155221f, -0.164531f, 0.035111f, -0.252318f, -0.009263f, 0.033153f, 0.259505f, -0.268287f, 0.116674f, -0.063617f, -0.240940f, 0.212850f, 0.189717f, 0.272785f, 0.227409f, 0.086500f, -0.261060f, -0.083690f, 0.234958f, 0.322282f, -0.278918f, -0.046572f, -0.231961f, -0.086830f, 0.237632f, 0.260477f, 0.228783f, 0.259405f, 0.267634f, 0.019275f, 0.240103f, -0.095435f, 0.111254f, 0.263937f, -0.235161f, 0.045278f, -0.111424f, -0.265755f, 0.301623f, -0.205865f, 0.157825f, 0.119377f, -0.299366f, 0.030631f, 0.041795f, -0.038082f, -0.017095f, 0.292544f, 0.058615f, -0.266036f, -0.220618f, -0.179036f, -0.265705f, -0.093419f, -0.137217f, 0.005696f, -0.137433f, 0.178231f, -0.228859f, 0.237177f, 0.171093f, 0.200319f, -0.311591f, 0.301433f, -0.292821f, -0.180734f, -0.291061f, -0.031589f, 0.118207f, 0.077097f, 0.199275f, -0.105422f, -0.125677f, 0.079532f, 0.227726f, -0.133056f, 0.157300f, 0.036199f, -0.130140f, -0.301601f, -0.244836f, 0.274009f, -0.289230f, 0.039479f, -0.151516f, -0.260495f, 0.031388f, -0.076512f, -0.038973f, -0.124401f, -0.022933f, 0.144466f, 0.028619f, 0.138061f, -0.125173f, -0.045260f, -0.031893f, -0.219460f, 0.088578f, -0.060575f, -0.019995f, -0.156933f, 0.298364f, -0.207659f, -0.210633f, -0.197892f, -0.271343f, -0.279212f, 0.312733f, 0.210496f, 0.006452f, 0.310639f, 0.003246f, -0.271327f, -0.062304f, 0.094827f, 0.120140f, -0.001900f, 0.038932f, 0.222582f, 0.043656f, -0.069424f, 0.192113f, 0.187977f, -0.005440f, -0.186284f, -0.060379f, 0.297604f, 0.181096f, -0.102429f, -0.151093f, -0.036966f, 0.006134f, 0.185168f, 0.015307f, 0.059397f, 0.250511f, -0.054759f, -0.092251f, 0.325128f, -0.300331f, 0.200499f, 0.254983f, 0.127836f, 0.192430f, 0.180596f, -0.128516f, -0.200353f, -0.158930f, -0.245247f, 0.090984f, -0.103942f, 0.217351f, -0.019399f, 0.144513f, 0.027333f, 0.256581f, -0.236113f, -0.303677f, -0.118183f, 0.024731f, 0.066876f, 0.235828f, 0.007565f, 0.143934f, -0.106168f, 0.106101f, -0.183840f, 0.142004f, 0.340972f, -0.313408f, -0.195280f, -0.224266f, -0.084585f, 0.285693f, -0.181575f, 0.174887f, 0.239961f, 0.286611f, -0.265524f, 0.281065f, -0.251924f, 0.209632f, 0.278357f, 0.166190f, -0.217983f, -0.261818f, -0.268403f, -0.106584f, 0.291632f, -0.133942f, -0.138129f, -0.158120f, 0.325784f, -0.019800f, -0.107225f, -0.127931f, 0.221437f, -0.092853f, 0.010255f, -0.127738f, 0.243182f, -0.157701f, -0.023425f, 0.313368f, 0.100622f, -0.173457f, 0.129510f, 0.118609f, -0.040471f, -0.024476f, 0.136006f, 0.014360f, 0.254535f, 0.070695f, -0.191856f, -0.136243f, 0.193435f, 0.046843f, 0.230409f, -0.246408f, 0.260994f, 0.258782f, 0.305266f, -0.023947f, -0.232539f, 0.092716f, -0.006786f, 0.211578f, -0.138661f, -0.079978f, -0.122603f, -0.139122f, -0.292455f, 0.273244f, 0.007304f, 0.164360f, -0.067935f, 0.018245f, -0.326237f, -0.195905f, 0.047880f, -0.068058f, 0.018290f, -0.102690f, 0.041254f, -0.234860f, -0.198230f, -0.111144f, -0.156400f, 0.018341f, -0.280937f, 0.058807f, 0.194207f, -0.086153f, -0.148644f, -0.205909f, -0.033802f, -0.004619f, -0.163642f, -0.228600f, -0.070453f, 0.212218f, 0.292771f, -0.317999f, -0.163320f, 0.253934f, 0.195303f, -0.025836f, 0.285268f, 0.095433f, -0.315906f, -0.020959f, -0.237500f, -0.176492f, -0.285787f, 0.294730f, -0.158405f, -0.212143f, -0.049624f, -0.177275f, 0.183823f, -0.253885f, 0.315268f, 0.123126f, -0.039690f, -0.009924f, 0.227490f, 0.062110f, -0.141078f, 0.170897f, 0.312376f, 0.307827f, 0.157771f, -0.058542f, -0.048051f, -0.138860f, -0.164892f, -0.079408f, -0.003351f, -0.102814f, -0.193808f, -0.215959f, 0.310890f, -0.315588f, -0.119465f, -0.069907f, 0.250341f, -0.151704f, 0.229342f, 0.074710f, 0.059734f, 0.221440f, -0.190228f, -0.125838f, -0.190630f, 0.019265f, -0.058718f, -0.133814f, -0.073337f, 0.063259f, 0.126965f, -0.273790f, 0.131004f, 0.033522f, 0.147905f, 0.279977f, -0.022608f, -0.072798f, 0.238512f, -0.216940f, 0.156971f, 0.083552f, -0.157281f, 0.242830f, 0.113219f, 0.169028f, -0.179694f, 0.182630f, -0.167663f, 0.298012f, -0.240969f, -0.283943f, -0.117234f, 0.232157f, 0.133314f, -0.114344f, -0.072932f, -0.037837f, 0.244482f, 0.021267f, 0.192902f, -0.123618f, -0.271077f, 0.183076f, -0.089704f, -0.231080f, 0.287053f, -0.172088f, 0.128677f, -0.224715f, -0.110856f, -0.166650f, -0.035295f, 0.175638f, 0.154344f, 0.247546f, 0.076734f, 0.145434f, 0.157451f, -0.290338f, -0.249220f, 0.109190f, -0.214133f, -0.015266f, -0.124216f, 0.254414f, 0.111545f, 0.299592f, 0.278266f, -0.258522f, 0.163607f, -0.218979f, 0.247616f, -0.213002f, -0.226695f, -0.242222f, -0.007690f, -0.276089f, -0.239566f, 0.072824f, -0.313412f, 0.267990f, -0.068434f, 0.068274f, -0.004402f, -0.029463f, 0.106138f, 0.215606f, 0.254143f, 0.187406f, -0.205488f, -0.306411f, 0.109041f, 0.129798f, 0.015529f, 0.235053f, 0.138970f, 0.203359f, 0.070288f, -0.080921f, -0.203672f, -0.215947f, -0.130560f, 0.205576f, 0.017227f, 0.282231f, 0.257399f, 0.237897f, 0.212878f, 0.149255f, 0.296330f, 0.044752f, 0.051388f, 0.248815f, 0.224987f, 0.266355f, -0.189447f, -0.279686f, 0.091057f, -0.041713f, 0.228656f, -0.059680f, -0.167774f, -0.173633f, -0.113386f, -0.251262f, 0.008470f, 0.259869f, 0.217290f, -0.083470f, -0.121311f, 0.110143f, -0.203218f, 0.015833f, 0.168003f, -0.200003f, -0.017005f, 0.188525f, -0.338582f, -0.172213f, 0.091671f, -0.271873f, 0.111965f, 0.053862f, 0.236658f, 0.069583f, 0.274650f, 0.022229f, -0.054022f, 0.009760f, 0.182640f, 0.067102f, -0.187054f, -0.224231f, 0.109843f, -0.196680f, 0.151606f, 0.118169f, 0.254800f, -0.168239f, 0.038942f, -0.225895f, -0.004500f, 0.213564f, 0.016514f, 0.007372f, -0.012667f, 0.277188f, 0.170367f, 0.227912f, 0.182565f, 0.253709f, 0.226245f, 0.007938f, 0.119958f, -0.137890f, -0.258075f, 0.011508f, 0.019477f, 0.091866f, 0.226349f, -0.227745f, 0.263208f, -0.214367f, -0.238572f, 0.228033f, -0.052990f, 0.193317f, 0.298851f, 0.210113f, -0.294560f, 0.010564f, 0.131858f, -0.196769f, 0.069348f, -0.178810f, 0.080708f, -0.100446f, 0.063203f, -0.116735f, -0.174697f, 0.136734f, 0.046421f, -0.104089f, -0.074509f, 0.106905f, -0.302994f, 0.132403f, -0.246744f, 0.037932f, -0.200334f, 0.109275f, -0.065898f, -0.275832f, -0.177335f, 0.301412f, 0.072380f, -0.131573f, -0.065677f, -0.261939f, -0.135424f, -0.011546f, 0.103032f, 0.303106f, 0.012512f, 0.287461f, -0.273153f, -0.255119f, 0.020781f, 0.196643f, 0.203522f, 0.293477f, 0.296013f, -0.014074f, 0.247223f, -0.208551f, 0.047369f, -0.029860f, -0.272277f, 0.138380f, -0.298021f, 0.130048f, -0.085571f, 0.237791f, 0.029821f, 0.310047f, 0.090660f, 0.200589f, -0.239727f, -0.237404f, -0.190333f, 0.037112f, -0.302847f, 0.089917f, -0.250375f, -0.216993f, 0.231135f, -0.304892f, 0.000328f, 0.141246f, -0.259965f, 0.018915f, -0.148380f, 0.206397f, -0.205242f, -0.174178f, 0.173565f, -0.090237f, -0.169107f, -0.313505f, 0.156412f, 0.150875f, -0.029297f, 0.063831f, -0.090450f, -0.190371f, 0.065138f, -0.311394f, -0.183356f, 0.157749f, -0.109099f, 0.261973f, 0.280153f, -0.241167f, 0.127133f, -0.209922f, -0.262477f, -0.252421f, 0.162239f, 0.075405f, 0.182239f, -0.271245f, 0.032131f, 0.045826f, 0.145279f, 0.141722f, -0.086276f, -0.191440f, 0.125012f, 0.045574f, -0.315978f, 0.047285f, 0.076715f, 0.281716f, -0.087931f, 0.296594f, -0.239754f, -0.284278f, -0.007148f, -0.217107f, 0.136318f, 0.010537f, 0.031542f, -0.018054f, -0.130462f, -0.304170f, 0.311084f, 0.020118f, 0.205882f, -0.128919f, -0.311327f, 0.247552f, 0.185142f, -0.209658f, 0.243637f, -0.101021f, 0.034211f, -0.169440f, 0.195399f, 0.191161f, -0.166318f, 0.120186f, -0.020272f, 0.259574f, 0.091152f, -0.064886f, 0.166210f, -0.222332f, -0.084777f, 0.260595f, 0.277123f, 0.011537f, -0.004159f, -0.316541f, -0.306418f, -0.041029f, -0.237724f, -0.288311f, 0.101167f, 0.006253f, -0.210733f, -0.014497f, -0.020569f, 0.137695f, 0.260016f, 0.246655f, 0.102891f, -0.068811f, -0.246967f, 0.012231f, 0.060108f, -0.007835f, 0.041449f, 0.035722f, -0.199285f, -0.105050f, -0.207624f, -0.269386f, 0.286830f, -0.169126f, 0.040675f, 0.318193f, -0.269606f, -0.261019f, -0.258479f, -0.162839f, -0.074325f, -0.256023f, -0.184306f, -0.005958f, 0.038481f, -0.164757f, 0.009925f, -0.268039f, -0.005375f, 0.103121f, 0.004057f, 0.188744f, 0.216193f, 0.249896f, 0.298987f, -0.182684f, 0.129280f, 0.057336f, 0.021797f, 0.248613f, -0.113210f, -0.306381f, 0.146947f, -0.028111f, 0.179242f, -0.165083f, -0.173841f, 0.261767f, 0.220418f, -0.140649f, -0.026819f, -0.214455f, -0.023990f, -0.125599f, -0.076340f, 0.147423f, 0.243083f, 0.218168f, -0.196736f, -0.211033f, -0.089391f, -0.040919f, 0.272975f, 0.178188f, 0.103213f, -0.101871f, 0.036963f, 0.104234f, 0.221256f, 0.224803f, -0.323106f, 0.081446f, 0.199197f, 0.080653f, 0.197138f, 0.169881f, 0.019906f, -0.100039f, 0.000201f, -0.177716f, 0.176469f, 0.291532f, 0.218066f, 0.075569f, 0.227347f, 0.273882f, 0.055602f, 0.281543f, -0.133977f, -0.094652f, -0.025643f, -0.107733f, -0.013710f, -0.059775f, 0.190400f, -0.127657f, 0.186914f, 0.292778f, 0.245843f, -0.160522f, 0.269514f, 0.049950f, 0.250988f, 0.123027f, 0.065545f, -0.239811f, 0.040205f, -0.286542f, -0.231826f, -0.037597f, 0.244217f, -0.044918f, -0.301213f, 0.282386f, -0.121336f, -0.052883f, 0.285474f, 0.135441f, -0.282237f, -0.079086f, -0.006714f, -0.300278f, -0.237594f, -0.325386f, -0.075430f, 0.285138f, 0.282056f, -0.185099f, -0.284618f, -0.311960f, -0.160290f, -0.264867f, 0.192057f, 0.038967f, 0.224564f, 0.135077f, -0.302917f, 0.191570f, 0.262666f, 0.233181f, 0.335896f, -0.222891f, -0.239781f, -0.176720f, 0.274549f, 0.307301f, -0.235787f, -0.207206f, 0.110048f, -0.029035f, -0.135130f, -0.267098f, 0.293786f, 0.255297f, 0.020556f, -0.187769f, 0.361222f, 0.393584f, 0.279610f, -0.061438f, -0.006604f, -0.003340f, -0.208071f, -0.099866f, 0.249580f, -0.018042f, -0.185704f, 0.082185f, -0.205138f, 0.053382f, -0.296981f, -0.040886f, -0.132065f, -0.268560f, -0.213452f, 0.082693f, -0.174611f, 0.139795f, -0.304287f, 0.246548f, 0.314511f, 0.226622f, 0.267428f, 0.193067f, -0.062087f, -0.232538f, -0.060004f, 0.193015f, -0.033014f, -0.312269f, -0.111660f, -0.186908f, -0.063973f, -0.262553f, 0.114183f, 0.137955f, 0.108920f, -0.267099f, 0.042041f, -0.111526f, -0.232782f, -0.243989f, -0.181020f, 0.075408f, 0.111070f, -0.090379f, -0.312910f };
static const float cuore_layer_7_biases[30] = { -0.022587f, 0.015075f, -0.012091f, -0.049435f, 0.000000f, 0.022859f, 0.000000f, -0.010669f, 0.011385f, 0.018365f, 0.000852f, 0.000387f, -0.003117f, -0.005086f, 0.000000f, 0.016074f, -0.006330f, -0.010772f, 0.012702f, 0.016157f, -0.009480f, 0.005226f, 0.000000f, -0.001368f, -0.004115f, -0.015752f, 0.044586f, -0.021059f, 0.005979f, 0.020491f };
static const float cuore_layer_7_weights[900] = { -0.060338f, 0.022057f, 0.179843f, -0.170396f, 0.247175f, -0.139533f, -0.218658f, -0.204531f, 0.203689f, -0.222661f, -0.126147f, -0.008334f, 0.076073f, 0.294374f, -0.140186f, 0.076223f, -0.140130f, 0.266457f, 0.157034f, -0.280666f, -0.203138f, -0.101552f, 0.095435f, -0.241114f, -0.014574f, 0.172199f, -0.003282f, -0.191321f, 0.239405f, 0.044345f, 0.105703f, -0.060212f, 0.131519f, 0.253030f, -0.020038f, 0.085546f, 0.047888f, 0.136891f, 0.234997f, -0.000481f, -0.138609f, -0.202801f, 0.242645f, 0.219373f, -0.235787f, 0.167708f, -0.168098f, 0.029406f, 0.019303f, -0.239067f, -0.073626f, -0.214314f, 0.024047f, -0.133168f, 0.154960f, -0.260425f, 0.032253f, -0.062214f, -0.004905f, 0.238495f, -0.030312f, 0.100801f, 0.064266f, 0.227437f, -0.155769f, 0.308507f, -0.248735f, -0.033317f, -0.209614f, 0.070319f, -0.145336f, -0.036619f, -0.138229f, -0.148874f, -0.255850f, -0.311218f, -0.146029f, 0.262512f, 0.131332f, 0.094988f, 0.313282f, 0.129245f, 0.268054f, -0.209397f, -0.074390f, 0.083170f, 0.164348f, 0.108431f, 0.233992f, -0.246503f, 0.095559f, -0.131849f, 0.290775f, -0.145066f, -0.274636f, -0.188596f, -0.167920f, -0.001826f, -0.193898f, 0.107195f, -0.294005f, 0.211226f, 0.141147f, -0.172065f, -0.231073f, -0.070890f, -0.160681f, 0.292490f, -0.313519f, -0.034699f, 0.289990f, -0.098762f, -0.276129f, 0.035505f, -0.146806f, 0.063741f, -0.056344f, -0.210944f, 0.232654f, -0.099867f, 0.285349f, 0.213092f, 0.013007f, -0.241894f, 0.043228f, -0.299088f, 0.270332f, -0.271139f, -0.147578f, 0.138839f, 0.241443f, -0.129430f, -0.100826f, 0.212923f, 0.262168f, 0.225112f, -0.026881f, -0.217352f, 0.006005f, -0.128058f, 0.028627f, -0.038307f, -0.220536f, 0.274463f, -0.282038f, 0.035689f, 0.144854f, -0.218687f, 0.209173f, -0.138948f, 0.088374f, 0.257536f, -0.009302f, -0.266819f, 0.014139f, 0.023694f, 0.015252f, -0.028954f, 0.145760f, 0.244437f, 0.163721f, -0.020375f, 0.031969f, -0.030112f, -0.234277f, -0.079600f, 0.315872f, -0.231065f, -0.135192f, 0.166775f, 0.106215f, 0.119140f, -0.260412f, 0.326874f, 0.314206f, 0.148245f, -0.150041f, 0.174987f, 0.029002f, 0.228782f, -0.191401f, 0.018908f, 0.281934f, -0.070774f, 0.284146f, 0.138480f, -0.057672f, -0.310459f, 0.182465f, -0.097315f, -0.027997f, -0.142584f, 0.244871f, 0.315096f, 0.091116f, -0.106450f, -0.050487f, 0.255807f, 0.263716f, 0.159018f, -0.156784f, 0.191499f, -0.016605f, -0.045305f, -0.015535f, 0.278665f, 0.098165f, -0.288206f, 0.194643f, 0.206152f, -0.002210f, -0.074061f, -0.273546f, -0.296233f, -0.315506f, 0.095525f, -0.290762f, 0.275631f, 0.095826f, -0.161876f, -0.052960f, -0.148531f, -0.066715f, -0.026360f, -0.140422f, 0.060702f, -0.192164f, 0.058870f, -0.144942f, -0.155492f, 0.011367f, -0.056066f, -0.244800f, 0.130205f, 0.327658f, 0.237407f, 0.157713f, 0.114567f, -0.285487f, -0.140354f, 0.115106f, 0.186497f, -0.069030f, 0.226940f, -0.016200f, 0.257577f, -0.143259f, 0.154022f, 0.304080f, -0.288507f, 0.086823f, -0.165953f, 0.029071f, 0.195221f, 0.286679f, 0.010340f, 0.103246f, 0.294280f, 0.017163f, -0.154912f, 0.252423f, -0.174509f, 0.293497f, 0.150983f, -0.057679f, -0.045040f, 0.194460f, 0.302374f, 0.064466f, 0.044268f, -0.217637f, 0.124069f, 0.280960f, -0.331677f, -0.204848f, -0.037762f, -0.121876f, 0.318548f, 0.151011f, -0.063783f, -0.201404f, 0.234640f, -0.056631f, -0.004167f, -0.205421f, -0.279680f, 0.002387f, 0.310626f, 0.186620f, 0.218616f, -0.137647f, -0.001595f, -0.002847f, 0.080184f, 0.261635f, -0.056838f, -0.094413f, -0.091319f, 0.254340f, -0.266971f, 0.224067f, 0.293639f, -0.264943f, 0.090988f, -0.224127f, -0.146746f, 0.135861f, 0.032367f, 0.283927f, 0.291499f, -0.326485f, 0.001209f, 0.301873f, 0.235699f, -0.277618f, 0.102222f, -0.298638f, -0.131707f, 0.254668f, 0.203960f, 0.038636f, -0.170303f, -0.008973f, -0.143655f, -0.296284f, -0.298215f, 0.120986f, 0.091268f, -0.176660f, 0.346864f, 0.270362f, 0.204396f, -0.020705f, 0.112138f, 0.230945f, 0.087681f, 0.204203f, -0.192002f, -0.040339f, 0.290278f, 0.223481f, 0.183020f, 0.085349f, -0.114715f, 0.076629f, -0.214971f, -0.157366f, 0.183804f, 0.007383f, 0.287785f, -0.083908f, -0.119381f, -0.246817f, 0.141346f, -0.172531f, 0.031375f, -0.214069f, 0.032256f, -0.219134f, -0.213767f, -0.102522f, 0.246124f, -0.034197f, -0.266075f, 0.281585f, -0.268617f, -0.131954f, 0.032044f, -0.239679f, -0.208713f, 0.077354f, 0.012223f, -0.152033f, -0.295980f, -0.291826f, -0.026126f, -0.127454f, 0.242867f, 0.149333f, -0.102245f, -0.005696f, 0.303712f, -0.303663f, 0.117269f, 0.218288f, 0.149240f, -0.050533f, -0.296830f, 0.296182f, 0.310588f, -0.272130f, -0.253367f, -0.089885f, 0.270657f, 0.273274f, 0.013227f, -0.128393f, 0.296899f, 0.015440f, 0.169325f, 0.082284f, 0.126025f, 0.149886f, -0.260908f, -0.104993f, 0.235900f, -0.284710f, -0.009341f, -0.042428f, 0.101279f, -0.162085f, 0.149199f, -0.235810f, -0.060292f, -0.240109f, -0.026008f, -0.104351f, 0.149668f, -0.182603f, -0.153769f, 0.098317f, 0.172233f, 0.021252f, -0.158413f, 0.287104f, 0.171890f, 0.227721f, 0.154920f, 0.303781f, 0.068215f, -0.206174f, 0.263869f, 0.004302f, -0.068353f, 0.037392f, 0.041595f, -0.070196f, 0.141439f, 0.067062f, -0.190423f, 0.059836f, 0.058309f, 0.153983f, 0.069236f, 0.119099f, -0.192085f, -0.047112f, 0.125232f, 0.285003f, -0.206108f, 0.105115f, 0.143946f, -0.055588f, 0.197604f, 0.110988f, 0.169767f, 0.172084f, 0.022984f, 0.260839f, -0.175424f, 0.261341f, -0.005543f, -0.005880f, -0.227550f, -0.141237f, -0.218555f, -0.101877f, 0.272755f, -0.136302f, 0.187394f, 0.114123f, -0.205410f, 0.069153f, 0.197578f, -0.017479f, -0.217609f, 0.085597f, -0.308729f, -0.044306f, -0.315867f, 0.084493f, -0.168919f, -0.096685f, -0.084485f, -0.255995f, -0.131056f, -0.284586f, 0.104930f, -0.206641f, -0.177975f, 0.144699f, -0.103018f, 0.026389f, 0.239652f, 0.056698f, 0.060565f, 0.188629f, 0.194632f, -0.110681f, 0.011031f, -0.209605f, 0.099091f, 0.117919f, 0.130913f, -0.079672f, -0.251463f, -0.118714f, 0.000001f, -0.091899f, 0.116811f, -0.053672f, -0.294640f, -0.226994f, 0.243489f, -0.077231f, 0.175465f, -0.279825f, 0.225091f, 0.209316f, 0.121236f, 0.067812f, -0.270461f, -0.000279f, 0.104259f, -0.100153f, 0.325111f, 0.255801f, 0.229000f, -0.105542f, 0.267889f, -0.191469f, 0.190680f, -0.212606f, -0.166441f, -0.239895f, 0.196509f, 0.056236f, -0.235298f, 0.015754f, 0.134697f, 0.219544f, 0.056365f, 0.134037f, -0.160816f, 0.220253f, -0.062960f, 0.134367f, 0.042422f, 0.222757f, -0.085038f, 0.068845f, 0.297631f, -0.077000f, 0.029745f, -0.207248f, -0.250834f, 0.061342f, 0.095452f, 0.215800f, -0.064370f, -0.253410f, 0.281538f, 0.100868f, -0.293188f, 0.224637f, -0.043320f, 0.249623f, 0.134859f, 0.172122f, 0.173426f, 0.085823f, -0.298410f, 0.106274f, 0.269085f, 0.154282f, -0.091554f, 0.244544f, 0.282878f, 0.152358f, -0.033027f, -0.179006f, 0.227045f, 0.072556f, 0.106944f, 0.077812f, 0.175987f, -0.230752f, 0.095408f, -0.213769f, 0.274265f, 0.252901f, -0.077346f, 0.218132f, 0.268679f, -0.197421f, 0.040247f, -0.271150f, -0.309187f, -0.104564f, 0.027117f, -0.314052f, -0.105016f, 0.329819f, 0.211016f, -0.290903f, -0.256913f, 0.181485f, 0.323628f, -0.117659f, -0.270344f, 0.216367f, -0.070560f, -0.045597f, 0.245149f, 0.061132f, -0.072414f, 0.296399f, 0.041850f, -0.298213f, 0.143174f, -0.099064f, 0.290521f, -0.139171f, 0.152008f, 0.280818f, -0.240652f, 0.145999f, 0.240823f, -0.135016f, 0.263570f, -0.092071f, -0.148126f, 0.341039f, 0.269268f, 0.202848f, 0.031658f, -0.188576f, -0.246066f, -0.162054f, -0.118978f, 0.046788f, 0.127582f, 0.149619f, 0.021092f, 0.139010f, -0.091546f, -0.159141f, 0.178771f, -0.012722f, -0.079159f, -0.262501f, -0.140545f, 0.126149f, 0.007390f, 0.250497f, 0.124966f, 0.181432f, -0.244027f, -0.061042f, -0.041157f, 0.101968f, -0.012493f, 0.182525f, 0.080452f, -0.071311f, 0.155911f, -0.265578f, -0.135196f, 0.074483f, 0.012734f, 0.304914f, -0.235701f, -0.204808f, 0.069592f, -0.204815f, -0.004542f, -0.140509f, -0.104665f, -0.175183f, -0.188601f, 0.070309f, -0.181273f, 0.212370f, 0.013422f, 0.139173f, -0.036178f, -0.121010f, -0.275789f, 0.109905f, 0.087789f, 0.011872f, -0.007166f, -0.175302f, 0.085840f, -0.169552f, -0.179342f, -0.002880f, 0.184063f, -0.256794f, 0.130639f, -0.198059f, 0.153650f, 0.025312f, 0.180965f, -0.069175f, -0.300936f, 0.136309f, 0.289421f, 0.212330f, 0.176607f, -0.031955f, -0.146038f, -0.287082f, -0.208298f, 0.310880f, -0.325031f, -0.064055f, -0.033888f, -0.086172f, 0.088192f, 0.257738f, 0.223928f, -0.056269f, 0.027497f, 0.270752f, 0.172289f, 0.107238f, 0.032209f, 0.248680f, -0.072133f, 0.213202f, -0.193407f, -0.131210f, 0.260460f, 0.177777f, 0.132317f, 0.063665f, 0.246620f, -0.311567f, -0.111089f, -0.102897f, 0.016420f, -0.169199f, 0.166386f, -0.195743f, -0.076916f, -0.304003f, -0.205107f, -0.185877f, -0.135600f, 0.156796f, -0.183000f, 0.288118f, 0.286337f, -0.214729f, -0.052401f, 0.147416f, 0.092322f, -0.070436f, 0.137236f, 0.081249f, 0.157897f, -0.015755f, -0.209350f, -0.159068f, -0.303237f, 0.016225f, 0.045238f, -0.252777f, 0.118417f, 0.094032f, -0.276299f, -0.036522f, 0.188997f, 0.198509f, 0.290469f, 0.198655f, 0.251310f, -0.080367f, 0.004846f, -0.006874f, 0.076406f, 0.216848f, 0.259547f, -0.052717f, -0.097348f, -0.019099f, -0.064494f, 0.088950f, 0.048971f, -0.142969f, -0.128984f, 0.073304f, 0.279749f, -0.316140f, -0.231074f, 0.141425f, -0.101213f, -0.101259f, 0.023070f, -0.293376f, 0.099053f, 0.240101f, 0.202970f, 0.169830f, 0.014110f, 0.017886f, 0.069420f, -0.183822f, -0.188408f, 0.029916f, -0.261052f, 0.293878f, -0.322732f, 0.128814f, 0.106991f, -0.053435f, -0.013028f, 0.051160f, 0.061658f, 0.096008f, 0.317012f, 0.266171f, -0.023815f, -0.258086f, 0.042204f, 0.190632f, -0.256120f, 0.194126f, 0.252016f, 0.003270f, 0.029559f, -0.064885f, -0.073529f, 0.258261f, 0.228077f, -0.210852f, -0.114973f, 0.060721f, 0.128274f, 0.178840f, 0.079812f, 0.070789f, 0.087525f, 0.042980f, -0.116275f, -0.295446f, 0.045189f, 0.072147f, -0.044812f, -0.181869f, -0.249627f, 0.266533f, -0.013016f, 0.242541f, 0.118902f, 0.018492f, 0.035541f, 0.254809f, -0.174487f, -0.297457f, -0.094613f, 0.034409f, -0.062835f, 0.081802f, 0.176746f, 0.117107f, 0.164751f, -0.274361f, -0.049655f, -0.059071f, -0.050271f, 0.317357f, 0.064672f, 0.233281f, 0.312080f, -0.180068f, 0.290078f, -0.196472f, 0.164446f, 0.122072f, -0.234367f, 0.011156f, 0.231841f, -0.145452f, 0.192685f, 0.283239f, 0.265164f, -0.299214f, -0.058103f, 0.281381f, 0.154694f, -0.288455f, 0.282244f, 0.071034f, -0.179052f, -0.286103f, 0.220783f, 0.266394f, 0.154770f };
static const float cuore_layer_8_biases[30] = { 0.017578f, 0.008446f, 0.000164f, -0.007799f, -0.004110f, -0.010131f, 0.000000f, 0.026527f, 0.004323f, 0.000000f, 0.000000f, 0.016724f, -0.003048f, 0.000000f, -0.004016f, 0.000000f, 0.000000f, -0.030885f, 0.006616f, -0.007247f, -0.017312f, 0.000000f, -0.012567f, -0.005619f, 0.001724f, -0.013918f, -0.005480f, -0.004501f, -0.011113f, -0.020531f };
static const float cuore_layer_8_weights[900] = { 0.265363f, -0.224746f, -0.035868f, -0.313015f, -0.211230f, -0.002272f, 0.275025f, 0.017747f, -0.232794f, 0.065069f, 0.049739f, 0.257886f, -0.167985f, 0.265317f, 0.199553f, -0.133195f, -0.023430f, -0.179184f, -0.191576f, 0.058128f, -0.212881f, 0.168151f, 0.188373f, -0.313473f, -0.265775f, -0.278207f, 0.052536f, 0.303269f, -0.237504f, 0.293861f, -0.296803f, -0.141795f, 0.316691f, -0.129043f, 0.301123f, 0.052211f, 0.155219f, 0.177659f, 0.067203f, -0.066906f, 0.017714f, 0.292303f, -0.312133f, 0.142519f, -0.059037f, 0.166231f, -0.199440f, 0.273305f, 0.284201f, -0.063273f, -0.158722f, -0.277773f, 0.130190f, -0.056768f, 0.185378f, -0.175751f, 0.157582f, -0.272040f, 0.147110f, -0.221246f, 0.036021f, -0.231276f, 0.193320f, -0.019911f, 0.124251f, 0.242588f, -0.204870f, -0.216662f, 0.286368f, -0.248788f, -0.299830f, -0.106964f, 0.174646f, -0.090674f, -0.015361f, -0.046826f, -0.076745f, -0.156185f, -0.081880f, 0.147606f, -0.007590f, -0.093027f, 0.274686f, 0.000295f, 0.234095f, 0.179133f, 0.032521f, 0.060716f, -0.159388f, 0.245691f, -0.249710f, -0.061483f, 0.038065f, -0.090629f, -0.101283f, -0.043408f, -0.054721f, 0.162204f, 0.049504f, -0.221601f, 0.146749f, -0.257243f, 0.041717f, 0.211352f, 0.186671f, 0.000238f, 0.106931f, -0.225600f, -0.094700f, -0.033253f, -0.298909f, 0.039862f, 0.250405f, -0.090926f, -0.112406f, -0.029786f, -0.050633f, 0.195143f, -0.286622f, 0.110182f, -0.170853f, -0.095739f, -0.169575f, 0.114285f, -0.188884f, 0.236676f, 0.245423f, -0.309868f, 0.286163f, 0.259636f, 0.235735f, 0.267113f, -0.290830f, -0.013224f, -0.233538f, -0.039830f, 0.185253f, -0.141425f, 0.206613f, -0.191661f, -0.043778f, -0.053968f, 0.020044f, 0.142898f, 0.199443f, -0.307235f, -0.245317f, -0.044652f, -0.046552f, -0.083048f, 0.198494f, 0.150887f, -0.259576f, -0.225795f, 0.202571f, -0.088107f, 0.272367f, 0.022508f, -0.116431f, -0.203035f, 0.220972f, -0.144766f, -0.328071f, 0.216500f, 0.254246f, 0.016601f, -0.282097f, -0.065186f, -0.094666f, -0.190311f, 0.124206f, -0.239488f, -0.319349f, 0.045058f, -0.210473f, 0.111851f, 0.171008f, -0.261258f, -0.253695f, -0.076028f, 0.300480f, -0.262505f, 0.197879f, 0.006919f, -0.015826f, 0.106608f, 0.142007f, -0.123399f, 0.279884f, -0.039603f, -0.238268f, 0.050488f, 0.292120f, 0.210160f, -0.178966f, 0.226609f, 0.071470f, 0.002442f, -0.088669f, -0.141916f, -0.021488f, -0.316118f, 0.189663f, -0.080941f, 0.035672f, 0.273937f, -0.147332f, -0.206003f, 0.029379f, -0.045241f, 0.151197f, 0.151240f, 0.281332f, 0.100315f, 0.154073f, 0.159313f, -0.038545f, 0.061571f, -0.170522f, -0.071087f, -0.001444f, -0.215572f, 0.277247f, -0.147840f, 0.086603f, -0.136965f, -0.146568f, -0.190391f, -0.014547f, 0.301579f, 0.081516f, -0.011314f, -0.228795f, 0.266848f, 0.021718f, -0.191752f, 0.249341f, -0.322712f, 0.262997f, -0.039006f, 0.133610f, 0.279440f, 0.288863f, 0.148171f, -0.139200f, -0.118597f, 0.029210f, 0.234889f, -0.116745f, -0.085374f, 0.093652f, 0.121640f, -0.289974f, -0.155811f, -0.109199f, -0.239230f, -0.117521f, 0.104075f, 0.293105f, 0.141431f, 0.218849f, -0.184711f, 0.108852f, 0.186484f, 0.109903f, -0.246583f, -0.173277f, 0.041964f, 0.157603f, -0.118425f, 0.203483f, 0.263482f, 0.016553f, -0.178430f, 0.026284f, -0.055316f, -0.269445f, -0.119500f, -0.270430f, -0.170626f, 0.159511f, 0.187773f, -0.112920f, -0.296971f, 0.104152f, -0.294737f, -0.210691f, 0.177786f, 0.052178f, -0.052163f, 0.157183f, -0.307782f, -0.059388f, -0.022910f, -0.068182f, -0.325056f, -0.203233f, 0.050090f, 0.099323f, 0.279822f, 0.330118f, 0.103477f, -0.068448f, -0.164274f, -0.269492f, 0.238572f, -0.253964f, -0.063441f, 0.245270f, 0.038642f, 0.029616f, -0.039688f, -0.263955f, -0.207582f, -0.095285f, 0.120787f, 0.140031f, -0.128791f, 0.101518f, 0.177811f, -0.018881f, 0.061515f, 0.302299f, -0.073939f, 0.179090f, 0.130407f, 0.152080f, -0.064016f, -0.027022f, 0.208691f, -0.169082f, 0.129495f, 0.068310f, 0.286647f, 0.223161f, 0.100301f, -0.141265f, -0.231329f, 0.146373f, 0.051727f, -0.068097f, 0.082337f, 0.170658f, -0.155104f, -0.134294f, 0.055579f, -0.010241f, 0.271912f, 0.202415f, -0.120147f, -0.222849f, -0.166113f, -0.166455f, -0.038682f, 0.171679f, -0.064191f, 0.296360f, -0.173011f, 0.058832f, -0.234125f, 0.195486f, 0.225212f, 0.050297f, 0.300116f, -0.274355f, 0.307468f, -0.287068f, 0.080582f, 0.139825f, -0.049602f, -0.046421f, 0.042047f, 0.300195f, -0.114020f, -0.222403f, -0.120180f, 0.031775f, -0.075222f, -0.132976f, -0.179070f, -0.219567f, 0.039343f, -0.071544f, -0.123733f, 0.054539f, -0.238050f, 0.112460f, 0.308068f, -0.006818f, 0.182443f, 0.177311f, -0.236745f, -0.085370f, 0.253527f, -0.168695f, 0.078150f, -0.257356f, 0.115704f, 0.079151f, -0.160945f, -0.095448f, -0.091477f, 0.197639f, -0.025203f, 0.194751f, -0.145644f, 0.097871f, -0.205736f, 0.051831f, 0.045022f, -0.173648f, 0.102865f, -0.095349f, -0.110898f, -0.161258f, -0.011832f, 0.205872f, -0.083989f, -0.171329f, 0.003657f, -0.123829f, -0.156187f, -0.216900f, -0.308129f, -0.136177f, -0.180754f, -0.175370f, 0.307837f, -0.168236f, -0.234850f, 0.303771f, 0.085033f, 0.128296f, -0.274804f, 0.223739f, 0.030389f, 0.187992f, 0.268732f, -0.147111f, 0.238365f, 0.102874f, -0.304717f, 0.043003f, 0.180046f, -0.079922f, -0.160857f, 0.088543f, 0.304558f, -0.191056f, -0.219481f, 0.048267f, -0.007709f, -0.257673f, 0.063231f, 0.309378f, -0.143557f, -0.115398f, -0.056753f, -0.283067f, 0.123766f, 0.156472f, -0.168307f, -0.244189f, -0.183952f, -0.151940f, -0.011557f, -0.247263f, -0.341113f, -0.283240f, 0.194549f, -0.081478f, -0.145271f, 0.165217f, 0.266139f, 0.270039f, 0.224479f, -0.048132f, 0.030848f, 0.132007f, 0.248889f, -0.002897f, -0.109221f, 0.099300f, 0.263986f, 0.117537f, 0.223277f, -0.146533f, -0.246748f, 0.054662f, -0.214762f, -0.029705f, 0.152961f, 0.315710f, 0.004578f, -0.144727f, 0.153345f, 0.173416f, 0.065760f, -0.258197f, 0.262318f, -0.281786f, 0.016314f, -0.155471f, -0.076374f, 0.113557f, -0.044380f, 0.268512f, -0.164827f, 0.256790f, -0.208560f, 0.251964f, 0.245485f, -0.241705f, -0.092003f, 0.206006f, 0.054324f, -0.108863f, -0.265769f, -0.046467f, 0.251145f, -0.270806f, -0.180043f, 0.053718f, -0.083473f, 0.297348f, -0.226716f, -0.135331f, 0.049831f, 0.047462f, -0.054848f, -0.131483f, -0.073389f, 0.144155f, -0.091752f, -0.291274f, -0.224196f, 0.180057f, -0.281287f, 0.134626f, 0.068324f, -0.069074f, 0.147279f, -0.003957f, -0.177415f, -0.040515f, -0.231043f, -0.036770f, 0.036624f, 0.205813f, 0.104969f, 0.101424f, 0.107642f, -0.163921f, -0.292090f, 0.261370f, 0.261500f, -0.177603f, 0.076510f, -0.201290f, -0.168931f, 0.068339f, 0.044363f, 0.020405f, 0.179190f, 0.183041f, 0.055375f, -0.006046f, 0.081083f, -0.301418f, -0.138979f, 0.293277f, 0.043229f, 0.094904f, -0.206414f, -0.316189f, -0.262934f, 0.052393f, 0.106709f, -0.077739f, 0.099871f, 0.030327f, 0.103680f, 0.005778f, 0.053517f, 0.084261f, 0.057917f, 0.061035f, 0.268544f, -0.003443f, 0.293160f, 0.209779f, 0.055818f, -0.036163f, -0.111397f, 0.243360f, 0.120931f, -0.116458f, 0.192351f, -0.272828f, 0.047942f, -0.177530f, 0.281431f, -0.289585f, -0.119903f, 0.194015f, 0.030870f, -0.266281f, -0.117468f, -0.177864f, -0.293416f, -0.137077f, -0.251713f, 0.188259f, 0.234514f, 0.283208f, -0.283382f, 0.242014f, 0.251938f, -0.065542f, 0.030368f, 0.014935f, 0.025381f, -0.269485f, 0.040406f, 0.044677f, 0.150856f, 0.222204f, 0.242162f, -0.087601f, 0.228267f, 0.184035f, -0.095117f, 0.155965f, 0.075510f, -0.022253f, 0.176355f, -0.277249f, -0.222744f, 0.232749f, -0.204229f, -0.140388f, 0.153060f, -0.114539f, 0.104574f, -0.097211f, 0.027695f, -0.233812f, -0.173442f, 0.041949f, -0.027915f, 0.000554f, -0.063025f, -0.246166f, 0.080548f, 0.227234f, -0.122635f, 0.041196f, 0.251246f, -0.047401f, -0.000379f, -0.257861f, 0.289292f, 0.299034f, 0.285476f, 0.181963f, 0.098007f, 0.276614f, -0.287715f, -0.124521f, 0.293403f, -0.070485f, 0.022669f, 0.141835f, 0.221961f, -0.202829f, 0.313486f, -0.114461f, 0.199799f, -0.206708f, 0.194243f, 0.016449f, -0.054722f, 0.182428f, -0.083780f, -0.005904f, 0.058275f, 0.125178f, 0.197295f, 0.122534f, 0.104268f, 0.322556f, -0.240904f, -0.312684f, -0.190403f, -0.227065f, 0.024835f, 0.121884f, 0.213294f, 0.064427f, 0.082301f, 0.018936f, -0.238681f, 0.204777f, 0.064043f, -0.205023f, 0.219424f, -0.185687f, 0.103275f, 0.201110f, 0.121211f, 0.124909f, -0.017963f, 0.248098f, 0.024075f, 0.190675f, 0.237431f, 0.139172f, 0.124784f, -0.225139f, -0.055208f, 0.240873f, 0.025619f, 0.191786f, 0.265987f, 0.211526f, 0.309066f, -0.011608f, -0.020238f, -0.153867f, 0.099957f, 0.016668f, 0.213002f, -0.135494f, -0.143390f, 0.033964f, -0.102556f, -0.025184f, -0.245551f, -0.156935f, 0.261118f, 0.245402f, -0.219192f, -0.118210f, -0.295265f, -0.297338f, 0.189819f, 0.303463f, -0.074290f, -0.209433f, -0.276687f, -0.293407f, 0.298020f, -0.199173f, 0.256910f, -0.146306f, 0.064915f, -0.190442f, -0.044198f, -0.156023f, -0.297919f, -0.047630f, -0.077260f, 0.016115f, -0.091280f, -0.291925f, 0.045957f, -0.134384f, -0.274473f, 0.022478f, -0.198503f, -0.309389f, -0.212831f, 0.007306f, -0.086874f, 0.168230f, 0.259577f, 0.179752f, 0.161895f, 0.181386f, 0.232003f, -0.245574f, -0.009005f, 0.167360f, -0.164617f, 0.218269f, 0.260608f, 0.069193f, 0.289722f, -0.117675f, 0.161300f, -0.222218f, 0.197813f, -0.266389f, 0.274017f, 0.274295f, -0.109531f, -0.104069f, -0.196122f, -0.022737f, 0.256360f, -0.211156f, 0.091158f, -0.180934f, 0.225229f, 0.084371f, -0.076937f, 0.052455f, -0.125669f, 0.097515f, 0.269452f, 0.014019f, -0.028725f, -0.267219f, 0.205614f, 0.228590f, -0.047256f, -0.260947f, -0.233268f, -0.006928f, 0.006798f, -0.287638f, 0.227174f, 0.194339f, 0.225366f, -0.064503f, 0.181761f, 0.136169f, -0.121680f, 0.265663f, 0.157697f, 0.011458f, 0.078346f, 0.125293f, -0.206238f, 0.142253f, 0.269586f, -0.158833f, -0.136719f, 0.203902f, -0.004110f, 0.247624f, 0.115048f, 0.074019f, -0.127488f, 0.061307f, -0.182472f, -0.174568f, -0.009705f, 0.015829f, -0.237724f, -0.101624f, 0.255151f, -0.100931f, 0.033785f, 0.067605f, 0.308902f, -0.203903f, -0.012279f, -0.189028f, -0.297945f, -0.064357f, -0.077560f, 0.135549f, -0.224944f, -0.142031f, 0.003786f, -0.154211f, -0.279498f, 0.098629f, 0.177918f, -0.117475f, -0.096128f, 0.147233f, 0.019816f, 0.243880f, -0.158800f, -0.101216f, 0.051622f, -0.022609f, -0.283055f, -0.221162f, 0.206161f, 0.069666f, -0.200645f, 0.242216f, 0.012781f, 0.194245f, -0.346856f, -0.074578f, -0.180229f, 0.072303f, -0.078456f, -0.049510f, -0.172976f, -0.299050f, 0.164915f, 0.088293f, 0.058589f, -0.168448f, -0.317264f };
static const float cuore_layer_9_biases[30] = { -0.019333f, 0.013706f, 0.009703f, 0.007176f, -0.017344f, -0.013858f, 0.023665f, 0.000000f, -0.011126f, 0.000000f, 0.000000f, -0.005902f, -0.010531f, 0.014311f, 0.004304f, 0.000382f, -0.005005f, 0.000000f, 0.009889f, 0.000000f, 0.004829f, -0.018514f, 0.007015f, 0.000000f, 0.007757f, 0.000000f, 0.004486f, 0.000000f, -0.003563f, 0.000000f };
static const float cuore_layer_9_weights[900] = { 0.288125f, 0.132685f, -0.013085f, -0.130875f, 0.101870f, 0.184900f, 0.262473f, -0.187693f, -0.003041f, -0.314177f, -0.307570f, 0.024136f, -0.005286f, 0.036996f, 0.022666f, -0.032993f, 0.149802f, 0.140166f, -0.116579f, -0.029346f, 0.193690f, -0.230720f, 0.268231f, 0.143400f, -0.041351f, 0.228350f, -0.211790f, -0.126266f, 0.080395f, 0.084246f, -0.048740f, 0.047964f, -0.105798f, 0.153344f, -0.227652f, 0.002230f, 0.047232f, -0.096020f, 0.254203f, 0.246839f, -0.244084f, 0.061750f, -0.216359f, 0.301139f, -0.218184f, -0.012773f, -0.088721f, 0.056741f, -0.274615f, 0.105550f, -0.131831f, 0.232617f, 0.185122f, -0.290901f, 0.030920f, -0.213088f, 0.278357f, -0.251455f, -0.219380f, -0.155566f, 0.136649f, -0.188914f, -0.082953f, -0.043435f, 0.225414f, 0.020441f, 0.130920f, -0.129225f, -0.087101f, -0.210557f, -0.079222f, -0.177440f, 0.291864f, 0.280302f, -0.258829f, -0.068366f, -0.011247f, -0.235941f, 0.261805f, 0.136921f, -0.185953f, -0.036843f, -0.197975f, -0.024465f, 0.064696f, 0.135290f, 0.020676f, -0.157729f, 0.018248f, -0.257922f, -0.178721f, 0.099706f, -0.068476f, -0.129365f, 0.097813f, -0.247359f, -0.167661f, -0.084019f, 0.072653f, -0.302235f, -0.273563f, -0.164466f, 0.199961f, 0.147708f, -0.307671f, -0.256747f, 0.228454f, -0.173094f, 0.009206f, -0.299351f, -0.122066f, 0.096290f, 0.103759f, 0.072529f, -0.089572f, 0.313046f, 0.094239f, -0.140192f, 0.085197f, 0.049277f, 0.177965f, 0.082559f, -0.016080f, -0.273571f, 0.156743f, -0.126627f, -0.160251f, 0.202446f, 0.134130f, -0.178690f, -0.100894f, 0.111787f, -0.007207f, -0.173551f, 0.008039f, 0.101920f, -0.229362f, 0.011662f, 0.086142f, -0.119733f, -0.243575f, 0.077590f, 0.305147f, 0.108660f, -0.266803f, 0.036199f, -0.227945f, 0.302254f, -0.242799f, -0.079846f, 0.043796f, -0.297135f, 0.184158f, -0.196037f, -0.218968f, -0.134926f, -0.015669f, -0.228275f, 0.193311f, -0.109427f, 0.084274f, -0.013990f, -0.201509f, -0.216707f, 0.221468f, 0.250510f, -0.044627f, 0.186712f, -0.132323f, -0.127487f, -0.153546f, 0.081134f, 0.123257f, 0.147349f, 0.035731f, 0.002878f, -0.149959f, 0.056275f, 0.196290f, -0.252233f, 0.257492f, 0.292542f, 0.254744f, 0.296768f, 0.301332f, -0.060161f, -0.106872f, -0.028924f, -0.158084f, 0.171107f, 0.004913f, 0.313111f, 0.196366f, 0.304591f, -0.168311f, -0.208809f, 0.169611f, 0.199303f, 0.164081f, 0.079152f, 0.267726f, 0.217980f, 0.138113f, 0.129259f, -0.302003f, 0.092274f, 0.168444f, -0.165479f, -0.120857f, 0.083799f, 0.185242f, 0.069918f, 0.148346f, 0.355570f, 0.244312f, -0.315307f, -0.064843f, 0.174674f, 0.021368f, 0.218696f, -0.075229f, 0.241322f, 0.174152f, -0.206875f, 0.019238f, -0.135242f, -0.233630f, 0.306829f, 0.174853f, 0.122796f, -0.131844f, 0.219537f, -0.238240f, 0.293169f, 0.344221f, -0.128512f, 0.106845f, -0.241138f, 0.223970f, 0.126523f, 0.203145f, -0.181808f, -0.011748f, 0.206011f, -0.174141f, 0.259032f, 0.282098f, -0.003482f, 0.171732f, 0.071567f, -0.065362f, 0.249686f, 0.131213f, -0.222102f, -0.223887f, 0.051608f, 0.081725f, -0.002422f, 0.034466f, -0.063857f, 0.228036f, 0.093867f, -0.013617f, 0.210115f, -0.206717f, -0.160116f, 0.260746f, -0.225911f, -0.219328f, -0.174360f, 0.223804f, 0.220745f, -0.140422f, -0.220419f, -0.206534f, 0.214366f, 0.146806f, 0.205874f, 0.271156f, -0.279974f, -0.266796f, 0.194059f, 0.271445f, -0.255931f, -0.304117f, 0.294967f, 0.235850f, -0.145676f, 0.159401f, -0.074713f, 0.265807f, 0.030136f, 0.188532f, 0.117164f, -0.016945f, 0.226029f, -0.310688f, 0.001890f, -0.278598f, 0.014254f, -0.246397f, -0.265426f, -0.090158f, 0.008900f, 0.047762f, -0.196973f, 0.171048f, 0.076203f, 0.264211f, 0.064897f, 0.057300f, 0.223096f, -0.037910f, -0.008913f, -0.089944f, -0.169785f, 0.230928f, -0.270996f, 0.205453f, -0.055383f, -0.258475f, -0.291176f, -0.266509f, 0.253187f, 0.155067f, -0.121463f, -0.183671f, -0.100479f, -0.256896f, 0.052970f, -0.096345f, 0.268158f, 0.176751f, -0.117109f, -0.208665f, -0.078313f, 0.099504f, -0.126549f, 0.041400f, 0.044675f, 0.141654f, -0.028923f, 0.177013f, -0.084147f, 0.120179f, -0.225436f, -0.023262f, -0.151657f, -0.177566f, -0.099736f, -0.173302f, 0.054939f, 0.011763f, -0.133801f, 0.161639f, -0.166952f, 0.140663f, -0.204338f, 0.200898f, -0.258007f, 0.009507f, -0.016908f, -0.265826f, 0.000902f, 0.055729f, 0.053419f, -0.277457f, -0.094482f, 0.025986f, -0.309929f, -0.165230f, 0.308910f, 0.240642f, 0.221199f, 0.095158f, 0.331248f, 0.133245f, -0.109768f, 0.196816f, 0.092511f, 0.112658f, 0.291618f, 0.332494f, -0.169316f, -0.103635f, -0.284517f, 0.108936f, -0.299447f, -0.028561f, -0.010781f, -0.095965f, 0.286485f, -0.073125f, 0.129838f, 0.281751f, -0.235798f, 0.074623f, 0.152413f, 0.079007f, -0.226188f, 0.048327f, 0.168697f, -0.005141f, -0.071661f, -0.097392f, -0.237134f, -0.077646f, -0.106937f, -0.262175f, 0.238642f, 0.228216f, -0.262766f, 0.154229f, -0.157581f, 0.136980f, -0.251329f, -0.309209f, -0.218439f, 0.116154f, 0.063547f, -0.044810f, 0.080121f, 0.174124f, 0.164404f, 0.020783f, -0.258820f, -0.002175f, -0.218148f, -0.147196f, -0.287943f, 0.266423f, -0.102798f, 0.274230f, -0.178969f, -0.019017f, -0.038057f, 0.076353f, -0.048756f, -0.093236f, -0.266928f, 0.136864f, -0.151747f, -0.141418f, -0.108368f, -0.177740f, -0.255416f, 0.187335f, -0.141065f, 0.044881f, -0.101225f, -0.011457f, 0.166609f, -0.168930f, 0.164657f, -0.074097f, 0.048705f, -0.182158f, -0.273447f, -0.162554f, 0.027420f, -0.124348f, 0.030721f, -0.220304f, 0.017817f, 0.056427f, 0.087282f, -0.204983f, 0.256066f, 0.212681f, -0.191344f, 0.294421f, 0.048473f, 0.007463f, 0.219106f, -0.185937f, -0.074950f, -0.187693f, 0.167801f, -0.296522f, -0.067947f, 0.156334f, -0.237614f, 0.235566f, 0.080353f, 0.116072f, 0.184686f, -0.155114f, -0.053116f, -0.007049f, -0.016702f, 0.102785f, 0.032644f, -0.246599f, -0.080389f, -0.069455f, 0.035175f, 0.163762f, 0.208785f, -0.132726f, 0.270166f, -0.228656f, -0.190718f, 0.186475f, 0.236509f, -0.149958f, -0.184224f, 0.172690f, -0.291050f, 0.259665f, 0.204006f, -0.072183f, 0.092336f, -0.021954f, 0.210638f, 0.093539f, 0.102366f, -0.171927f, -0.134962f, 0.284880f, 0.072570f, 0.258470f, 0.156129f, -0.086457f, 0.298647f, 0.217787f, 0.108038f, -0.206307f, 0.079357f, 0.304726f, -0.192020f, 0.122092f, -0.269551f, 0.244741f, -0.202310f, -0.149323f, 0.173301f, -0.235706f, -0.311313f, -0.071670f, -0.219670f, -0.083397f, -0.024574f, -0.228496f, 0.315345f, -0.256690f, -0.229884f, 0.117234f, 0.227533f, 0.002881f, -0.266191f, -0.045156f, 0.071998f, 0.292408f, 0.238938f, -0.075243f, -0.184237f, -0.316131f, 0.101326f, 0.022978f, -0.217254f, -0.079031f, -0.268890f, 0.203993f, 0.213795f, -0.082567f, 0.294704f, 0.109345f, 0.119712f, 0.225516f, -0.111562f, 0.125076f, 0.110390f, 0.063163f, -0.018075f, -0.258759f, 0.052938f, 0.069981f, 0.089232f, 0.285927f, 0.168119f, -0.091455f, 0.039328f, 0.282997f, -0.174705f, -0.176307f, 0.135824f, 0.081849f, -0.284536f, 0.061300f, -0.010548f, 0.172185f, -0.116030f, -0.241706f, -0.182707f, 0.107722f, -0.194764f, 0.256530f, -0.283173f, 0.208465f, 0.009024f, -0.056439f, 0.176087f, 0.251173f, 0.342491f, 0.035523f, 0.166357f, -0.204831f, -0.003941f, 0.230105f, -0.251125f, -0.002420f, -0.013889f, 0.196442f, 0.278963f, 0.115463f, 0.056733f, -0.226485f, -0.285972f, 0.100650f, -0.151650f, -0.099373f, -0.328395f, -0.139208f, 0.126371f, 0.233409f, -0.287860f, -0.174132f, -0.260818f, 0.133109f, -0.043896f, -0.202133f, 0.201633f, -0.105700f, -0.286012f, 0.312184f, -0.279647f, -0.101171f, -0.086134f, 0.266158f, 0.251095f, -0.236187f, 0.281482f, -0.263450f, 0.177274f, -0.032624f, 0.033904f, 0.042235f, -0.145292f, 0.306749f, 0.004440f, 0.173166f, 0.164475f, -0.113291f, -0.105103f, -0.150030f, -0.232225f, -0.196248f, 0.297054f, 0.149672f, -0.304279f, -0.154526f, 0.237730f, 0.200775f, 0.177548f, -0.070071f, 0.097035f, -0.131362f, 0.067143f, 0.313618f, 0.297389f, -0.216877f, 0.268944f, 0.260431f, 0.187721f, 0.055006f, 0.094102f, 0.020492f, -0.020859f, 0.214412f, -0.132637f, 0.119005f, 0.106776f, -0.287198f, 0.143864f, -0.019755f, -0.108664f, -0.123523f, 0.281776f, 0.031666f, -0.215544f, -0.175506f, 0.115159f, -0.121770f, -0.265488f, -0.157995f, -0.131395f, 0.234337f, 0.281249f, -0.115730f, 0.307831f, -0.127055f, -0.254045f, 0.266596f, 0.311054f, 0.180868f, -0.025977f, -0.068912f, 0.295082f, 0.273699f, -0.129593f, 0.171519f, 0.043416f, 0.012826f, -0.288674f, -0.173018f, 0.264575f, 0.162418f, -0.176402f, -0.309808f, -0.258340f, 0.111747f, -0.160933f, -0.101529f, 0.226371f, 0.291205f, -0.065072f, -0.162380f, -0.154922f, -0.155820f, -0.124591f, 0.165837f, 0.290538f, 0.219110f, -0.167150f, 0.195466f, 0.127816f, 0.069294f, -0.237060f, -0.224606f, -0.299567f, -0.058873f, -0.275654f, -0.227883f, -0.254732f, 0.341756f, 0.147650f, 0.013845f, -0.224373f, -0.264662f, -0.252732f, 0.064761f, 0.192166f, 0.087303f, 0.267913f, 0.085622f, 0.303369f, 0.099023f, -0.215113f, -0.106831f, -0.035958f, 0.038461f, -0.126363f, -0.271992f, 0.164476f, 0.149217f, 0.250881f, 0.227881f, -0.071579f, -0.145923f, -0.085500f, 0.333177f, 0.265239f, -0.181013f, 0.296939f, 0.033338f, -0.145598f, 0.068776f, -0.273142f, 0.060789f, 0.053381f, 0.234330f, -0.041474f, -0.123942f, 0.214061f, -0.278996f, -0.219271f, -0.164193f, -0.262756f, -0.065175f, 0.123591f, -0.298287f, -0.257293f, -0.312513f, 0.054850f, 0.043626f, 0.101424f, 0.062661f, -0.229602f, 0.189954f, -0.197500f, 0.150893f, 0.159502f, -0.189140f, -0.244778f, 0.027252f, -0.181491f, -0.125561f, -0.071479f, 0.279053f, -0.209954f, -0.093155f, -0.014409f, 0.008188f, -0.193531f, 0.118620f, -0.203151f, 0.085061f, -0.226829f, -0.298854f, 0.165770f, -0.037462f, -0.295679f, -0.031682f, -0.200129f, -0.039853f, -0.246237f, 0.292113f, 0.135273f, 0.194431f, 0.314728f, 0.263840f, -0.076378f, 0.127451f, -0.061681f, -0.246939f, 0.023977f, -0.084837f, 0.304869f, 0.299248f, -0.025861f, 0.076316f, -0.052577f, -0.247407f, 0.180122f, -0.119267f, 0.164528f, 0.210735f, 0.297158f, 0.221279f, 0.014561f, -0.299179f, -0.199068f, -0.116714f, -0.176716f, -0.158191f, 0.265373f, -0.084269f, 0.087456f, -0.209917f, 0.040925f, -0.004507f, 0.223085f, -0.066959f, -0.153790f, -0.172743f, -0.085077f, -0.015311f, 0.018068f, -0.098235f, -0.135015f, -0.134686f, 0.145301f, -0.296736f, -0.240310f, -0.305094f, -0.063189f, 0.171953f, 0.229995f, -0.248649f, 0.271867f, 0.149995f, 0.264157f, 0.278647f, -0.092224f, -0.269421f, -0.047299f, -0.239186f, -0.257875f, 0.017126f, -0.078153f, 0.136991f, 0.169683f, -0.026291f, 0.169443f, -0.080231f, 0.062504f, -0.262093f, -0.034299f, 0.217530f, -0.231664f };
static const float cuore_layer_10_biases[30] = { -0.005920f, 0.040970f, 0.000000f, 0.001566f, -0.008426f, -0.013571f, -0.004552f, -0.011274f, -0.006325f, 0.000000f, -0.002056f, -0.008855f, 0.017592f, 0.000000f, -0.016009f, -0.013373f, -0.010590f, -0.017693f, 0.023926f, -0.041901f, 0.014709f, -0.004804f, 0.002786f, -0.002985f, 0.000000f, 0.000000f, 0.000000f, 0.000000f, -0.000374f, 0.000000f };
